-0.065008 -0.0227641 -0.0541515 -0.0400974 -0.0247033 -0.0530108 -0.0589334 0.0023133 0.0146869 0.050041 0.0451479 -0.0741805 -0.0398416 -0.0420684 -0.0618894 -0.0121098 0.0627027 -0.0551807 0.0179853 -0.0662099 0.0435131 0.0570302 -0.0505222 -0.00482229 -0.0637072 0.0168636 0.0483907 -0.036494 0.0759238 -0.0460898 0.0303101 0.0657505 0.0215656 -0.0202835 -0.0339728 0.014629 0.0372207 0.033303 0.0381369 0.0503015 -0.0172036 0.0260544 0.0276881 0.0029097 0.0478287 -0.0244318 0.009339 -0.0659352 0.0111486 -0.0291215 0.0337171 0.0536256 -0.0510761 -0.0100137 -0.0297759 0.0199647 -0.0167568 -0.0475512 -0.0269038 0.0297068 0.0664325 -0.0357973 0.0288651 0.0297355 -0.0197189 0.0250853 -0.0653969 -0.0491435 -0.038641 0.0741748 0.0735259 0.00237334 -0.0388837 -0.053145 -0.0740026 0.0159315 -0.0745565 -0.00419229 0.0099277 0.0619953 0.0605677 0.0512432 0.0307969 -0.074348 0.0712283 -0.0324618 0.0153424 -0.00955601 0.0385595 0.0512122 0.0469729 0.0623449 -0.0580717 0.0430092 0.0524059 -0.0116494 -0.055394 -0.0315427 -0.0517908 -0.0605452 0.0677878 -0.0363059 0.0143129 0.0736095 0.0552062 -0.0464055 -0.0724267 -0.0514642 -0.0474221 -0.00696888 0.0698955 -0.0507778 0.000333946 -0.0178159 -0.0193107 0.0356335 0.0343913 -0.0755072 -0.0352297 0.0314342 -0.0150798 0.0081142 -0.0238236 -0.0665394 -0.0325012 0.0180102 -0.0296561 -0.0296667 0.016593 -0.0482029 0.00785772 0.0419885 0.0557662 -0.0708786 0.0189394 0.000561848 0.00762621 -0.0454689 0.0718685 -6.80142e-05 -0.0726054 0.031325 0.0331243 0.0215217 -0.0305319 0.0365864 0.070752 -0.0188115 0.0751274 0.0647611 -0.0425732 -0.0514183 -0.0184862 -0.0228412 0.0623678 0.0581425 0.0586386 -0.0181274 0.0449158 -0.0396954 -0.0486428 0.0377086 0.0633002 -0.0593435 -0.00956704 0.0756102 0.015559 0.0576158 0.033127 0.0594459 0.0441021 -0.0247937 -0.0493736 0.0624969 0.00692836 0.0555613 -0.0343275 -0.0696149 0.0687772 0.0540413 0.0704661 0.0723474 -0.0711148 0.0449228 -0.0446242 -0.0723632 -0.00584964 -0.0204296 -0.0214642 -0.0174537 -0.0745451 0.00513916 0.00803942 0.0388431 -0.0273742 -0.050346 0.0582044 0.0370476 -0.0445973 0.0497045 0.0666024 0.0490037 -0.0624024 0.0626365 -0.0591951 0.0667313 -0.0307219 0.0423587 0.0145822 -0.0551787 0.0633834 -0.000331668 0.0392319 -0.00151178 0.0580646 0.0606744 0.0590383 -0.0498329 -0.0515498 -0.0554575 0.0195169 -0.0148992 -0.0529761 -0.0285912 -0.0461959 0.0348517 0.0406768 -0.0747244 -0.0729344 0.0705635 0.0477897 -0.00506819 -0.0576956 -0.0593191 0.0373322 0.0345484 0.0740037 0.0522526 0.0440759 -0.006093 -0.0499359 0.0574019 0.00217433 -0.00527412 0.0583359 0.0741408 0.0707167 -0.0199969 -0.0613755 -0.0697213 0.0249214 -0.0721471 0.0651207 -0.0149121 0.0415286 0.0663351 
0.0505117 0.00837929 0.0574505 -0.0232937 0.000630635 -0.0348552 0.0477206 -0.0277997 -0.0537617 0.0712069 0.0194711 -0.0327845 -0.0215154 -0.0164803 -0.0278151 -0.0230378 -0.000118521 0.0292639 0.019426 0.0658499 0.0318333 0.0218927 -0.074303 -0.0533007 -0.0118809 -0.0688157 0.0245823 -0.00146842 0.0643271 0.0562554 -0.0118704 0.0372533 0.0571948 -0.0236369 -0.0630534 0.074666 0.00479798 -0.0647569 0.0389309 0.035927 -0.00926169 -0.0141838 -0.00461443 0.0757088 0.0389153 -0.0679564 0.0305141 0.0120312 -0.0524957 0.0236324 -0.0686828 0.0475119 0.0518637 0.00606818 -0.0758718 0.0520064 0.0188787 -0.0218811 -0.0582284 0.0442871 -0.0592288 -0.0333853 -0.0654345 -0.0643931 0.0512 0.0605431 -0.0464312 -0.00150444 0.0036712 -0.0478533 0.0635076 0.0403025 -0.0331846 0.0473841 0.0374821 0.0198571 0.0281542 0.0395732 0.0696805 0.0105691 -0.00252445 -0.0300376 -0.0674835 0.00924897 0.034631 0.014565 -0.00216308 -0.0487387 -0.0578714 0.0400814 -0.00206216 -0.065591 0.0749545 -0.00219621 -0.0727733 0.00826208 -0.0246551 0.0595533 -0.0691064 -0.0408574 0.0039999 -0.0108902 -0.0236093 0.00892865 -0.0745992 0.0110771 -0.0307314 -0.0422204 0.0590479 0.0416644 0.0120488 -0.0215932 0.000363955 0.0746065 0.0400028 0.0642681 0.0296324 -0.00316481 0.0640868 0.0057388 -0.0414524 0.00654175 -0.0589142 0.0577902 0.0300779 0.0544447 0.0758818 -0.00342108 -0.0242392 -0.0205332 0.0397492 0.0428456 -0.00942571 0.0364801 -0.0698105 0.0226134 0.0357886 0.0548711 0.0447653 0.00545771 -0.0455619 0.0338629 0.0626303 -0.0550814 -0.0140636 -0.0108997 -0.0107236 0.0483313 0.0136229 0.0607736 0.0730488 0.0547306 -0.066853 -0.0174774 0.00808755 -0.0748605 0.0519576 -0.0727292 -0.0468403 -0.0586592 -0.0563129 0.0729611 -0.0718481 -0.00979018 0.0418906 0.0428049 -0.0138927 0.0687531 0.0348972 0.00822402 -0.0623644 0.0608666 0.0165318 -0.0382453 0.017653 0.00921147 0.0465194 0.00615952 -0.0493 -0.00916476 -0.0193118 -0.00907181 -0.0642079 -0.0537737 0.0391231 -0.0738959 -0.00326797 -0.0369954 -0.0497433 0.0675048 0.0254255 0.068037 0.0165735 0.0576654 -0.0039736 0.0633923 -0.0361358 -0.0127003 -0.0177601 -0.0129825 0.0461194 0.0353154 -0.0302467 -0.0186002 -0.0256495 -0.0335999 -0.0211627 -0.0647491 -0.0519332 -0.0491292 -0.00503801 0.0181112 0.0514021 -0.0203786 -0.0160417 0.011993 -0.0200195 0.0570456 0.0377422 -0.0543065 -0.0117553 0.0567005 0.0270811 -0.00360653 0.0238091 -0.0370954 0.0133552 0.0532378 -0.017825 0.026023 -0.0318431 -0.00440008 0.0701697 0.0636944 0.00924869 0.0280722 -0.0302621 0.0542938 -0.0730068 0.010433 0.0580556 -0.0555411 0.00864742 -0.0720218 -0.0728095 -0.0720168 -0.018398 0.029549 -0.0279743 -0.00549831 -0.0746083 -0.0339492 -0.0105841 -0.00635705 -0.0601212 -0.0455531 
-0.0699161 0.0470762 0.0161248 0.0655756 0.0595064 0.00592853 0.00284699 0.0409095 0.0299783 0.00824497 -0.0151818 -0.0322054 0.00290991 0.0170293 -0.0611135 0.0133071 0.0289351 0.0122889 -0.0190344 -0.0401583 -0.0433651 0.00141811 0.0584031 -0.0029372 -0.0408117 -0.0495215 -0.00305814 -0.0555097 -0.0473352 -0.000953365 -0.0638892 0.0630492 -0.066371 -0.00116005 0.0471781 -0.0415416 0.0640917 0.0324928 -0.0449377 -0.0647344 0.0541271 -0.0217146 -0.000746768 0.0314839 0.0422217 -0.0682691 0.051532 0.0139985 0.00143121 0.0750667 0.0105463 0.0236728 0.0193723 0.0729102 -0.0531223 0.0347607 -0.0474906 0.0529279 0.0451621 -0.0720775 0.0596984 0.0277055 0.0534619 0.0581945 -0.0753287 0.0161798 0.0423639 0.0569511 -0.00315568 -0.0706903 -0.035458 0.0126523 -0.00569749 0.0188185 0.0159987 0.0681475 -0.0549259 0.0414939 0.0710288 -0.00530186 -0.0121273 0.0682219 -0.0292085 -0.00730301 0.0109104 0.013444 -0.0662372 0.0122584 0.0567666 0.0371483 0.0191303 -0.0748823 -0.0481832 0.0614387 -0.071864 0.0551256 0.0352149 0.0294559 0.024659 -0.042153 -0.0641619 0.0573799 0.00449432 -0.0637927 -0.0275565 -0.0361227 -0.0419759 0.0100735 0.0152225 -0.0438314 0.000499445 -0.0252757 0.0190257 0.0303462 -0.0221138 0.0185715 -0.0683087 0.0585642 -0.0490292 0.0544379 -0.00352812 -0.058909 -0.0710105 0.0454818 -0.0630144 -0.0434474 0.0741304 -0.0485085 0.060486 0.0465085 -0.0196434 -0.0224448 0.0631299 0.0697974 0.074077 -0.00739309 0.0303124 0.0678549 -0.00880004 0.0711274 -0.0436649 0.0738584 -0.0683182 0.0706899 -0.0594753 -0.0366821 0.0460839 0.043813 0.0314628 0.0679326 -0.000166066 -0.0266837 -0.032333 0.0723366 0.0145464 -0.016723 -0.0145118 -0.00261191 -0.00773661 -0.0183959 -0.0749359 -0.027914 -0.0130194 -0.0256689 0.0648043 -0.0584115 -0.0319087 -0.010933 -0.0193371 0.0682251 0.0201555 -0.0290488 -0.0296443 0.0662646 -0.0383503 0.0474564 -0.0723758 -0.0308703 -0.0494823 0.00155339 -0.0581596 -0.0426724 -0.0451973 -0.0438251 0.0032484 -0.0407649 0.0224839 -0.0434053 -0.0613139 0.0035603 0.00563102 -0.0274289 0.0137728 0.0454319 0.0757148 0.0647426 0.0643904 0.00271021 -0.0311543 0.0144682 0.0559905 0.0623839 0.0432635 -0.0752796 0.0353863 -0.074406 -0.0222786 -0.0224237 -0.0492734 -0.0232382 -0.0575758 0.0133898 0.0397302 0.074058 -0.0595072 -0.0383831 0.0474136 -0.0428717 0.0619145 -0.00208086 -0.0290226 0.0470565 -0.0440311 0.0223443 0.00122393 0.00899977 -0.074802 0.0610842 0.0413239 0.00688054 0.0541966 -0.0118666 0.037652 -0.00731666 0.0254229 0.0500877 0.0529314 0.0746685 -0.0701283 0.0234984 0.0400382 0.00972341 -0.0498094 -0.000160191 -0.0667086 -0.04271 0.0412257 0.0696819 -0.0547618 0.000281248 0.0682183 -0.0444172 -0.0333439 -0.00930155 0.0647822 -0.00926763 
-0.0618468 0.00970982 -0.0108399 0.0360721 -0.0279745 0.000751026 0.0188105 -0.0173483 0.0655708 -0.0174162 -0.0131869 -0.0507575 0.058794 -0.0309899 -0.00726129 -0.0418467 0.0529043 0.000655892 0.0703233 0.0613627 -0.037318 -0.0354083 -0.0227648 0.0301842 -0.0641388 0.0103297 -0.0598464 0.0012701 0.0101417 -0.065233 0.0468594 0.0516612 -0.0362324 -0.0361694 -0.0595835 0.0505108 0.0298447 0.074341 -0.0588486 0.0524773 -0.0589905 -0.0394726 -0.071118 -0.0128835 0.015604 0.0273816 0.0649722 -0.0526897 -0.0737388 0.0237599 -0.0192427 0.0390952 0.030929 -0.0384252 0.0119511 -0.0491526 -0.0174836 -0.00253496 0.0270809 -0.0395724 0.044123 0.0140403 -0.0481525 -0.0646619 -0.0346363 0.0444012 0.0647251 0.0191473 0.00497197 -0.046526 -0.0169123 -0.0642588 -0.00889216 0.0634535 -0.0665994 -0.0501641 0.0429854 -0.0365648 0.0527877 0.0276078 -0.0381751 0.0281584 0.0393018 -0.0524689 -0.0291143 0.054637 -0.062836 0.0202664 -0.0382191 -0.0235648 0.0348654 0.0218219 -0.0638384 -0.0522288 0.0443903 0.0312277 0.0283495 -0.0412298 -0.0475267 0.0311052 -0.0445497 0.0259179 -0.0540098 0.0704232 0.0238194 0.0141129 0.0128294 0.0203534 0.0541776 0.0513164 -0.0663492 0.01724 -0.0662981 0.0555812 -0.0331137 -0.0335784 -0.063367 0.0110526 0.0367216 0.063212 0.0155564 -0.00465378 0.0202852 0.0747715 0.0694226 -0.0680585 -0.0255483 -0.00464015 -0.0100438 0.0473788 0.0467118 -0.00883838 0.0628126 -0.0241277 0.0464664 0.0271399 0.0436244 0.00888081 0.0026084 -0.0626783 -0.0636828 0.0037903 0.0228789 -0.0492614 0.064291 -0.0217627 -0.0491165 -0.0289075 -0.00187101 0.0689936 0.0679754 0.0176175 0.00820785 -0.0187243 0.0628678 0.0201477 -0.0269147 0.0149288 -0.0722542 0.0448475 0.0599875 -0.0120253 0.0110331 -0.0385024 -0.029324 -0.0172783 -0.00951664 0.0698198 0.0589522 0.0756807 -0.05834 0.0486476 -0.0725301 0.0503209 -0.0444151 0.0353833 -0.0171686 -0.0381876 0.0372309 0.0183277 -0.0243425 -0.0349193 0.0557964 0.0177315 0.0270019 -0.0331555 -0.0650102 -0.0486374 0.0746893 -0.0401134 -0.0604621 0.0250734 0.00112686 -0.0584504 0.046643 0.0215653 -0.0686038 -0.00703732 -0.0194677 0.0253649 -0.052373 0.0230064 0.0668376 0.000190933 0.0537312 0.0624637 -0.0322762 -0.00311842 0.0296299 -0.0109795 0.0431373 -0.0351877 0.00940694 0.0476302 0.0400633 -0.00754805 0.0131692 0.0549703 0.0181445 0.0414488 -0.0122669 0.00217557 -0.0751548 -0.0288566 -0.0353535 -0.0747227 -0.0469559 0.0341513 0.0230085 0.0337557 0.0704245 0.0189744 -0.0232364 0.0388956 -0.0173864 0.0441415 0.0395994 -0.007607 0.0640766 0.0495513 0.0231667 0.0633872 0.0410873 -0.0386336 0.00854974 -0.0430853 -0.0365952 0.0332348 0.0421271 -0.0751223 0.0704984 0.0336593 0.0313254 -0.0504789 -0.00792082 0.0563466 
-0.00955071 0.0436584 -0.068096 -0.0340322 0.0263598 0.0206209 -0.0706045 -0.0501983 0.0124228 0.00404737 -0.0715202 -0.0457424 0.048112 -0.0687351 0.00383974 0.0725364 -0.00858781 0.0513986 0.0448779 0.0611643 0.0741872 -0.0303457 -0.0658578 -0.0434165 -0.0439598 -0.00720769 0.0554244 0.0682119 0.0230041 0.0611276 0.0586988 -0.039455 0.0218268 -0.0203541 0.0629197 -0.0715367 -0.0210733 0.0540912 -8.11773e-05 0.0512942 -0.0454807 0.0587182 -0.0209246 0.0501776 -0.0269464 -0.0673715 0.0445943 -0.0375071 0.0211237 -0.022332 0.0366133 0.0191342 0.0258799 -0.0291154 0.0626772 -0.052283 0.0252287 -0.0676082 0.0643323 -0.0428039 0.069634 -0.0229914 -0.0291516 -0.0629556 -0.00545808 -0.0127813 -0.0154303 0.0667008 -0.0455871 -0.0414017 -0.00891262 0.0500348 -0.0562497 0.0387381 -0.0337361 0.0647539 0.0670161 0.0361397 0.0584011 0.0210982 0.0454575 -0.0270463 0.0652013 0.0329914 0.0495113 0.0723277 0.0151712 -0.010927 -0.0495325 -0.0704769 0.00980722 -0.0112061 -0.015116 0.000667088 0.00559995 -0.0101004 0.016422 0.0287691 -0.0148255 -0.0642169 0.072705 -0.014392 -0.0282678 0.0534577 0.0299104 -0.035846 -0.0583083 -0.0413954 0.0519202 0.0212296 -0.0633094 0.0441006 0.0174573 0.0638288 -0.00866453 0.0616997 -0.0249752 -0.0448778 0.0413678 -0.0288765 -0.0246152 0.0725076 0.022471 0.00533238 -0.0689286 0.0624555 0.00437783 0.0331963 -0.0720016 0.0649616 0.0260619 0.0133276 0.0320713 -0.0413806 0.0044635 -0.0197482 -0.00970603 -0.0666588 -0.0180144 -0.0420572 0.0441758 -0.0634671 -0.0603104 -0.00161155 -0.0236591 0.0611856 -0.0117475 -0.0224144 0.0285511 0.0704964 -0.0530998 0.019079 0.0340087 -0.0214036 0.0348037 0.00336621 -0.0297344 0.0457496 0.0263679 0.0661785 0.0321463 -0.0394086 -0.0497523 0.0430874 0.0556239 -0.0411123 -0.0525683 -0.0298017 0.00961345 5.88268e-05 0.0388516 0.00683754 0.0373858 0.0305506 -0.00376511 0.0570063 -0.0277189 0.0691268 0.0307362 0.0525736 -0.0216849 0.0129999 0.0653148 -0.0568964 -0.00295495 -0.00219809 0.0416872 0.0705517 0.0377871 -0.0464336 -0.0496746 0.0705209 -0.0736686 0.0486044 0.0617803 -0.0492433 -0.0104718 -0.0627516 -0.0550129 0.0174219 -0.0146383 0.0682391 0.0648764 5.33439e-05 0.0610018 0.0520534 -0.0352182 -0.0519166 0.0265374 -0.0035975 0.0629419 0.0258224 0.0549283 -0.0442707 0.02905 -0.0598593 -0.0625943 0.0456596 -0.0352401 0.0570036 -0.043638 0.0577151 -0.0580202 0.0405928 -0.0516355 0.0497478 0.0398212 0.0636285 -0.0269858 -0.0419784 -0.0271646 0.0285161 -0.0557777 0.0301579 0.0454424 -0.0157877 -0.0755125 0.0602608 0.0438207 -0.00755616 0.0632578 -0.0314349 0.0755257 0.0424524 0.0165899 -0.014342 -0.0315152 -0.0609353 0.0329279 0.0205825 0.063513 0.0695959 -0.00893948 -0.0137538 -0.0235279 0.0263742 
0.0531533 -0.0322245 0.0565979 0.0296433 -0.0688208 -0.0256936 -0.0146649 -0.0241848 -0.0726501 0.054625 0.054349 -0.0573982 -0.00452898 0.00490589 -0.0508475 0.0637127 0.000631558 0.0240048 -0.0701676 0.0610667 0.00994115 0.0658457 0.0101095 -0.0317597 -0.0517538 -0.0204617 -0.0466127 0.0542584 -0.0520679 -0.0752789 -0.000479369 0.00731388 -0.0546276 -0.00131469 0.0365282 -0.0604571 0.0053713 -0.0647979 -0.0686043 -0.00480686 0.0253575 -0.0731331 -0.00664877 0.0411256 -0.0490579 -0.0743916 0.0237685 0.0588609 0.0755402 0.0365232 0.0721301 -0.00344114 0.0228676 0.0579178 -0.0418694 0.00928452 -0.0672625 -0.0409996 -0.0727713 0.0147283 -0.00946265 -0.0182137 0.0534331 0.0273802 0.0173289 -0.0600752 0.0342274 0.000433364 0.0280068 -0.0621875 -0.0741889 0.0433236 -0.00600353 -0.00938227 -0.052593 0.0438451 -0.0324591 -0.0424118 0.044782 -0.026415 -0.0515719 0.0755159 -0.055349 0.021838 -0.0680569 0.0152265 -0.0533431 0.0282193 -0.00381892 0.0169778 0.027579 -0.0201293 -0.0219717 -0.0221358 -0.0583241 -0.0640459 -0.0461886 0.0635387 0.0668649 0.0639119 0.014752 -0.0571318 0.0367833 0.0405188 0.0660957 0.0568286 0.0261056 0.0126561 -0.0412251 -0.0497636 -0.00595748 0.0268773 -0.0560347 -0.0300456 -0.0390033 -0.0645215 -0.0212073 -0.0512687 -0.0744517 0.0565564 0.0610143 -0.0200531 0.0175666 0.0408472 0.0180413 0.0646937 0.010727 0.0127199 -0.0266002 0.0335047 -0.0415932 0.0756314 0.0383823 -0.0648794 -0.0515847 -0.00900124 -0.0685758 -0.0718422 -0.0307488 -0.0322485 0.025127 0.0263361 0.0114179 0.0514383 0.0540913 -0.00942842 -0.0150977 0.0610672 -0.0557942 0.0253901 -0.0546347 -0.0201556 0.0582397 0.0264497 -0.0415311 0.0308349 -0.0592001 0.00964909 -0.0390026 0.0167721 0.0180602 -0.0152498 0.0492237 -0.0157964 -0.00882934 -0.0303349 -0.0157959 -0.0306567 -0.00731725 0.0345628 0.0236641 0.0217034 0.010267 0.0200754 -0.0382039 0.0387816 0.00886653 -0.00153353 0.061672 -0.0694507 -0.0676719 -0.0734091 -0.000842511 0.0292117 -0.0117457 -0.0719412 0.0722227 -0.0751048 -0.0758522 -0.0519432 -0.0669922 -0.00371977 -0.0332142 -0.0433083 0.019786 -0.0503172 0.00553646 -0.00593807 -0.0262687 0.0719142 0.059521 -0.0345055 0.00718433 0.0315032 -0.0201233 -0.0379053 0.0138138 0.0679674 -0.0298729 -0.0127022 0.0232256 0.0316454 -0.0758383 0.0315096 -0.0485918 0.0631248 -0.0658074 0.0627656 -0.0342595 0.00165161 0.0515182 0.0661329 -0.0632972 -0.0386195 0.0586999 0.0228877 0.0172773 0.059129 -0.0387683 0.0503876 0.0230961 0.0715955 0.0223726 -0.0305828 0.0138434 -0.0160583 0.067048 -0.0353886 0.0613477 0.0196462 0.0580369 -0.075217 -0.060037 0.011975 0.0179321 0.0230815 -0.071468 -0.0568581 -0.0491312 0.0686675 -0.0536348 0.0460548 0.0201257 -0.0735548 0.0269123 0.000594707 
-0.0291277 0.0232168 0.0221647 -0.0560019 -0.0643651 -0.0675564 0.0239695 -0.0729072 -0.0269182 0.0366207 -0.0303676 0.0686174 0.0472465 -0.0303139 0.0272198 0.0260357 -0.0518525 0.0731375 -0.0392708 -0.0656148 -0.0280883 0.00376041 0.0306625 0.0433218 0.0434833 0.0530659 -0.0534854 0.0655811 0.0264296 0.0759437 0.062138 -0.0125792 -0.0748106 -0.02322 0.0444209 -0.0263999 -0.0628229 0.0511288 -0.0525611 0.0286502 0.0292571 0.0116118 0.0513451 -0.0667487 -0.0374808 -0.0620956 0.0585456 0.0329557 0.017335 0.0140788 -0.0366958 -0.0382666 0.0203341 0.0392446 0.0755877 0.011194 0.033521 -0.0482766 0.0245616 0.0477693 -0.0237661 -0.0576523 -0.0337025 0.0424436 0.0592441 -0.0141207 0.0596883 0.00384818 0.0650282 0.0284707 0.000396837 -0.0556747 -0.0394683 0.00557264 -0.0197482 -0.0636412 0.0372331 -0.0150456 0.00822298 -0.0222558 0.00107285 -0.0205376 -0.0524271 0.0529924 0.00890708 -0.030687 0.0443322 0.0246288 -0.0364825 -0.0402167 0.0306 -0.0603839 -0.0106433 -0.0757796 0.0331257 0.038092 0.0521976 -0.00713248 0.0225334 0.0570945 -0.000873666 -0.071282 0.0504768 -0.0558299 0.0384753 0.024578 0.0304062 -0.00831469 0.0471099 0.0410142 0.0395899 -0.0233481 -0.0697656 -0.0442577 -0.0226654 -0.053708 -0.0496098 -0.0428255 -0.00839799 0.0007372 -0.0675794 -0.0350545 -0.0047224 0.031929 -0.0145046 0.0299096 0.0344619 0.0348998 0.0106704 0.0393748 -0.00278831 0.00470635 -0.0668538 0.0406212 -0.0528299 0.065357 0.000839594 0.0610985 -0.00924102 0.0387397 0.0466416 0.0409025 -0.0640402 0.0399947 0.0709341 0.0636782 0.0303066 0.0666104 0.0075278 -0.0704691 -0.0345009 -0.0440495 -0.00494546 0.0497765 0.00869233 0.0378226 0.0582309 -0.0163513 -0.0227933 -0.0345746 0.0434901 0.0204734 -0.0626459 0.0319391 0.0410199 0.0225985 -0.0227389 -0.0478255 -0.0720653 -0.0141804 -0.0387393 0.0624233 0.0687908 -0.0144146 0.0567878 -0.0322844 0.0620286 -0.0140044 0.00340797 0.00928347 0.0533831 -0.0706882 -0.0533367 0.00232266 0.039662 -0.0690214 0.0292119 -0.0120189 -0.0651502 -0.0221652 -0.0692403 -0.0115724 -0.0130789 -0.065163 0.0410899 0.021396 0.0627767 0.00172865 0.00166309 -0.0439094 -0.0713445 0.0272776 -0.059467 0.0312237 0.00436149 -0.0304572 0.0182665 0.034525 -0.0457585 0.05927 0.0112706 0.0140228 0.0221564 -0.0286109 -0.0101032 -0.0729371 0.0710916 0.0424401 0.0115441 -0.0460998 -0.0339853 0.0382904 -0.0674992 0.0616911 -0.0482048 0.0125587 -0.0542405 -0.0164942 0.00916756 0.00701423 0.0352209 -0.0548123 0.0610496 -0.0719197 0.00890776 0.0706895 0.0683397 0.0308991 -0.0193661 -0.0336741 -0.0696212 0.000880591 0.0661142 -0.0518728 -0.0577739 -0.0151884 0.0458657 -0.0747656 0.0629063 0.0684009 0.0151601 -0.0357975 -0.0265186 0.0427071 0.0674756 0.0343912 
0.0729905 -0.0431639 -0.0494684 -0.0534079 -0.00219194 0.0554282 -0.07397 -0.0434227 -0.0020233 -0.0722268 0.0359068 0.0432764 0.0196499 -0.0211306 0.0333863 -0.00473703 0.0422455 0.0498562 0.061852 0.0537994 0.0307226 -0.0364993 0.00232385 -0.010426 0.0458003 -0.00420144 0.0187249 0.00937366 0.00923 0.0104539 -0.0178783 -0.0710243 0.0194362 -0.0491801 -0.0340001 0.00252596 -0.0584828 -0.00749702 -0.0291015 -0.074268 -0.052977 0.0229042 -0.0718003 -0.0363448 0.0139112 0.00521498 -0.0473919 0.0715212 -0.0621306 -0.0295305 -0.0253325 -0.0137048 0.0465002 0.058652 0.0504132 0.0740405 0.0303356 0.0252247 0.0426035 0.0469868 0.0425212 -0.0327197 -0.0385128 -0.0537403 -0.000957365 -0.066322 -0.0367181 -0.0520484 -0.073037 0.0685823 0.0254733 0.0509651 -0.0706754 -0.0240041 0.0118295 -0.045158 0.043686 0.0404537 -0.062258 -0.0574488 0.0356449 -0.0586413 -0.00632257 -0.00719894 0.0564103 -0.00458225 -0.0519874 0.0696845 0.000287581 -0.0300679 0.00829817 0.0539661 -0.0753996 0.00187883 -0.0203623 -0.072008 -0.00446568 0.0557651 -0.0484554 -0.0419456 0.00816414 -0.0412023 0.0280742 0.0685525 -0.0667677 -0.0334639 0.0630261 -0.0174677 0.0261424 0.00794433 0.0278142 -0.0273292 -0.0280879 0.0500509 -0.021858 0.00303587 -0.00307408 -0.0522524 0.0375948 -0.0647089 0.00593651 0.0203454 -0.0228281 0.048791 0.0285825 -0.0598569 -0.00233808 0.0744235 -0.0384363 -0.0140316 -0.0425572 0.0639722 -0.0196349 -0.0637954 -0.0714405 -0.0461381 0.0561123 -0.012144 0.0292329 -0.0512822 0.0349002 -0.0741894 -0.0307521 0.00635967 0.0649668 0.0691728 -0.0263039 -0.0508785 0.00900946 -0.03212 -0.00196405 0.0439953 -0.0590659 0.0519053 0.0118032 0.0220857 0.0601146 0.0597411 -0.00162231 0.0200606 0.060636 0.048982 -0.0619467 -0.0313368 -0.0591226 0.0515732 -0.0450858 0.0375733 0.0460103 0.0340918 0.0214542 -0.000940517 -0.0209772 -0.0658926 -0.0709268 -0.00654919 -0.00291191 -0.0698347 0.0713295 -0.0341928 0.0245594 -0.0104729 -0.0343581 -0.0273268 -0.00498644 0.014635 0.0399404 -0.00983213 0.0211501 0.0333735 -0.0329927 0.0752106 -0.0374736 0.00917621 0.0301083 0.0715346 0.0706473 -0.0265442 0.0744828 0.0629753 0.0420377 0.0237838 0.0528889 0.0450411 -0.0234327 -0.0551053 -0.0677679 0.00457142 -0.063563 0.0622727 -0.0700244 0.0110342 -0.0397956 -0.0637739 0.036711 -0.0464415 0.0426501 0.0614856 0.0446445 0.0369674 0.0438485 -0.00223984 -0.0564791 0.0679782 0.0421371 -0.00659189 -0.0464884 -0.057454 -0.0335684 -0.0329449 0.00969878 0.00621262 0.0725289 -0.0404113 -0.0535442 -0.0135628 0.0225297 -0.0570249 -0.0238492 -0.075475 0.0151116 -0.0296144 -0.00568956 0.000832803 -0.028648 0.0149209 -0.0587892 0.0492568 0.000257587 0.0514406 -0.0250862 -0.0443302 0.0184875 -0.0466297 -0.0445108 0.0274778 
0.000876178 0.0754112 0.0170307 0.0669527 -0.0619222 0.0561347 -0.0165179 0.00406596 -0.0575525 -0.0685052 -0.00170319 0.00185149 0.0127071 -0.0184082 -0.0534232 -0.0750215 0.0217114 -0.0256745 -0.00770443 0.00996293 -0.025752 0.0530129 0.00606496 -0.0197778 0.026169 -0.0536266 0.0555855 -0.0239727 0.0199197 -0.024264 0.047795 0.0275669 0.0328748 -0.071421 0.0736413 0.00580311 -0.0338416 0.0170531 -0.0210685 0.0730066 0.00118005 0.0272676 0.037128 -0.0536273 -0.0374923 -0.0026901 0.075484 0.0356535 0.0421973 -0.0561135 0.00510845 -0.0497759 0.00709472 -0.0345888 -0.0108001 0.0491327 0.0501635 -0.00647092 -0.0381325 -0.0378918 0.0339157 -0.0139202 -0.00441493 0.0437553 -0.0270016 0.0226696 -0.0706743 -0.0491765 -0.0117176 -0.0560833 0.0535102 -0.0131167 0.0467028 -0.0548194 -0.0684537 0.0250589 -0.057468 -0.0264568 -0.032771 -0.0375212 -0.0575203 0.0479745 -0.059819 -0.0297449 0.0194756 0.0158855 0.0343218 -0.0701752 -0.0239473 -0.0603188 0.0429413 0.00307261 -0.0752732 -0.0135853 -0.0421561 0.07523 0.0100142 0.00886791 -0.00515693 0.0385399 -0.00502507 -0.0583757 -0.0133337 0.0758297 0.0438373 0.0124612 0.0351549 0.0627427 -0.0736856 -0.0214937 0.0516878 0.00997981 0.0161324 -0.0157266 0.00510673 -0.0158239 0.0423304 0.048905 -0.0177731 -0.0695132 -0.0142462 -0.0299598 -0.068105 0.0591023 0.0366341 -0.00654283 -0.0407102 -0.00745754 -0.0265396 -0.0383921 0.00439194 0.0726547 -0.0398799 0.0733865 -0.0276358 -0.0175486 0.0190211 0.0242257 0.0492512 -2.91683e-05 -0.0709053 0.0665158 -0.0339683 -0.0758126 -0.00620624 0.0135204 0.034188 0.0483495 0.0679044 0.01978 0.0413804 0.0366984 -0.0146795 -0.0580891 -0.00829425 0.0734779 -0.00818591 0.027175 0.0665942 -0.015979 0.0566604 0.0177685 0.0513564 -0.0590497 -0.0478821 0.00607411 0.0136404 -0.0125768 0.0182469 0.00556586 0.0625479 0.0105361 -0.0459729 -0.0607662 -0.0159669 0.0112294 0.0277693 0.00889302 -0.0149605 0.0326318 0.0190325 0.050994 0.0404515 0.034618 -0.0132729 0.0446577 -0.0402645 -0.0349298 0.0552955 0.0505617 0.0390697 -0.0153358 -0.0100237 0.030375 0.0745707 0.0744924 -0.0679739 0.0334874 -0.035622 0.034606 0.0310975 0.0113096 0.054478 0.026375 -0.0558296 0.056607 0.036796 0.0650744 0.0106114 -0.0185666 -0.0455527 -0.018416 0.059978 -0.0612909 0.00101273 0.0366361 -0.0511862 -0.0570888 -0.0700617 0.0406499 -0.0344918 0.0635823 -0.00259587 -0.0248834 0.064619 -0.0256021 0.0671101 -0.050498 0.0268813 -0.0581586 -0.024898 -0.0219165 -0.00495561 0.0431662 -0.0382802 0.0335769 0.0652865 0.0554889 -0.0137724 0.0341353 0.00789677 -0.0740638 0.00234005 -0.018086 0.0302673 0.058215 -0.00752632 0.0616157 -0.0613695 -0.0343042 -0.0637999 -0.0596234 0.0365028 -0.0656286 0.0308997 -0.0498256 
0.0425434 0.0561106 -0.0192473 -0.0317526 0.00313532 -0.0348247 0.0332007 -0.0140977 0.0595533 0.0275515 -0.0242223 -0.0513137 -0.0294634 0.072259 0.0633821 -0.0153039 -0.0733972 -0.0461361 0.0172622 0.00501575 0.0521763 0.0477936 -0.0207291 0.0248074 0.0214603 0.00566782 -0.061064 0.0617551 -0.0326974 0.023488 -0.055678 0.0343999 -0.0127137 -0.0622214 0.0623447 -0.0230797 -0.00324521 -0.00409749 0.00709951 -0.053948 -0.046451 0.0155472 -0.048777 -0.020473 -0.0532192 -0.0693124 0.0051345 -0.051065 -0.0331847 -0.00016592 -0.0431889 0.0210533 0.0587228 -0.0256333 -0.0639061 -0.0671459 -0.0345013 0.0474719 0.001863 -0.0717249 -0.0736506 0.0572519 0.0145696 0.0442433 0.0226371 0.0728747 0.0318958 -0.0589954 -0.0336664 0.0170774 0.072731 -0.00545251 0.0353795 0.00708162 -0.00758505 -0.0719187 -0.0179266 -0.039175 0.0492582 -0.0260096 -0.0443972 -0.020838 0.0153907 0.0324633 0.0639531 0.071935 0.00108851 0.05534 -0.012622 -0.000489166 0.048325 0.06299 0.00341417 -0.0492364 -0.0199066 0.0139069 -0.0358042 -0.00349494 0.0537929 0.05601 -0.064526 0.0113727 -0.0232695 -0.022071 0.0165682 0.0167432 0.0560177 -0.068633 -0.0115602 -0.00534056 0.068327 -0.0708674 0.0640961 -0.00899403 -0.0207335 -0.037214 -0.0364654 -0.00757084 -0.072893 0.0454421 -0.0266704 -0.0524159 -0.0114281 0.0589024 -0.0328211 -0.0158557 0.048839 0.0588748 0.00016938 0.0603533 0.0161498 0.0172647 -0.027933 -0.0510768 -0.0331987 -0.0759106 -0.0601299 0.0646804 0.012726 -0.0656054 -0.00125685 0.031851 0.0637659 -0.0118448 -0.011934 -0.0603434 -0.0208673 -0.00674826 -0.0128626 0.0301965 -0.0218441 0.0244765 0.0495626 -0.00908651 0.0416347 0.0621333 -0.000449773 0.0462621 -0.0324715 0.0328501 -0.00462173 0.0398043 -0.0496078 0.0488252 0.0561404 -0.0555301 -0.0386811 0.0089383 0.0307522 -0.0378943 -0.0104881 -0.0370293 0.0359584 0.0277673 0.0146931 0.0435671 0.0123045 -0.0701431 -0.0074883 0.0607506 0.00952806 0.0428903 0.07318 -0.0254414 -0.0403196 -0.0376703 -0.0585895 0.0588998 -0.0580903 -0.0164797 -0.0391309 -0.0575226 0.0745187 0.0240217 -0.0035305 -0.0400465 -0.00941365 0.00242213 -0.0501855 -0.0325618 0.046866 0.00321397 0.0571156 0.0649014 0.0689329 -0.036176 -0.0442017 -0.0627203 0.0305524 -0.0524181 0.0532253 0.00760935 0.0246703 -0.00569785 -0.0517346 -0.0516297 -0.00210313 -0.029012 -0.0726139 -0.0409131 0.0140385 0.0585566 -0.0311559 -0.0372735 -0.00187156 0.0626805 -0.0211072 -0.0369566 0.0727198 0.0529016 -0.0661648 0.0654446 0.0746781 -0.0312245 0.0187397 -0.000127883 0.052589 0.0362021 -0.0481375 -0.0205954 0.0592577 -0.0289306 -0.0541682 -0.0105059 -0.00734393 0.0293601 0.0583374 0.0493748 -0.00496111 -0.0058153 0.000179182 -0.0336396 -0.0733587 -0.03124 -0.00941443 0.0200177 
-0.0204723 0.0531715 0.0384143 -0.0693111 0.0122715 0.0587338 0.0458565 -0.0499397 -0.0626668 -0.00955727 0.0181745 0.0419996 -0.0679915 0.0282062 -0.0141098 -0.0715713 0.00833892 -0.0678422 -0.039857 -0.00571131 -0.00429841 0.0604439 -0.0469101 0.0495267 0.0175488 0.0553532 -0.00385342 0.0252079 0.0569776 0.0172238 0.0209693 -0.0130649 0.0569187 -0.074404 -0.0652904 -0.0421075 0.0403567 -0.0132242 0.0453037 0.048553 0.00879804 -0.0447869 -0.0532415 -0.00517852 0.0566191 -0.0557718 0.0735914 0.0300859 -0.061348 0.0286597 0.0309337 0.0556708 0.00876015 -0.0266055 0.0270189 -0.0192704 -0.0406924 0.0751178 -0.0702028 -0.0235953 -0.0514417 0.0531742 0.0242967 -0.0412036 -0.0198063 0.061414 -0.0651198 -0.0266409 -0.0602173 -0.0238497 0.0603666 -0.0513945 -0.0282193 0.0451515 0.0168329 0.0357182 -0.032329 0.0646414 0.0349514 -0.0521451 -0.0333825 0.066537 0.0714726 -0.0557331 0.0425337 -0.0559426 0.0569183 -0.0691451 0.0751854 0.0262304 0.0458919 0.0546948 0.0251863 -0.00882041 0.0245791 0.0578526 -0.0311398 0.0269742 0.0304215 0.0321922 -0.0362094 0.048871 -0.072147 0.0627491 -0.0703984 0.0218926 -0.0553525 -0.0674863 0.0456332 -0.00817841 0.0111382 0.00453854 -0.0703648 0.0557079 0.0458345 -0.0543762 0.0336264 -0.0394603 0.011858 -0.0700369 0.0143957 0.0208685 0.0446379 0.0661887 0.0189561 -0.0456318 0.0469888 -0.00656225 0.018215 0.0607231 -0.0607399 0.0354967 -0.00669921 0.0342822 0.0476191 0.0282117 0.00561118 0.00957832 -0.061323 0.00156821 0.062024 0.029528 0.0135975 -0.0126414 0.046917 0.0141236 -0.0343361 -0.0280549 0.0283935 0.0736978 -0.0177073 -0.0136438 -0.0541263 0.06687 0.0309195 0.0688644 0.0208874 -0.00813453 -0.0759209 0.0629989 0.0559572 -0.0723566 -0.0429005 -0.00947408 -0.0259039 0.0730467 -0.0700614 -0.0506822 -0.0539729 -0.0671625 -0.0699765 0.0279023 -0.0197007 -0.0428998 0.0318643 0.061504 -0.0619305 -0.0514958 -0.0745084 0.0564808 -0.0523773 -0.0143895 0.0268133 0.0105137 0.0261659 -0.0394082 0.0147808 -0.00514187 -0.0652585 0.0658421 -0.0543298 -0.0666419 0.0568368 -0.019339 0.0614738 0.0564175 0.0171537 -0.00984625 -0.0376922 -0.0695948 0.038644 -0.0414956 -0.0308197 0.0753388 -0.022892 -0.040139 -0.00927539 -0.0632903 0.0118739 0.065365 -0.00419019 -0.00374798 -0.0202611 -0.0520966 0.074145 0.0607985 -0.072844 -0.0674042 0.0327366 -0.019559 0.0244094 0.0023457 0.0557069 0.0345867 0.0239024 0.075445 0.0294155 -0.0576269 -0.0504653 -0.0643205 0.0523784 0.0614916 -0.0303463 0.0105866 0.073478 0.0683667 -0.00749439 0.0327117 -0.0641601 0.0589435 0.0652638 -0.00239199 -0.0160963 -0.045139 -0.0507085 -0.0244205 0.0278087 -0.0159696 -0.00548509 -0.00523079 0.0472601 -0.043212 0.065695 0.0149023 0.064747 -0.011845 
0.00912781 0.0679013 -0.0101482 -0.0681183 0.000744854 0.00735894 0.00432762 -0.00621571 -0.0391288 0.0203171 0.00575346 0.0538229 0.0422089 0.052906 -0.0517713 0.0318453 -0.0217775 0.0560254 -0.0450369 -0.0694918 0.024352 0.035862 -0.0485836 -0.0620599 -0.0372933 -0.0516509 0.047401 0.0173776 0.00180866 0.0425078 -0.0542961 -0.0652385 0.00403283 0.0713402 0.0713356 -0.0683787 -0.00652338 0.0594603 0.0475472 0.00815462 -0.0244576 -0.0706022 -0.0377494 -0.0464258 -0.0415032 0.056252 0.0616744 -0.0489436 0.0456125 -0.0434365 0.0260797 -0.0312305 -0.06626 0.0606215 -0.0665936 -0.00525523 -0.00282657 -0.0268387 0.0143475 0.0363352 0.00333743 0.0492177 0.03485 -0.0516163 0.0174433 0.00169606 0.0159807 0.0544626 -0.0679708 0.065587 0.0542395 0.013681 -0.0192729 -0.0158323 -0.0490818 0.0160225 -0.0594272 0.0319573 0.0182309 0.0587634 -0.0563187 0.0489124 0.0611969 0.0576514 0.00325887 0.0576421 0.0706945 -0.0545724 0.0504421 -0.0438635 -0.0618065 -0.0697857 0.0629812 -0.0320408 -0.0072919 -0.0708448 0.00446801 -0.0745919 0.0695093 0.0130114 -0.052923 0.0153199 0.0259467 -0.0593363 0.0659691 0.0109027 -0.0518334 0.0349748 -0.0473488 -0.0514063 0.0596617 -0.0521659 -0.00109594 0.028574 -0.0281298 -0.035484 0.0543382 0.0484037 0.064383 0.0581959 0.0433135 0.0668847 -0.0221871 0.0543752 0.0036794 -0.066379 0.0172081 0.0293579 -0.0270511 -0.0174727 0.0409846 0.00582841 0.018749 0.0321648 0.0702211 0.0403518 0.00233977 0.0098719 0.067941 0.0071594 -0.0656803 0.0651469 0.0262024 0.0225684 -0.00331316 -0.0527699 -0.065301 -0.0639732 0.0117488 0.067615 0.0174657 -0.0305391 0.0155513 -0.0658509 0.074538 0.0426008 0.0236711 -0.0600209 -0.0161372 -0.063759 -0.0414426 -0.0223862 -0.00287721 -0.0114699 -0.0603222 -0.0664837 0.0299871 -0.0262153 -0.0265517 -0.00138048 0.0648624 0.00374833 0.0248423 0.023852 0.0579041 0.0605637 -0.00819758 0.00599997 -0.0116678 -0.0152625 0.0389766 -0.0442222 -0.0615694 -0.0638607 -0.0298825 -0.0640248 0.0106037 -0.0578106 0.0555761 0.0674547 -0.0754429 -0.00698763 -0.0396298 -0.0423063 -0.0108751 -0.00957759 0.0346536 -0.0515266 -0.0598219 0.0626394 -0.0510165 0.00492229 0.0735424 0.0728226 0.056677 0.00747633 0.00172967 0.0736303 -0.0526437 0.0069281 -0.00565597 0.0324555 0.00839866 -0.0617123 -0.0116834 -0.0286589 0.0505528 0.0175813 -0.00457377 -0.00223237 -0.0412353 -0.0569403 -0.0424168 -0.0310424 0.0462082 -0.0561214 -0.0634597 -0.0139261 -0.0591921 0.0218193 0.00968382 0.0233946 -0.064703 -0.0551466 -0.0237181 0.0711046 0.0180777 0.0637568 0.0378408 -0.0105932 -0.0254546 0.0256622 0.0624517 0.00133582 0.0105324 0.0350013 0.0160581 0.0148791 0.0426124 -0.00441093 -0.0610494 0.0587368 0.072479 -0.0353171 0.0383407 0.0439658 
0.0227932 0.086859 -0.0317798 0.037626 0.0414861 0.00346304 0.0982963 0.0233367 -0.0353389 -0.0636505 -0.037422 -0.0489143 0.053316 -0.0282063 0.0401391 -0.0490712 -0.0782043 0.0239803 0.00571407 -0.0286252 0.0735693 -0.0644201 0.0472553 -0.0306329 0.0621235 -0.0223042 0.0298887 0.00210742 0.00904214 0.030561 0.0443906 -0.0576708 0.0327028 -0.0492626 0.0924564 0.0170701 -0.0623395 0.029968 -0.0231701 -0.0251914 0.0411847 0.0598728 -0.0450342 -0.0416288 0.019745 0.0463996 0.0226203 0.0545745 0.0200826 0.00712352 -0.00853043 -0.0332958 0.0839356 0.028626 -0.00783459 0.0204716 0.0596114 0.0335327 -0.0319909 0.0446216 -0.0037336 0.032551 -0.0178169 0.0580502 -0.0414802 -0.0376289 -0.00942391 -0.02696 -0.014986 0.0231082 -0.0532652 -0.0720026 0.0248812 0.0213449 0.00669428 -0.0204831 0.0521591 0.00569949 0.0371061 0.00613781 0.0369295 0.0514222 -0.0625051 -0.0709907 0.0825926 -0.0762289 -0.0396269 0.0715086 0.0504024 -0.00537111 -0.0415371 -0.0938921 -0.00277373 0.02787 -0.0176706 -0.0299979 -0.00456501 0.00361332 -0.0145834 -0.0444659 -0.0551567 -0.0896283 0.0381655 0.00500643 0.0188088 -0.0687835 0.0920155 -0.0632268 -0.0385068 -0.0115514 -0.0565481 -0.0135816 -0.0220025 -0.0470609 -0.051954 -0.0741904 0.084702 -0.0340349 0.00763653 -0.0129661 0.00792807 0.0054911 -0.0545866 0.0398846 0.0514979 -0.0677389 0.0903591 -0.047446 0.0455352 -0.0141289 0.0433456 0.0784678 -0.0142942 0.022523 -0.0541592 -0.00287758 0.0481943 0.00748176 -0.0687203 -0.0193444 -0.0496134 0.0576362 -0.0339689 -0.0326741 -0.0586714 0.00353612 0.0256375 0.108088 0.00141078 -0.0929612 0.0776287 0.0622922 0.0386805 0.0360706 -0.0140905 -0.0736275 0.0502821 0.0522703 -0.069187 -0.00967269 -0.0277808 -0.0228444 0.0437404 0.0320684 0.0370889 -0.0212031 0.0106785 -0.00158519 0.0319815 -0.039741 -0.0455857 -0.0516885 0.0705733 -0.00290232 0.0419261 -0.00331615 -0.0148312 -0.0689053 -0.0787654 0.0360832 0.0696258 0.0177127 -0.015207 0.0558996 -0.040976 -0.0600673 0.0641473 0.00819431 -0.0508787 0.070719 0.0066555 -0.0533515 0.030776 0.0452059 0.0341922 0.0532341 0.0212281 -0.0316885 -0.0388252 0.028063 0.0275523 0.0468489 0.0566844 -0.0321013 -0.0194247 0.0366515 -0.0765371 -0.0425614 -0.0413761 0.0547964 0.0579238 -0.064414 -0.0315172 -0.0378433 0.0343011 0.0143412 0.0725953 -0.0598464 -0.000709613 0.0593894 0.042143 0.0296197 -0.0742982 -0.0296037 0.0143301 0.043333 -0.0239424 0.0600972 0.048642 -0.0424218 -0.0150276 -0.0153628 0.0516236 0.0465436 -0.0337131 -0.0538225 0.0876679 -0.0541218 -0.0283818 0.0565554 0.0457657 -0.0811742 0.0575945 0.0354645 0.000896823 0.056235 0.0497828 -0.0152124 0.0131361 0.0150795 0.00153813 0.0695304 0.0387212 -0.0275919 0.0208702 -0.0538511 
0.000496698 0.0358994 0.0649844 -0.044246 -0.00621844 -0.000328831 -0.026434 -0.00436928 -0.0290828 0.0295246 0.0552475 -0.0215947 0.0340924 0.00891949 0.0473729 0.000625904 -0.0745696 -0.0245052 0.0728229 0.0593965 0.0927203 0.0630472 0.0313701 -0.0396972 0.0559218 0.0569498 0.00273211 0.0594776 0.00662276 0.0702552 -0.0103918 0.0397157 0.082679 0.0334197 -0.00207683 -0.0697282 -0.0625642 -0.0231041 0.0617065 0.0515668 0.0811001 -0.0278828 0.0701879 -0.0328219 -0.0112685 -0.0746916 -0.108204 0.0175372 0.0596925 0.0657236 -0.0752557 0.0532973 -0.0306104 0.054961 -0.0620652 -0.0509657 -0.0115308 0.00101955 -0.0538379 -0.0252118 -0.03917 0.0564112 0.0150485 -0.0375352 0.0454211 0.0516207 0.000486793 -0.0238703 -0.038636 0.0744292 0.0182566 0.0503081 -0.0409447 0.0246638 -0.068045 0.0147589 0.0449195 0.0656317 0.0112352 0.0750629 0.0474928 0.0431398 0.0619614 0.0718692 0.0611823 0.0251625 0.00886212 -0.0642283 -0.0382892 -0.0779166 -0.000916973 0.0285535 -0.00929669 -0.0837446 0.0347714 0.00413367 0.0460212 -0.0659661 0.0459297 -0.0506445 0.0569536 -0.0116025 -0.0518243 -0.0340688 -0.0441468 -0.00193576 0.0664584 0.0119402 0.0691204 -0.0315733 0.00876251 0.0795182 0.0134979 -0.0289754 -0.0103612 -0.0199195 -0.0017263 0.0052493 -0.0251058 0.0419349 0.0497918 0.052297 -0.021173 0.0448096 -0.018689 -0.0117793 0.0317013 -0.0427776 -0.0586014 -0.0911192 -0.0235274 0.0626545 0.0176933 0.014469 -0.0453376 0.0193917 -0.000644678 -0.0152648 -0.0274468 -0.0173643 -0.0455983 -0.0709921 0.0489694 -0.0790309 0.0151795 -0.0454741 0.0710061 0.0400261 0.0422546 -0.0918776 0.0344687 0.0698038 0.00449766 0.0376934 -0.0533392 0.0123887 -0.0352996 0.0208729 -0.0162054 -0.00288396 0.0630566 -0.0750747 -0.0791962 0.0356049 -0.085257 0.000727802 -0.0611618 0.0531664 0.0118481 0.0248514 0.00973919 0.0518803 -0.0579184 0.0126982 -0.0100461 0.0332397 0.00908022 0.0010511 0.0179885 -0.00976659 0.0393028 -0.0662525 -0.0663065 -0.0129195 0.08008 -0.0829756 0.1073 0.00497285 -0.0147227 0.00870952 0.0669605 -0.0156547 -0.0490691 0.0245362 0.0122483 0.0648128 0.052386 -0.0551866 0.0646317 0.061593 0.00406229 0.0860214 -0.015341 0.0539138 0.0439441 0.046044 -0.0032661 0.0200497 0.0998099 -0.0682258 -0.00154142 -0.062228 0.0840852 0.0522435 0.00493846 0.046689 0.0360393 0.0106184 -0.0156271 -0.0230682 0.0687824 0.0378705 0.0421217 0.0660765 -0.00703558 0.0178329 0.0397839 -0.0371569 0.060868 -0.00669424 0.0307081 0.0491664 0.0617869 0.00530483 0.0240284 0.0114442 -0.010624 0.0179287 -0.029547 0.0613321 -0.0122375 0.0200447 0.0645195 0.0712843 -0.0464854 -0.0435993 -0.0153998 -0.0734144 -0.033595 -0.0928008 0.0171008 0.0291354 0.0636383 -0.0287954 -0.0280111 0.0791488 
0.0319632 0.0351942 -0.0737421 0.0603275 0.00656832 -0.0165716 0.0297939 0.0431364 0.0546705 0.00432529 -0.0617323 -0.0253778 0.0468837 0.0675429 0.0463604 -0.00229256 -0.0342404 -0.0202917 0.0397759 0.0529137 -0.061112 0.0240741 -0.0600947 0.0244673 -0.0313655 -0.0357392 -0.0361937 -0.0549388 -0.017258 0.00617341 -0.0496281 -0.0564794 0.00996117 0.000381106 0.0441777 -0.0430181 0.0584465 0.0544838 -0.0484714 0.0645908 -0.0152911 0.0171383 0.0497907 0.00288741 0.0298849 0.0460202 0.0134022 -0.051651 -0.0365554 0.0624632 -0.00849546 0.0578744 0.0681584 0.0511182 -0.0158714 -0.0687136 0.0245107 -0.0068951 0.00880089 -0.0612157 -0.036137 -0.0664511 0.0381064 0.0631617 -0.0666457 0.065872 0.00288015 -0.0521999 0.0482364 -0.0444412 -0.0719985 0.0398321 -0.000447493 -0.0626609 0.0640784 0.0682785 -0.0233702 -0.0225766 -0.0628125 0.050589 -0.0037596 0.0219051 0.0251174 0.0207974 -0.0552102 -0.0673427 -0.0185348 0.0499376 -0.0239648 -0.0084819 -0.0190197 0.00512728 0.0725394 -0.0708445 0.0712047 0.0178329 0.0592556 -0.0244459 0.0873466 -0.0106387 -0.0306045 -0.0587599 0.0198514 0.0289036 0.0180856 -0.0043448 -0.0267014 -0.0269139 -0.00327076 -0.0127195 -0.0206123 -0.0539896 -0.0176757 0.0161482 0.0250855 0.0319431 -0.00981725 0.0363701 -0.0327541 -0.020885 -0.00237818 -0.0188349 -0.0212784 -0.0664796 0.0377191 -0.00301712 0.0599602 0.01516 0.0503421 -0.0732401 -0.0286759 -0.0846724 -0.00365017 -0.0213336 0.00795105 0.0103867 0.0624079 -0.0748855 0.0497843 0.044389 -0.00155043 -0.0276374 0.0620831 -0.0277318 -0.0164492 -0.0664545 0.0498898 0.0341426 -0.0577159 -0.0184733 -0.0473189 -0.022272 0.0700387 -0.0425305 0.0241653 0.068388 0.0642942 -0.0110996 -0.033031 -0.0155439 0.0173018 -0.0393721 -0.0165172 0.0264445 -0.00694505 0.00852816 0.0695758 0.0208095 -0.0251652 0.0491298 -0.00364352 -0.033791 -0.00195432 -0.045709 -0.0544126 -0.0284841 -0.0224048 -0.0248545 0.0546955 -0.036364 0.0505008 0.0114027 -0.0523078 0.0708452 0.0695676 0.0503885 -0.0250724 -0.0537937 -0.0362704 -0.0266317 0.0488897 -0.0337698 0.0276365 -0.0118066 0.0589794 -0.028414 0.0216535 -0.018373 0.0555172 0.00773177 -0.0273468 0.0662343 -0.0381219 -0.0676658 -0.0173167 0.0690025 -0.021553 0.00453247 0.0288083 -0.0548846 0.0166496 0.0621958 0.00307798 -0.0455473 -0.00271664 -0.0388596 -0.026282 0.0443026 -0.0196752 0.00476529 0.0927843 0.026052 0.00737856 -0.0472987 -0.0324636 0.0188997 -0.0158281 0.0677517 -0.048501 0.0127022 0.0901279 -0.00212274 0.075015 -0.0656028 0.0363252 0.0509119 0.0583949 -0.0152891 -0.0159013 -0.042283 -0.0389804 0.0354559 0.0215559 0.011169 -0.0107799 -0.034229 -0.061037 -0.0308975 -0.0512538 0.0120076 0.0657593 -0.0188627 -0.00356868 0.00785499 -0.0023414 0.00272223 
0.00899624 -0.0405447 -0.0730055 -0.0046736 0.00683058 0.0870184 -0.0135045 -0.0465259 0.0188736 0.0268419 0.0144296 0.0220946 -0.0477941 -0.0238599 0.057843 0.0659768 -0.0380116 0.0661228 0.0687765 0.0326394 -0.0108299 0.059408 -0.0155721 -0.0116231 -0.0445691 0.0363008 0.0520482 0.00704071 0.090543 0.0768064 -0.0330586 0.0172397 -0.0559788 -0.000250012 0.00589727 0.0312387 -0.0515626 0.0204312 0.0700828 0.0704693 -0.026188 0.0765522 -0.0405228 -0.00957204 -0.069906 0.0745361 0.0203373 -0.0222158 -0.00120309 -0.00476254 0.0423493 0.036284 0.0885705 0.00145382 0.0736124 0.0392157 -0.034389 0.00349099 -0.0403035 -0.0569626 -0.0170066 0.0274442 -0.0128269 -0.0376467 0.021633 -0.0758434 -0.0477686 0.0382849 -0.00198821 0.0571431 -0.0413201 -0.0162266 -0.0277612 0.0458425 0.0444545 0.00695127 -0.0643838 -0.0208837 0.0508342 0.0388754 -0.0735033 0.00624145 0.0517108 -0.0717348 -0.0579936 0.0486153 -0.0465714 -0.0429708 0.0253558 0.0395771 0.0251338 0.072575 0.0116346 -0.0157195 -0.0447722 -0.0136875 0.0590274 -0.0457322 0.0749845 -0.0723586 -0.0373595 -0.0157093 -0.0563901 -0.0744274 0.0455876 -0.0715796 -0.028026 -0.0695002 0.0323237 -0.030384 0.0384723 0.0925988 0.00624889 -0.0161299 -0.0642068 -0.0693654 -0.0517882 0.0572986 0.0462001 0.00570908 -0.00754732 0.064453 -0.0131402 0.0590904 0.0068851 -0.0581819 0.0657889 -0.0313227 0.0673643 -0.0191814 0.0541731 0.0141897 -0.0343021 -0.0321685 -0.0340038 -0.0488522 -0.0359708 -0.0310769 0.00662519 -0.0133796 0.0383046 -0.0697707 0.048831 0.0574593 -0.0578263 0.0597318 -0.0392448 0.0856346 -0.0739029 0.0524121 0.086831 0.0520355 0.00455014 -0.0551726 0.0671604 -0.0432879 -0.0312052 -0.0213972 -0.0497976 0.0752084 -0.0236588 0.0162446 0.00476636 0.0407733 0.00556551 -0.052976 0.00273571 0.0440545 0.0425392 -0.014031 -0.0621806 -0.00662265 0.0413477 -0.00243163 0.0251393 -0.0438418 0.0739505 -0.0283046 -0.0794219 0.010397 0.0839517 0.0390904 -0.0905235 0.0043983 0.0340596 -0.0583181 -0.0288161 0.0173169 -0.0305183 -0.065338 -0.0684996 0.0140105 0.0704382 0.0697757 -0.00989798 -0.083464 -0.0442492 0.0365977 -0.0374041 -0.0679778 0.0764676 -0.00940353 -0.00307696 -0.0359148 -0.00281703 -0.0540464 -0.0487732 -0.0417688 0.074628 0.0681198 0.0440467 0.0605645 -0.032578 -0.0564167 -0.000197006 -0.0698937 0.0699856 0.0917536 0.0338686 0.0712501 0.0610677 -0.0546718 -0.0128673 0.002044 0.0754136 0.0223513 0.0366634 0.0123854 0.0440441 -0.0538641 -0.0467473 0.0668688 0.0158087 -0.00143334 0.054887 -0.0140716 -0.0290819 0.0571689 -0.021689 0.0352905 -0.0502945 -0.0507887 0.0319775 0.0650729 -0.0354555 -0.0317491 0.0134802 0.0443983 -0.03282 0.035126 -0.0381346 0.0224978 -0.054408 0.0145231 0.0280781 -0.0235132 
-0.0616162 -0.0624785 0.0632563 -0.0483874 0.0562789 0.0740459 0.00955117 -0.0727494 -0.0264142 -0.0524698 -0.0145139 0.0202932 -0.00193194 -0.00305916 -0.0679112 -0.0244489 -0.033361 0.0324169 -0.0420026 -0.0553538 0.0313694 0.0473292 -0.0339962 -0.0559605 -0.0189435 -0.061971 0.0648358 -0.0192562 0.0369823 -0.0706532 -0.0750508 -0.0663024 0.0338364 0.00556283 -0.0650415 -0.0120934 -0.0553659 0.0379197 -0.0606836 -0.0278078 0.0318924 0.0348473 -0.011819 -0.0690115 0.025504 -0.0440577 -0.0682029 0.0631914 0.0146468 -0.00466769 -0.00283446 0.0231593 -0.053535 -0.0248612 -0.0275819 -0.0475247 0.0681461 -0.0274456 -0.050598 0.059873 -0.00325476 -0.0461442 -0.0652407 -0.036906 0.0509362 0.0153879 0.0402311 -0.0457249 -0.0283547 -0.00969455 0.0386452 -0.0497249 -0.0572186 0.0401519 -0.0146716 0.0233356 -0.00863624 0.0757693 -0.055164 0.0604263 -0.0344111 -0.0131337 -0.00605625 -0.0283094 -0.0547487 0.0334143 -0.0370267 -0.0641418 -0.0320408 0.0701522 -0.0238834 -0.061064 -0.0625521 0.072887 -0.0077178 -0.0231166 -0.0673764 0.0542235 0.0120204 -0.0212717 -0.00601627 0.00270421 -0.0102454 0.0755066 -0.0639777 -0.00746143 -0.0232315 -0.030682 -0.0748302 -0.0324262 -0.0602817 -1.47667e-06 -0.0455579 -0.0266793 0.0294757 -0.0501735 -0.00226121 0.0345083 0.0405437 -0.0732698 0.0623276 0.0480129 -0.0146548 0.0719174 0.0135334 0.0471366 -0.0281497 -0.0122752 -0.0109442 -0.0612319 -0.00231723 0.0341295 -0.0330007 0.0190008 -0.0724458 0.053635 0.0406799 -0.0684156 0.0105759 -0.0255924 -0.0644205 -0.0573828 -0.0356931 0.0510187 0.0642562 0.0625153 -0.0562007 -0.00961471 -0.0202128 -0.00585022 0.0128066 0.0170179 0.0521919 0.0681114 -0.0316036 0.0737213 0.0297143 -0.0329829 0.0674354 -0.0530808 0.0529529 -0.0518164 0.0687049 -0.00664558 -0.0663046 -0.0120477 0.0688509 -0.0486855 -0.00432289 0.0189819 0.0454752 0.0477151 -0.0577672 0.0755648 0.0175887 -0.036799 0.00541048 -0.0339269 0.0230303 -0.0670311 -0.00435105 -0.0712042 0.00179731 0.0543453 0.028143 0.0755068 -0.0281605 0.0610353 -0.0617221 -0.017007 0.0610155 -0.00155315 -0.00157315 -0.0759049 0.0307762 -0.0332311 -0.00132404 -0.0242537 0.0354276 0.0589765 -0.0721915 -0.0195573 -0.0156656 -0.0289879 0.0632074 -0.00534956 0.0335174 0.0532928 0.02055 0.0454161 -0.0222813 0.00787541 -0.0571959 -0.00716522 -0.0547194 -0.0504917 0.018617 -0.0735138 0.0621575 0.0361322 0.0178451 0.00618088 0.00254473 -0.0708375 0.0725021 0.0252935 -0.0512769 0.026435 -0.0162088 0.0648592 0.00142506 0.0335743 0.0050978 -0.0487736 0.0698494 -0.034917 0.00232434 0.000474911 -0.0139858 -0.0200543 0.000545444 0.00315221 -0.00895212 -0.00571045 -0.0325102 -0.0447063 0.0695353 0.0169967 0.0103362 -0.032643 0.0595439 0.0468563 0.00567161 0.0742403 -0.0460121 0.0119008 
0.0440349 0.0721111 0.00449509 -0.0581602 0.0683394 0.0663051 -0.049107 0.036653 0.0748946 0.0533999 -0.0307353 -0.0525328 -0.0341742 -0.0537877 0.0491321 -0.00538466 0.00623343 -0.0657595 -0.0168102 -0.0197246 0.0134956 -0.0325083 -0.0596272 -0.0661146 0.0257699 0.0540339 0.073935 -0.074142 -0.0217361 0.0286959 0.0484103 0.035092 -0.00457747 0.0220837 0.0649135 0.0588118 -0.0726263 0.0446852 0.0686441 -0.0684935 0.0631984 -0.00466281 -0.0455636 0.0389696 0.00586832 0.0377833 -0.047486 -0.011806 -0.00112202 0.00831263 0.0560405 0.0153127 0.0242063 -0.0241063 -0.0451892 0.00171442 0.0106152 0.0690025 -0.0649968 -0.0398558 -0.0715939 0.0230275 0.058913 -0.0273327 -0.0251041 0.0517809 0.0434202 0.0553743 0.0447987 -0.0340475 -0.0304351 -0.016463 -0.0290705 -0.0342848 -0.00390711 -0.040034 -0.0387468 -0.0365534 -0.0425688 0.0123834 0.0046669 -0.0423313 0.0199008 -0.0293296 0.0739605 -0.0598694 -0.0423547 -0.0410651 0.0410182 0.00114343 0.00565491 -0.0343973 0.020847 0.0351293 -0.0138308 -0.0555578 -0.020581 -0.0644086 0.0609955 -0.0688843 0.067663 -0.0659749 0.0360202 0.0409092 0.0747651 0.0299061 0.0114925 -0.0261641 0.026094 -0.0617109 -0.0275844 0.0404529 -0.0351396 0.0542838 -0.0328345 0.0173068 -0.0458576 0.0108236 -0.0453297 -0.052818 -0.0340954 -0.0585607 0.0287305 0.0166916 0.00536668 -0.0315489 -0.0551 0.0435285 -0.0539077 -0.0324636 0.026836 0.00431404 0.0142913 -0.0227473 0.00999526 -0.058843 -0.0189047 0.0667675 0.0415386 -0.0407743 0.0153195 0.0107684 0.0202989 0.0540183 0.0735167 -0.0441675 -0.00616562 0.0471243 -0.022128 -0.0649125 -0.0593363 -0.030413 -0.00660364 0.0140327 0.0240426 0.0293359 -0.0392749 -0.0439626 0.00905432 0.060155 -0.0129616 0.0272844 -0.0635775 0.0277662 -0.0349609 -0.0216113 -0.0506549 0.0681279 -0.00296017 -0.0610025 -0.00119449 0.0441242 -0.00608637 0.0457669 -0.0573523 0.052458 0.0271275 -0.057384 0.0169997 -0.0303429 -0.0388757 -0.0389539 0.0556764 0.0404137 0.0624609 0.0664805 -0.0623824 -0.0576118 0.00672139 0.0485937 0.0281316 0.0348211 -0.0746125 0.0686059 -0.00717306 -0.0457671 -0.0393361 0.0746286 -0.0200481 0.0288332 0.0731021 -0.0694981 -0.0637602 -0.0329305 0.0308959 0.0303553 0.0466968 -0.0626291 -0.0302195 0.0398937 -0.0195605 -0.00977303 -0.0287937 -0.0616342 0.0338031 -0.0161398 -0.0663082 0.0172812 0.00339909 0.00235522 -0.0699908 0.00425826 -0.0379331 0.0504533 0.0740002 0.0172193 0.0285916 -0.0308636 -0.0304051 0.0137745 0.0524095 0.0461621 0.0359126 -0.0423982 -0.0729302 -0.0601651 0.0290798 -0.00462514 0.0477645 -0.0234386 0.0671927 -0.0443795 0.0570676 -0.000306495 -0.00244778 0.054572 -0.017249 0.0423094 0.00922067 0.0754087 0.060557 -0.0613188 0.0613663 0.0572036 -0.00832201 0.0156714 
0.0636195 -0.00723248 -0.0384404 -0.0495286 0.0725042 -0.0290746 -0.0327797 0.040509 0.00822119 0.0295314 0.00585805 0.0286611 -0.022463 -0.0377925 0.0578377 0.0236884 -0.07147 0.0131731 -0.00634884 0.0402257 -0.0669569 0.0112329 -0.0447021 0.00716618 -0.0118458 0.0556411 -0.0380857 0.0335358 0.0385966 -0.0724853 0.0247471 0.0174462 0.00347487 0.0651491 -0.0536104 -0.0551095 0.0454946 0.0207994 0.00931253 -0.0165322 0.0193911 -0.0370548 -0.0159064 -0.0386153 0.0675292 0.0434748 -0.0320266 -0.0543691 0.0616052 -0.0419951 0.0235716 0.010695 -0.04406 -0.0124166 -0.004336 0.0692758 -0.042404 0.0697251 -0.0435238 0.0195475 0.0517415 -0.0538932 0.0622863 -0.00884102 0.000321405 -0.0708202 0.0179977 -0.0653281 0.0446371 -0.0492802 0.0275906 -0.012319 0.0649189 0.0737111 -0.0339503 -0.0454805 0.0599507 -0.0672714 -0.0147232 -0.0253201 -0.0208041 -0.000457116 -0.00988343 -0.0644197 -0.0377376 -0.0269125 -0.0240008 -0.0617984 0.0579845 0.0136919 -0.031887 -0.0636813 -0.0430629 0.00828943 -0.033221 0.0457693 -0.0331271 -0.035425 -0.0147959 -0.0583654 0.0743984 -0.0202468 0.0535753 -0.0435743 -0.0445319 -0.00458701 -0.0116817 0.075551 0.0457251 0.0710034 0.0493985 -0.0305545 0.022684 -0.0590158 0.0723887 -0.0541993 -0.0066367 0.0265561 0.0135434 -0.0356335 0.0267064 -0.0563395 0.0224548 -0.0247526 0.047016 0.0052186 -0.0744289 -0.0272549 -0.0470245 -0.0278012 -0.00661327 0.0316269 0.064951 -0.0115291 0.0112358 0.0637017 0.00888532 -0.0707501 0.0418666 0.0445884 0.0500609 -0.0641122 0.055843 -0.0508471 0.0357193 0.0598569 0.0415509 -0.0725065 -0.0286971 0.0391353 -0.0487747 -0.0276045 -0.0610965 0.053486 -0.0325391 -0.0457152 0.0642387 -0.0712832 -0.0262922 0.0266173 0.037072 -0.0510382 0.0277178 0.0644406 0.0475389 0.0356431 0.00970043 -0.037118 0.0415068 -0.0739969 -0.0597864 0.0280149 0.0449801 -0.0687855 -0.0687306 0.0608812 -0.0410619 0.0748365 -0.0616715 0.0661767 0.03226 0.033847 0.0475692 0.00498289 0.0142508 -0.00465931 0.0015008 -0.0353794 -0.00682426 0.0508633 -0.0257565 -0.00274322 -0.059668 -0.0276392 0.014896 -0.0357217 -0.00598265 -0.0533383 0.0435751 0.00199253 -0.0704225 -0.0318532 0.00330679 0.0306006 0.0504831 0.0495924 -0.0099401 -0.0351811 -0.0658627 0.0274927 0.0444705 0.0414517 0.0561617 0.0500592 -0.0170209 -0.0100055 0.0314545 -0.0244735 0.0677853 0.0239298 -0.0642245 0.0670153 -0.0160339 -0.0149589 -0.0287477 -0.0375026 0.0410123 -0.0381669 -0.0531527 -0.00489442 0.0523683 0.059627 0.042084 -0.00026988 -0.0696344 0.0207669 0.0511668 -0.0340449 0.0481978 -0.0728403 -0.0728846 -0.00331672 -0.00937747 0.0307277 0.0746824 -0.0116153 0.0718124 0.0272053 0.0627078 -0.0134551 -0.00453539 0.018069 0.0666461 0.0656161 -0.04812 -0.0514676 
0.0748676 0.0566549 -0.0264942 -0.028808 0.0647006 -0.0448123 0.0431184 0.0189207 -0.00433668 -0.0320446 -0.00179137 0.0216143 -0.0313371 -0.0379226 0.0263139 0.0425406 -0.0661226 0.0366724 0.00637698 0.056854 0.0676707 0.00106591 0.0024246 -0.0356636 0.0274106 0.0730974 -0.0394084 0.021559 -0.0754173 -0.015541 -0.0181722 -0.0559035 0.0364955 -0.0132096 0.0716468 -0.0496962 0.0439474 0.0362847 0.0239546 -0.0382471 0.0431449 -0.00316466 -0.0159468 0.0706017 0.0404301 -0.0159361 0.0417775 -0.0487389 0.0087595 0.0555474 -0.0253958 -0.0708736 0.0638078 -0.0436619 0.0520786 0.0599925 0.0393582 -0.0401418 0.0401092 -0.068762 -0.0280469 -0.0311114 0.0158616 -0.0112585 0.00756681 0.05715 0.0568364 0.0739331 -0.0282084 0.0032996 0.0454566 0.00872022 0.0348085 -0.0432952 -0.0528088 -0.0247333 -0.0300964 0.0683191 0.0340556 -0.0444703 0.0757004 -0.00877479 0.0296328 -0.0470589 0.0565502 0.0668666 0.027508 -0.0444491 -0.0481841 0.0199384 0.0704479 0.0732999 -0.0418546 -0.0349957 0.046467 0.0488018 0.0319178 0.0707031 -0.0600922 -0.0625545 -0.0359979 0.0147348 0.0115054 0.0326574 -0.0408991 0.0303001 -0.0492269 0.00546203 -0.0615954 -0.0265426 0.0568989 -0.0449169 -0.00261764 0.0615528 0.050966 -0.0677934 0.0401141 -0.0299979 -0.0246856 -0.0503319 0.00734038 0.037238 0.00120364 -0.0186983 0.0648278 0.036912 0.0281629 -0.0690044 -0.0275213 0.0208048 0.0732458 -0.00722752 0.0530838 0.0714039 0.0368443 -0.0654435 -0.0596064 0.0294528 -0.0563678 -0.0749249 -0.00884967 0.0256402 -0.049421 -0.0223785 -0.0307747 0.0496047 0.0494773 -0.0269749 -0.0298101 -0.0379267 -0.0547733 0.0436541 0.0540226 0.00340371 -0.059443 0.0311798 -0.0434727 -0.0185798 -0.0711422 0.0447162 0.000839792 0.0365721 -0.028839 0.0318074 -0.0188233 0.0344304 -0.0100792 0.0730348 -0.0754802 -0.0588866 -0.0524918 -0.0268136 0.0411064 0.031714 -0.0250137 -0.0548469 -0.0616138 -0.0282524 0.0404029 -0.0488249 0.0107119 -0.0188611 -0.010718 0.037259 -0.0332806 -0.0368325 -0.00476479 -0.027388 -0.00071933 -0.0714662 -0.0233943 -0.0460491 0.0353478 -0.0757009 0.00338186 -0.0222153 -0.0605286 0.0325417 -0.0389613 -0.0739416 -0.011288 0.00704682 0.0252822 0.0552705 0.0345129 -0.03151 -0.0548322 0.0511578 0.00195924 -0.0167555 -0.0694238 -0.0446924 -0.0329467 -0.0157105 0.0497553 -0.0750511 0.00672072 0.0491937 -0.0628307 0.0505315 -0.0315345 0.0116476 0.0569502 0.0347443 -0.0168773 -0.0636355 -0.0353467 0.0336764 0.00758172 0.000904706 -0.0553862 0.0141671 0.0646212 -0.0109283 0.0755015 0.0750628 -0.0528758 0.0725546 -0.0398672 -0.029731 0.0493463 -0.00919883 0.054183 0.00234869 0.0117608 0.00673235 -0.0344635 -0.0639569 0.0244063 0.0553435 -0.0669328 -0.0720869 -0.0166947 -0.00320542 0.0206549 -0.046356 
0.0446078 -0.0443427 -0.0512257 0.019981 -0.040578 0.062523 -0.0443157 -0.0534024 0.00324828 -0.00910523 0.0301069 -0.0441498 -0.0752027 0.0358994 -0.0749468 -0.00288439 0.0059208 -0.0562532 -0.0627891 -0.0546506 -0.038161 -0.0744929 -0.0741941 -0.0564088 -0.0387766 0.000765426 -0.00229778 0.0147934 0.0387629 -0.0234305 0.00578599 0.00914896 -0.00134689 -0.0466472 -0.0492713 -0.00865202 0.0703015 -0.0716737 -0.0551653 0.00960085 -0.0758313 -0.00927705 0.0383866 0.057772 -0.0330617 0.0331562 -0.0246458 0.0533119 -0.0642328 -0.0239936 0.065696 0.00373234 0.0274683 0.0250413 0.0549384 -0.0487203 -0.0326786 -0.0347356 -0.0215061 0.0270269 -0.0209512 -0.0411094 -0.0238172 0.0415804 0.0573137 -0.0679822 -0.061147 0.031492 0.037635 0.0285211 -0.0372532 0.0495742 0.00118164 -0.0437325 0.0557019 -0.0665992 0.0425736 -0.0436022 0.0390018 0.044713 0.00332424 0.0542475 0.0708042 0.0506272 0.0728337 0.000305196 -0.0117521 -0.0440952 -0.0580554 0.0633184 0.0390887 0.0383649 -0.03894 0.0180927 -0.0559941 0.00773752 -0.0452532 0.0487145 0.0505649 0.012017 -0.0721539 0.0366249 0.0575107 0.0149059 -0.0655368 0.057207 0.0276617 0.0435315 0.0168701 0.0303459 0.0353191 0.0128475 -0.0427287 0.0653411 0.0395804 -0.0525275 0.0711473 0.0538926 -0.0535251 0.0530273 0.0562703 0.0729408 0.0402145 -0.0543683 -0.0271949 0.0432091 0.0512712 -0.0309122 -0.0288253 -0.0366481 0.00318964 -0.0537474 -0.0626712 -0.04445 -0.0168067 -0.0309876 -0.0539833 -0.0388876 -0.0555139 0.0396747 0.0307833 -0.0445366 0.0364293 -0.00250315 0.0733473 -0.0586904 0.00517592 -0.0329311 0.0617968 -0.0316792 0.0602556 -0.067467 0.0664355 -0.0350217 0.0455012 0.0681326 0.0124043 0.0660385 -0.0705289 0.0182309 -0.0566684 -0.0361634 -0.0554101 0.0284835 -0.0391216 -0.0194191 -0.0118824 0.0175885 -0.0708385 0.0582872 -0.00951797 -0.0412608 -0.0310303 -0.0691113 -0.00445079 0.0438831 0.0293029 -0.0712184 0.0152286 -0.0100204 0.0288335 0.0516427 -0.0380843 0.0522427 -0.0153589 -0.0625544 -0.069327 -0.0552393 0.00950573 0.0135303 0.00521073 0.0450541 -0.0191276 0.0216907 0.0136996 0.0120715 -0.0219821 0.0717693 -0.00930302 -0.0428999 0.0630284 -0.0317048 -0.0384421 -0.0159722 -0.0388363 -0.0740917 -0.0688792 0.0252613 0.0348074 0.0620546 -0.0643102 0.0452946 -0.0457027 -0.0439023 0.0109496 -0.0471257 0.0637482 0.0575727 0.0148704 -0.00647284 -0.064359 -0.0150787 0.0683864 -0.00793469 0.000515235 0.0118154 -0.0672157 -0.0698468 -0.0494055 0.0235169 0.0342608 0.063141 -0.0124674 -0.0085416 0.0435365 -0.0322693 -0.0270169 -0.0162128 -0.0110507 0.0677753 -0.0226441 -0.0472151 -0.00264202 -0.0516371 0.0180429 -0.0288986 0.0452577 0.0617869 -0.0701515 0.00580667 -0.00931455 0.0169873 -0.0198917 -0.0438857 -0.00315104 0.0176677 
-0.0595339 0.0388091 -0.0652158 -0.0222431 -0.0207579 0.0536559 -0.0713379 0.0713265 0.0112898 0.0313159 0.0417661 0.0396662 0.0113839 0.0528053 0.02724 -0.00311693 0.0642207 -0.0675993 0.0515907 -0.0420635 0.0343149 0.020916 -0.0613631 0.0488939 -0.0382316 -0.00712662 -0.0599693 -0.0434046 0.00279063 0.0194737 -0.0705654 -0.0267376 0.0180534 -0.0309094 -0.0465321 -0.0701154 -0.0163636 0.0249102 -0.0546752 -0.0158086 0.0526763 0.057525 -0.0227455 -0.0500962 0.0351466 -0.00436178 0.0023258 -0.0514355 -0.000146168 0.031185 0.0534884 -0.0372039 0.0173777 -0.0638829 0.0646851 -0.0743122 0.0649935 -0.0562606 0.0460237 -0.0254646 0.0231152 -0.0375943 -0.00905548 0.0252513 -0.0198861 0.00830132 -0.0719427 0.0546914 0.0177127 -0.0152442 -0.0332347 -0.0135537 0.0718046 0.0296876 -0.0483168 0.0274328 0.06924 -0.0206915 0.0734355 -0.0557864 0.0525746 0.0220423 0.0266474 -0.0385997 0.0650371 0.0712534 -0.0224283 0.0464831 0.0573999 0.0211008 0.0510599 -0.0111181 -0.0652621 0.0614168 -0.0534941 -0.0278393 0.0381863 0.0091664 -0.069702 -0.0381614 0.0549439 0.0700573 0.0345166 -0.0151199 0.0271242 -0.046234 0.0625125 0.0710696 -0.0454302 -0.0587077 0.0643869 0.00342662 0.0224281 0.0750058 0.0441702 0.0695282 0.0101067 -0.0112815 -0.0565146 0.0710922 0.025222 0.05594 0.0461904 -0.0527583 -0.0345293 -0.0143408 0.0440347 0.0448965 -0.04473 -0.0183084 0.0740678 0.00130926 -0.000773815 0.0356806 0.072851 0.00423392 -0.0399083 -0.0400453 0.00809752 0.0695833 0.0541691 -0.0329098 -0.0688811 -0.00684958 -0.0555152 -0.0500441 0.0225656 0.0462359 0.0425575 -0.0746121 -0.0111955 0.0102044 0.0636323 0.0311329 -0.0102322 0.0239038 -0.0447252 0.0302546 0.00992957 0.0318314 -0.0492701 -0.0745324 -0.0111571 -0.0274536 0.01863 0.021654 0.0511118 -0.00886385 0.0680107 0.0422552 0.0591877 -0.0622909 -0.0187808 -0.0680906 0.0347694 0.0606627 -0.040467 0.0620876 -0.00876577 -0.0231622 0.0252575 0.015527 -0.065475 0.0334714 0.0118256 -0.0188527 0.0348425 0.0578028 -0.0678076 -0.0284589 -0.06415 0.0487387 0.0488563 -0.0525958 -0.00736353 -0.011844 0.0214081 0.0518763 -0.0247523 0.0576091 -0.0470803 -0.0499033 -0.0664609 0.0623544 -0.0156427 0.0129743 -0.000559625 0.0482007 -0.0103242 0.0199586 0.063305 -0.00387626 -0.00172122 -0.0698776 -0.065607 -0.0190173 -0.0545855 -0.0269845 0.0200072 -0.0131451 -0.0394735 -0.0354296 0.0373133 0.0577468 0.0513815 0.0133033 0.0411916 0.00269835 0.0597375 -0.0313344 0.00391403 0.0198155 -0.075345 0.0187155 0.000219273 -0.0626848 -0.0479106 0.0445111 -0.0455777 0.0582354 0.059128 0.0309291 -0.010252 -0.0689977 0.0399583 -0.0692367 -0.0513575 0.0647277 0.0080236 -0.000990598 0.0110246 0.0709612 -0.00187048 -0.0132347 -0.0481864 0.0294876 
0.0508219 -0.0458266 -0.00346218 0.0335703 0.0575028 0.0275625 -0.0395424 -0.0207235 0.0637038 0.0331044 0.0175551 -0.0589373 0.064563 -0.0371419 0.0181761 -0.0443546 -0.0457097 0.0621687 -0.0141884 -0.0598108 0.0409477 0.0245031 -0.033706 -0.0328638 -0.0681007 0.051041 -0.0688381 -0.0715325 -0.00845374 -0.00892839 0.0534919 -0.00410611 -0.0509832 0.0592294 0.0171278 0.0567686 0.0546827 -0.0275144 -0.0169345 0.0246933 -0.0520793 -0.0575319 -0.0231767 -0.0272755 0.0342349 3.29834e-05 0.0286556 0.0405292 -0.0706848 -0.00868018 0.0676061 -0.0362698 -0.00436475 0.0503275 -0.0395949 -0.0401061 -0.019382 0.0456699 -0.0220504 -0.0611404 -0.0465906 -0.000534607 0.0091608 -0.0479911 0.0570323 0.0397866 0.04398 0.0588791 -0.0123693 0.0435877 -0.0115342 0.0414911 -0.048452 -0.0670666 0.000519015 0.0538235 0.0467567 -0.0548256 -0.000884078 -0.00792681 0.0432328 -0.0411467 -0.0576188 0.0410591 -0.00806315 0.0583456 0.00024655 -0.0442247 0.0113048 0.0684904 0.02095 0.0285184 -0.0689893 -0.0478969 0.0445863 -0.0289019 -0.0756876 -0.0366255 0.0400501 0.0217726 0.0568052 0.0371457 -0.0597349 -0.0110793 0.0591047 -0.00304694 0.00650249 -0.0369428 -0.0737337 -0.0726935 0.0206475 0.0412612 0.021932 -0.0423911 0.010785 0.0521956 -0.0742584 0.0319526 0.00164068 0.0230048 -0.0191397 -0.0148952 0.0170601 -0.0749083 -0.0288003 0.0445321 -0.00679034 0.0666176 -0.0391435 0.0401947 0.0358875 0.0496866 -0.0423131 0.00514496 0.0456128 -0.0554319 0.0573486 0.0497572 -0.0223291 -0.0124175 -0.0374922 0.0550937 0.0605481 -0.0469808 -0.0053602 -0.0235377 0.0330233 -0.0339042 0.064808 0.0153541 -0.0030762 -0.0501743 0.00600165 0.0526722 -0.0245176 0.0478104 -0.0474766 -0.0540111 -0.0115736 -0.0161288 0.0382793 -0.013148 -0.0449831 -0.00668541 0.0558685 -0.0739279 -0.0135428 -0.0103284 0.0408163 -0.0185709 -0.0153249 0.0620518 0.038531 0.0545409 -0.0627585 0.0200625 0.0461802 0.0186526 0.048474 -0.0141745 -0.0087955 -0.0727496 0.0464381 -0.0013166 -0.00728032 -0.0471255 0.0708078 0.0644572 0.046992 0.00926856 -0.0129504 0.0712912 0.0405449 -0.0586414 0.0517505 0.046851 -0.0511527 -0.00848451 -0.0398213 -0.0220829 -0.00937132 -0.0530415 0.0480695 -0.0644928 -0.0509483 -0.00753722 0.0627056 0.0195749 -0.0221686 -0.0640718 -0.0594338 0.0139989 0.00156855 0.0149987 -0.00947791 -0.0662575 0.0752424 0.0669664 -0.0759012 -0.015943 -0.0157299 0.0653466 -0.0563648 0.0199112 -0.0598925 -0.0693862 -0.0545178 0.00325488 0.041063 -0.0587488 0.0092415 -0.00481332 0.0588203 0.00990598 0.0464594 0.0630686 0.040426 0.0380925 0.0587111 -0.0428388 0.0571432 -0.00637298 0.014173 -0.0274273 0.00483365 -0.0656902 -0.0499707 -0.0468168 0.0344858 -0.0186129 0.0515982 0.0245632 -0.000605757 0.0267349 0.0701323 -0.0290729 
-0.0607585 -0.0109298 0.0677393 0.0421143 0.0292269 -0.041407 0.0597175 0.00595503 0.0614739 -0.0723643 -0.0422521 -0.073253 0.0388091 0.022681 0.0545577 0.0464236 -0.0324739 -0.0727338 -0.046152 0.0344289 -0.0362566 -0.0525958 -0.00939473 -0.0672331 0.0342433 0.0645842 -0.0470493 0.0069682 -0.0702009 0.0161658 -0.0390165 0.0393019 -0.0394307 0.0291457 -0.0644759 -0.0412284 0.0514526 -0.0671589 0.0453149 0.0669715 -0.0428654 0.029685 -0.024712 0.0539421 -0.032089 0.0479183 0.0145777 -0.049059 0.0511808 -0.0752626 -0.0606393 0.0399263 -0.0440905 -0.00627845 -0.0746206 -0.0554862 -0.0755078 0.0752625 -0.00709335 -0.00219071 0.0108219 -0.0594701 -0.00689102 0.0504155 0.058813 0.0103958 0.0231124 0.00972366 -0.0531346 0.00583011 0.00839838 -0.0474981 0.0257248 -0.00866235 0.0503066 -0.0332144 0.0364048 0.0182749 0.0706181 0.0652977 -0.0612028 0.00674689 -0.039609 -0.0759197 -0.0450428 0.0515538 0.0491943 -0.0629441 -0.0518721 -0.0437505 -0.0440872 -0.0617168 0.0125476 0.00679975 -0.0131034 0.0709223 0.0654647 0.00128122 0.0638349 -0.0691099 -0.00972247 -0.0383027 0.00714498 0.0203763 -0.0742119 0.0509978 0.040036 0.0327776 0.0129819 0.00698645 0.0492638 0.0468611 -0.0402659 -0.0723776 0.0711926 0.0526709 0.0106756 0.0420322 -0.0331619 0.0596037 0.0596992 -0.037186 -0.0234146 0.0411628 0.0652634 0.0506904 0.0263024 0.0429129 0.00531519 0.0135387 -0.0521236 -0.0676784 -0.0675242 -0.0256094 0.0368013 -0.0151221 0.0362578 -0.0137524 -0.0364013 -0.0479177 -0.0667691 -0.0325891 0.00296169 -0.0691691 0.00699812 -0.0216481 0.0674141 -0.0427295 0.0538857 -0.0605672 0.0379682 -0.0400989 -0.0231405 -0.021685 -0.072174 -0.0690965 0.0649902 -0.0150618 0.0194069 -0.0483268 -0.0330298 -0.0621847 -0.0118566 -0.00741456 0.0700928 -0.0548752 -0.0501321 -0.00454392 0.0731924 0.0218252 0.0641804 -0.0505211 0.0662847 0.0423079 0.0247083 0.0284042 -0.0505473 -0.0655775 0.0127066 -0.0751923 -0.0668656 -0.0269396 -0.0604275 -0.0428758 0.0233798 0.0522697 0.00770658 -0.073353 0.057729 -0.0222947 -0.0428672 0.075097 -0.0332779 -0.0121721 -0.0372182 0.0315439 -0.0537153 -0.0573035 0.0210199 0.0142717 0.0575032 -0.00113392 -0.0218093 0.0223654 0.00943171 -0.068441 0.0331984 0.0649021 -0.0262224 -0.0726112 -0.0430251 -0.00940798 -0.0750029 0.00660894 0.00892051 0.022073 0.0386828 -0.0419583 -0.0438807 -0.0409326 0.000634626 0.0445844 -0.00799411 0.0131038 0.0285907 0.0478848 -0.063528 0.0446375 -0.046915 0.0306105 0.0178404 -0.0376392 0.0153471 -0.048303 -0.0195411 0.0124201 0.0490098 -0.0447369 0.0535972 0.0627661 0.0117521 0.0486771 0.0156174 0.0115533 0.00297789 -0.0592419 0.0569244 0.010948 -0.0541307 -0.011661 -0.0548239 0.0378987 -0.0581067 0.00258149 -0.0412612 0.0615051 
-0.0237152 -0.0549324 -0.0455839 -0.00257562 0.00555071 -0.032507 0.051049 0.048163 -0.0738918 0.0313929 0.00149459 0.0482928 -0.0473088 0.0506428 -0.0143249 0.00237594 -0.0224359 0.0135931 0.0536865 0.0132193 0.0247307 -0.0249779 -0.0367182 0.0577295 -0.0544757 0.0156526 0.00849746 0.0396926 -0.0670826 0.00962462 0.00128823 -0.0664447 -0.055069 -0.0756821 0.034244 0.0600503 -0.0627334 -0.00646429 -0.0571916 0.0303783 0.00703276 -0.00478705 -0.00257642 -0.0312171 0.0158225 0.0229562 -0.0306726 -0.0262063 0.0152367 0.0615204 -0.060311 0.0181494 -0.0481645 -0.0329316 -0.019491 0.0658226 -0.0649398 0.0674774 -0.0660072 -0.0717382 -0.0604894 -0.0532543 0.00529101 -0.0672963 0.0391029 -0.0263984 0.0584718 -0.0615368 0.0698492 0.0257989 -0.0589167 0.0284424 -0.0720336 -0.0518864 -0.0422373 -0.0591993 -0.0696855 0.0320081 0.0409693 -0.0131108 0.00889095 0.00539853 -0.0209014 0.0133594 -0.0276638 -0.0512784 0.0404792 0.0228525 0.070433 -0.0556369 -0.0114539 0.0134148 0.0443948 0.055363 -0.0571737 -0.00473546 -0.0166399 -0.055378 0.0683733 -0.00529417 0.0101138 -0.0252094 0.0194796 -0.0715887 0.013031 -0.00641116 -0.0366427 -0.0349542 -0.0717456 -0.0603946 0.0258411 0.0205526 0.0659883 -0.0650024 -0.0407928 0.0490384 -0.0137038 -0.00423107 -0.0530747 -0.0643628 0.00661464 0.0123503 -0.0662463 -0.0126684 -0.0373783 -0.0604976 0.0281226 0.0357316 0.074965 -0.0130167 0.025501 0.0250572 0.0473683 0.0342501 -0.0237024 -0.052315 -0.0129273 -0.0731579 -0.0489261 0.0666004 -0.0147644 -0.0235979 -0.0419513 0.040455 0.0164472 -0.0650414 0.0351488 0.0445865 0.0348496 0.0109702 0.0383366 0.0022741 0.058175 -0.00563304 0.0238679 0.0105666 0.0627996 0.0201678 0.00431312 0.00519073 0.0601744 0.0032354 -0.00159019 -0.0486074 0.0523737 0.022874 0.0382592 0.0224569 0.0744608 0.0292609 -0.0258412 -0.0051451 -0.0630396 -0.0741245 -0.0611752 -0.0225482 0.0588275 -0.0365805 -0.00387111 0.000941013 0.064851 -0.0121957 0.033604 -0.0240323 -0.0613284 0.0621563 -0.0305796 0.0098607 0.0734013 0.0658393 -0.012503 -0.0353829 -0.0350969 0.0599452 -0.0257506 0.0436324 -0.0305847 0.0297495 -0.0263565 0.024906 -0.0290402 -0.0128781 -0.00635187 0.0338584 0.0557417 -0.00879817 -0.00473541 -0.0565275 -0.0389302 -0.0705789 0.00760454 -0.0316247 0.0306918 0.0374701 0.00923978 0.0699222 -0.0558591 -0.0567186 0.0413943 0.0451118 -0.00171551 -0.0399597 -0.0263493 0.0437608 0.0121568 -0.0202334 0.0411389 0.0337901 -0.0349739 0.0601644 0.0690082 0.0586646 -0.0663714 0.0427187 -0.0362055 0.0377116 0.0278414 0.0466879 0.070637 -0.0400997 -0.029128 0.0383382 -0.0490023 -0.00774422 -0.0685038 0.00602549 0.0365655 0.00202482 0.0544579 0.0570395 -0.0172573 0.0558697 -0.0650738 -0.060249 -0.0719182 -0.0165142 
0.000709246 -0.0136892 0.0332973 0.0448641 -0.070747 0.0254852 -0.0109616 -0.0682573 0.00615605 0.0655224 -0.0460532 0.0124462 0.0333995 0.0169305 -0.0468001 0.0116293 0.0217122 -0.0422964 -0.0618684 0.0722733 0.0189192 -0.0566594 0.0104649 0.0736304 -0.067566 0.00399973 0.0326696 -0.00587023 -0.0520067 0.0263019 0.0665371 0.0523385 0.0351666 0.0290031 -0.0571448 -0.074442 -0.00985214 2.32983e-05 -0.00841844 0.0221744 -0.0649992 0.00817334 -0.00912719 0.0285112 -0.0638791 -0.0381053 0.00938562 -0.0723037 0.0475204 0.027605 -0.0544402 0.0749233 -0.0438455 0.0735584 -0.00268131 -0.0240887 0.0179725 0.0524187 -0.0292157 0.0321252 0.0063517 0.0244629 -0.000687114 -0.0148169 -0.0231185 0.0273431 -0.00404971 -0.0681754 0.0454132 0.0357947 0.050529 0.0685942 -0.0754181 0.0589792 0.0227065 -0.0353613 -0.0527438 0.0393934 0.0119423 0.030462 -0.0469497 -0.0723051 0.0413979 -0.0499675 0.0284393 -0.0755996 0.0208087 -0.0594989 0.0172463 -0.0359355 0.0482719 0.0108457 -0.000311997 0.0378568 -0.0432219 0.0673463 -0.0284463 0.0250323 0.0650934 -0.0590082 0.0360225 -0.073847 0.0321187 -0.0438832 -0.0004252 -0.0441038 -0.0474415 0.0366734 -0.00805028 -0.0272105 -0.0115579 -0.0290808 0.0583999 0.0128493 -0.0530282 0.0212934 0.0451138 0.0595548 -0.0510048 0.0419658 0.0294368 0.0540561 -0.0614598 0.025847 0.00692702 -0.0750529 0.0201936 0.0337009 -0.0218264 0.0507781 -0.00828508 0.0334521 -0.0549683 0.0661706 -0.0491428 0.0492515 -0.0229439 0.0132689 0.0746113 0.0408801 -5.8216e-05 -0.0681227 0.0561307 0.0131612 0.069426 0.0456922 -0.0115924 0.0214307 -0.0694451 0.0133753 0.0189976 0.00852768 -0.0734144 -0.037511 0.0167357 0.0413237 0.0543238 0.0634636 0.0678592 0.00453114 -0.0701279 0.0112113 0.0170943 0.0180196 0.0695483 0.0542696 0.0323002 -0.0613592 -0.074139 -0.0161858 -0.0274169 -0.037113 -0.0207751 -0.0109228 -0.0142202 -0.0427025 0.0231966 0.0162986 -0.0123209 0.000424199 -0.0513005 0.0724403 -0.0372005 0.0522824 0.0645768 0.0494946 -0.055542 0.0081445 -0.0341588 0.0579423 0.0390535 -0.0350361 0.0371573 0.032666 -0.0083811 -0.0429667 0.000559265 -0.0265579 0.014749 0.0120306 -0.057832 0.0460204 0.0486541 0.0223281 0.0741527 0.00567373 0.0390545 -0.0139891 0.0302446 0.0542776 -0.0447825 0.00107613 0.0134594 0.0174329 0.0144222 0.0573448 0.0221631 -0.0221175 -0.0590037 -0.00817257 -0.0256153 -0.0364082 0.0449384 -0.0105624 0.0664876 -0.0726536 -0.00752489 0.054202 0.0522875 0.0402985 0.0246562 -0.0509803 -0.0404078 -0.075123 -0.00347167 0.0155477 0.0644047 0.0195698 0.00393873 0.00879396 0.0569023 -0.0617363 -0.000482881 -0.0360039 0.0040993 0.00298013 -0.0234111 0.0117773 -0.0182381 -0.00839883 0.00949144 0.0559743 -0.0274763 -2.54896e-05 0.0172279 0.0743376 
0.0166915 0.0521372 -0.0548865 -0.0258666 0.024184 -0.00496269 -0.012333 0.00146398 0.0756454 0.0434854 -0.0508976 -0.054732 -0.00949213 0.000364462 0.0695466 0.0250111 0.0371916 0.0181121 0.0341777 -0.0239249 -0.0558777 0.0185804 0.0680775 -0.0370083 -0.0141956 -0.0391211 -0.020037 0.0365019 -0.0340101 0.0156024 -0.0692056 0.0645171 -0.0207207 -0.0519462 0.0435073 -0.0632461 0.0442484 -0.0285463 0.000555973 0.0648881 0.0757057 0.0619201 -0.0378062 -0.0252386 -0.0700612 0.0161288 0.0615041 0.0297966 -0.0531739 -0.0395787 0.0742155 -0.00858462 0.0358342 -0.066889 0.0675295 0.0692073 -0.0434477 0.0736404 0.0683475 0.063886 0.0286882 0.05077 -0.0378007 -0.0570889 -0.0402072 0.00620998 -0.0205414 0.0724203 0.0052301 -0.00818335 0.0306845 0.00456358 0.0601952 -0.0336981 -0.0459602 -0.0207287 -0.0572776 -0.0207414 0.0524848 0.0228671 -0.0395574 0.00594653 -0.0745314 -0.0730046 0.0441485 0.0486984 -0.0316049 -0.0298769 0.000844931 -0.0281016 0.0166698 0.0363369 0.0517657 -0.0581188 -0.0645611 0.0303192 -0.0403168 0.0474056 0.0300157 -0.00924339 0.0276208 0.00160197 0.0425798 0.00236514 0.0683223 -0.00621731 -0.0298868 -0.0127153 0.0562159 0.037936 -0.025099 0.02528 0.0600018 0.0079387 0.0370032 -0.0709446 0.0685571 0.052429 -0.0429319 0.00162717 0.0273469 -0.00720042 0.0753387 -0.00443302 -0.0506644 -0.0723483 -0.0443244 -0.047586 0.0701785 -0.0303461 -0.056356 0.0105202 0.0222992 0.0076521 -0.00348731 0.0284422 -0.0671775 0.0251608 -0.0347151 0.000258894 -0.0121102 0.0534068 -0.0369573 -0.041815 -0.0303428 -0.0142142 0.00210662 -0.00598132 0.0524288 0.0701027 0.0507384 -0.00807991 0.0254207 -0.0475216 -0.0654265 -0.0290688 0.037711 -0.0570642 -0.019701 -0.0180233 -0.0213859 -0.0172844 0.0239642 0.0596045 0.0330648 0.0571238 -0.0177766 0.0341219 -0.0682081 0.0453999 -0.0495369 0.0747816 0.061527 0.0337651 -0.0124383 0.0268231 -0.00735786 -0.0182983 -0.0181289 -0.0407752 0.069979 -0.0521649 0.0333843 0.0585463 0.00971355 -0.0271398 -0.0219478 0.00746054 -0.0420475 -0.0721315 -0.00737202 0.027102 0.0694032 -0.00955553 0.0594313 0.0415309 -0.0396901 0.0704679 0.0405806 0.0625161 0.0319932 -0.0290456 0.0489481 0.0150786 0.0130594 0.0272984 0.000853405 -0.011296 -0.0583075 -0.0182996 -0.0535216 0.0315493 0.0591417 -0.0226292 -0.0671535 0.06767 0.00178654 0.0280432 -0.035062 -0.0258163 -0.0514368 0.0629591 -0.00169628 -0.0186218 0.0698797 -0.0732891 0.0223937 -0.0409413 0.0409048 -0.0728005 -0.0389234 -0.00380596 -0.0186345 -0.0237228 -0.0467865 0.0750336 -0.0671474 0.0668216 -0.00384828 0.00316906 -0.0507377 -0.0715972 0.040419 0.0336545 -0.0401512 0.069675 0.064177 -0.072416 0.0446877 0.0119837 0.0118584 0.0476875 -0.0138588 -0.00126492 -0.0632219 -0.000811277 
-0.0607941 0.0117205 0.0255502 -0.0525035 0.0645928 -0.043294 0.0184373 0.070729 -0.0741375 0.0422407 0.0524534 0.0416934 -0.0636212 0.0705704 0.0134043 0.0740579 0.00414509 0.0529366 0.0179993 -0.0524388 -0.0736059 0.0714111 -0.0613488 -0.0589418 0.0509857 -0.0386353 0.0378717 0.0279181 0.0149173 -0.0272064 -0.0102208 0.0183541 -0.00769906 -0.0590534 0.0350457 -0.0518211 0.0565828 -0.0301039 -0.035622 -0.0503726 0.0462741 0.0203024 0.0455679 -0.0349669 0.0680486 -0.00127524 -0.0508876 0.0570901 0.0165453 0.0557398 0.0621833 -0.0150515 0.0365152 0.0476129 0.0523889 0.0678501 -0.0182221 0.00944348 -0.0331737 0.0318401 0.0576715 -0.0164615 -0.037885 0.00941141 0.0212783 -0.014528 -0.0623356 -0.00315912 -0.0305862 0.064546 0.0260108 0.0441567 0.0701038 -0.0137497 0.0431706 -0.0665105 -0.0597648 -0.068236 -0.013847 0.0137718 0.00593229 0.022106 -0.00308538 -0.00424302 0.004139 -0.0446878 0.048049 -0.030219 -0.0666772 -0.0521059 0.0144917 0.0461214 -0.0528372 -0.0368739 0.0323473 -0.0107717 0.0332197 0.0719907 0.0513551 0.01467 -0.00123956 0.0615193 -0.0710352 -0.0613314 0.0257319 -0.0346933 0.0402677 -0.00345679 0.0550308 -0.0354279 -0.0724546 0.0579187 0.0560597 -0.0248411 -0.0098534 0.0716094 -0.0118139 -0.0148366 -0.0137408 0.0461594 -0.0280523 0.0704993 -0.0533059 -0.0426736 -0.0169165 -0.0318543 -0.0193329 0.0174541 0.0386017 -0.0110654 -0.0334316 -0.0375209 -0.00361422 -0.0351842 0.0642345 -0.0357074 0.0345468 -0.00154648 -0.0273867 -0.0437375 -0.00225627 0.0452702 -0.0597684 -0.0458922 0.00958574 -0.0570405 0.0618209 0.0526516 0.0270651 0.0452057 0.0250732 0.0135996 -0.0116604 -0.0616737 0.0709757 -0.0401807 -0.052994 -0.0182632 -0.053313 0.036974 -0.0748441 0.0128494 -0.0135046 0.0293435 0.00192126 -0.044589 0.060969 -0.0131272 -0.0314354 -0.0417417 -0.0741148 -0.0389624 -0.0335922 0.0661698 0.0357871 -0.0375731 0.0482487 -0.00345107 -0.00139087 0.0253431 -0.063822 0.0634623 0.0485509 0.0192236 -0.0298245 -0.0511234 0.0231606 -0.0564392 0.047828 -0.0672611 0.0590631 -0.0663955 0.0120121 -0.00255764 0.0615089 -0.0642804 0.0689605 -0.0626039 0.014743 0.0486338 -0.0704636 0.0585089 0.0169241 -0.0110316 -0.0403574 0.0757089 0.00187426 0.0280662 0.0108422 0.0343604 0.0295918 0.0182287 -0.0102016 -0.0456148 0.0278502 -0.00755993 -0.0155522 0.0163438 -0.00670639 -0.00684261 -0.00750819 -0.0167962 0.00687892 -0.0271218 0.0669242 0.0608503 -0.0147785 -0.0366491 -0.0467946 -0.0529375 0.0707145 0.0360846 -0.0270247 0.00259944 -0.00933539 -0.0650699 -0.0299668 0.0378339 -0.0619611 -0.0635917 -0.0670156 -0.0670884 -0.0423702 0.0370346 0.0620254 -0.0637341 -0.00575745 -0.00989405 0.0666111 -0.0123949 -0.0658752 0.0360532 0.0579694 -0.0602308 0.0470556 -0.0114605 
-0.0644286 -0.0650228 -0.0313783 0.0596976 -0.0556216 0.0174202 -0.0726128 0.0412798 0.0144224 -0.0633211 0.020006 -0.056352 -0.00109041 0.0512498 0.00846158 -0.0175431 0.0468492 -0.0369045 0.0663386 0.0271291 0.0206523 0.0756384 -0.012027 0.0218414 0.0284367 0.0526132 -0.0534442 0.0504492 0.000432508 -0.037593 0.0467957 0.073894 0.0176681 -0.00352535 0.0629504 -0.0352662 -0.0221744 -0.00450716 -0.0414697 0.0222349 0.0701541 -0.0555436 0.0158328 0.0600608 -0.0751087 -0.0632013 0.0568127 0.0700224 -0.0614624 -0.0460916 0.0264549 -0.0628195 -0.0120531 -0.0439661 -0.0113883 -0.0610675 -0.0346603 0.0123905 0.0566251 -0.0558716 0.041203 -0.0747125 -0.0529637 -0.0270417 -0.0407636 -0.0203401 -0.00960237 0.0266852 -0.00164489 0.0567474 0.0472206 0.0284799 0.0477907 -0.0668366 -0.0447358 0.0644649 0.0109402 -0.0240031 -0.00808872 0.0178521 0.0094458 -0.000294592 -0.025352 0.0608559 -0.0374082 0.0692642 0.059672 0.00189335 0.0389433 0.0325779 -0.047758 -0.0513743 -0.00952269 0.00583426 0.000512468 0.0131223 0.0218995 -0.0307056 -0.0155989 -0.0008898 -0.0257878 0.0725285 0.0462374 -0.00205406 -0.0226333 -0.0467223 0.0414353 -0.0497926 0.066336 0.0669296 -0.0136354 0.053005 -0.0271205 0.00383197 -0.0617318 0.0276476 -0.0522014 -0.00155936 -0.0448439 0.0573376 0.0130388 0.0455518 0.0247633 0.0703083 0.0597351 -0.0423655 0.0553641 0.0742848 0.00764154 -0.0338718 0.0613827 0.0453446 -0.0558616 0.0718116 0.0314154 -0.0247377 0.0110734 -0.0166148 -0.0553701 -0.0379521 0.0319259 -0.0237723 -0.0207319 0.0684421 0.000380233 -0.0588254 -0.0726165 0.047244 -0.0670068 -0.0102227 -0.0285027 0.0742775 0.0190715 0.061101 0.0610941 0.0630174 0.0352113 0.0501246 0.0663592 -0.028268 0.0277573 -0.0532623 -0.0135477 0.046339 0.00250254 -0.0121709 -0.0670592 0.0247889 0.0442122 0.00415981 -0.0525394 0.0152396 0.0507787 0.0609462 -0.0195462 -0.0311781 0.0744817 0.0341901 0.00950785 -0.040284 0.0665311 0.0621887 -0.00813845 0.0657904 -0.0483603 0.0503445 -0.0103653 0.0585307 -0.0678507 0.0012321 -0.0206268 -0.0135337 -0.0662805 0.00801377 0.054833 0.0141623 -0.0192996 -0.00099026 0.0198321 0.0728561 0.0730872 -0.0404329 -0.0553218 0.0280981 -0.0720052 0.0428518 0.011055 0.0513126 0.0320368 -0.0712311 0.00199153 -0.0668496 -0.0607418 0.0277566 -0.0336095 0.0675966 -0.0332223 -0.00495328 0.0181542 0.0508825 0.0713932 0.00301414 0.0657608 -0.0598855 0.0108185 0.0274712 -0.0744796 -0.0277124 0.0683915 -0.0463122 0.0744889 -0.0236092 -0.0423052 -0.065393 0.0316942 -0.064084 0.0425798 -0.0506846 0.0614364 -0.0520172 -0.0104592 0.00673591 0.0397079 0.0124797 0.0757609 -0.0302791 0.0608132 -0.0420251 0.0752643 -0.0259558 0.0647217 0.0421215 0.0189993 -0.0602516 -0.0500077 0.0605163 
-0.0573542 0.0391184 -0.00787273 -0.0316684 -0.0359821 -0.0106492 0.0277869 0.0332651 0.0419682 0.0215038 0.0519325 0.0355684 -0.0367935 0.00721705 -0.00503575 -0.0107679 0.0732394 0.0288208 -0.0667839 0.0500328 -0.0640278 -0.00705421 0.0202358 0.0266319 0.0220077 -0.0759169 0.0559964 0.0749543 0.0642441 -0.0747213 -0.0616103 0.0241346 0.0492912 -0.0121056 0.0155227 0.0473084 -0.0448042 -0.0172026 -0.070409 -0.00624616 -0.0140105 0.0582458 -0.0593874 -0.0628568 0.00537998 0.0361055 0.0614183 0.0126044 -0.00359544 0.052062 0.031104 -0.00754346 0.0040893 0.0408709 0.0381754 -0.027562 0.0317958 0.0753998 -0.0463566 0.045545 -0.0469017 0.000667729 -0.00968644 0.0730829 -0.00812988 0.0256758 0.0579262 -0.0718161 -0.0218044 -0.035036 -0.048753 0.0318228 -0.0529957 -0.0681251 0.00285501 -0.0328393 0.0328086 -0.067692 -0.0572569 -0.0171981 0.0231635 -0.0217533 -0.0589499 -0.011847 0.0122309 0.0717081 0.0104389 -0.0317243 0.00157061 -0.0197701 0.035401 -0.0591559 -0.0258167 -0.0342545 0.0414087 -0.0322505 0.0622338 -0.014085 -0.0341428 0.016246 0.0107137 -0.0631013 0.0215922 -0.0317342 -0.0630109 -0.0177216 0.024997 0.0650219 0.0121108 0.00892201 0.0611778 -0.0316261 -0.00195785 0.00909341 0.0655731 -0.0109195 0.0248126 0.0569843 -0.00882146 -0.00385448 -0.0402788 -0.0605061 -0.0406602 -0.0564614 -0.0580367 0.049083 -0.00262675 -0.0288512 0.0111438 0.0666553 -0.0429408 -0.0721861 0.0625909 -0.0217293 -0.0193512 0.0370439 0.00773723 -0.0239024 0.041177 0.00064717 -0.0184059 0.00581468 0.0300665 0.0127131 -0.0246162 0.0277888 0.00777947 -0.0394237 -0.0483943 -0.0740977 0.0118803 0.0216032 2.14567e-05 0.0497369 0.00847344 -0.0336522 -0.069118 -0.0328414 -0.0491015 0.00473878 0.0211836 -0.0341641 -0.00275372 0.0592841 0.022265 -0.00853822 0.00809808 -0.0329113 -0.0488257 -0.0519714 0.00513015 0.0523972 -0.0570046 -0.0727072 0.0462625 -0.0224257 -0.0462005 0.00608425 -0.0750218 0.0233323 0.0227389 -0.00825546 -0.00288306 -0.0131364 0.047586 -0.0251055 -0.0522318 -0.0470531 0.00433728 0.0499043 -0.0264537 0.0454873 -0.0495679 0.0381491 -0.0222763 0.0300088 -0.0403878 -0.00572597 -0.0706057 -0.0460303 -0.0527021 0.0265464 0.0614688 -0.00573193 0.0238538 0.0490404 -0.0622676 -0.0735384 0.071104 0.0138107 0.0545727 -0.0117455 0.0370825 -0.0476209 -0.0585647 -0.046856 -0.0239062 -0.043219 -0.0701086 -0.00505412 -0.0399914 0.0100919 0.038985 0.056938 -0.0493712 -0.0240904 0.0240279 0.044482 0.0212602 -0.0373174 -0.0554879 -0.0533444 -0.0111575 0.0406092 -0.0609578 0.026582 -0.00516276 -0.0609254 -0.0152642 0.0313452 -0.0252794 -0.00808588 0.0211448 -0.0673357 0.0234766 -0.017143 -0.0374836 -0.0527626 -0.0652911 -0.0391003 -0.0543994 -0.0448011 -0.0468066 0.0542718 -0.0446001 -0.0331815 
0.0201857 0.0426457 -0.033332 -0.0692326 -0.0180805 -0.00507524 -0.0555754 0.0387188 0.0740821 0.0710194 -0.0110615 -0.056381 -0.0162948 -0.0724878 -0.0586487 0.0366834 -0.000307046 -0.0379142 -0.0110309 -0.0369126 0.0541315 0.0168471 0.0109164 -0.0083834 0.00623317 0.0154515 0.0750223 0.0635753 -0.00209306 0.0440318 0.0602564 -0.00953567 -0.0491059 0.0175351 0.0206856 0.0245 -0.0229739 0.020781 -0.0187221 -0.0585254 -0.00595126 -0.0322797 -0.051634 0.0514389 -0.0186377 0.0344201 0.0488691 -0.02556 -0.00841211 -0.0179335 0.0349209 -0.0359191 0.0601359 0.0370422 0.0332758 0.0224271 0.047169 -0.056465 -0.00824897 -0.0756176 0.0378049 -0.0408963 -0.0101556 -0.0338052 0.0205325 -0.0136059 0.00470147 0.020946 -0.0150862 -0.00175978 -0.0157286 -0.0482916 0.068449 0.0534779 -0.00585381 0.0474152 -0.00932403 0.0330535 0.0479739 0.0552255 -0.00226362 -0.015877 0.0566779 -0.0397784 0.0630724 0.0167074 -0.0330948 -0.03587 -0.00768278 0.0106165 -0.0553794 -0.0545199 0.00352958 0.0391305 0.0384912 -0.0120983 -0.0208368 0.0744478 -0.0205099 -0.02526 0.0718142 0.0192329 0.0671798 -0.00923911 -0.00073644 -0.0431824 0.00811203 -0.0461336 0.0751522 -0.0351196 -0.074279 0.00109245 -0.0750027 0.0235478 -0.0476805 0.0478326 -0.061314 0.0134229 -0.0615402 -0.00431907 0.0314053 0.0203013 -0.043162 -0.0492479 0.0189116 0.0680101 0.0141856 -0.0237425 0.0499346 0.0122688 -0.0424752 -0.0468217 0.0109525 0.0305901 0.0183276 0.0356058 0.0110667 -0.068067 -0.0598718 -0.0031376 -0.0412438 -0.0368345 -0.0610543 -0.0546561 -0.00241463 -0.0298101 -0.0207706 0.0152906 -0.0181865 -0.0394511 0.00674285 -0.0445153 0.00108394 0.00725254 0.0569424 0.0196954 -0.0400622 0.073496 0.0219714 -0.0120436 -0.0104772 0.0701089 0.0427611 -0.0169443 0.035693 0.0512972 0.0189985 -0.0541154 0.0518546 0.029132 -0.0340339 -0.0186968 0.0472363 -0.0546527 0.0754424 -0.000861421 -0.0753702 -0.00805089 0.0350931 0.0276394 0.0751146 0.0238978 0.0520431 -0.0582868 -0.000781483 0.00523548 -0.0311016 0.0706839 0.0196809 -0.000820352 0.0383835 -0.0133518 0.070229 0.0573853 0.0105717 -0.024424 -0.0123751 -0.0533348 -0.0239706 -0.0541546 -0.0438452 -0.0513407 -0.0533059 -0.010745 0.0529158 0.0203282 -0.00558367 0.0430924 0.0322618 -0.0565389 0.00527791 0.0205789 0.0483322 0.0459392 0.0578837 -0.0134451 0.0510659 0.0667892 -0.00770548 -0.0756016 0.0742786 -0.0536847 0.0338965 -0.0430531 0.00557402 -0.0338576 0.0547658 -0.0130221 0.0127685 0.0485898 -0.0140471 0.0224666 -0.00338187 -0.0698558 -0.0206231 -0.0273603 -0.0453341 -0.0452224 0.0134887 -0.031588 -0.0260295 0.0272256 -0.00726536 0.0236778 0.0136835 -0.0298337 -0.0374486 0.0252396 0.0212362 -0.0432686 -0.00969928 -0.0461462 0.0752137 0.0618976 0.0022243 -0.0205099 
0.0679124 0.00711846 -0.0396954 0.0465636 -0.0401027 0.0137359 0.0406217 -0.0321629 0.0609321 0.0577093 -0.0293507 -0.0495154 -0.0167758 0.0611466 0.0732645 -0.0198094 -0.0391363 0.0364394 -0.0252268 -0.0288262 0.0122338 0.0295412 0.0543539 -0.052163 0.0696007 0.0119947 -0.0519616 0.0649276 0.0736753 0.0626988 0.0139897 0.00360704 0.00416884 0.00322261 -0.0458962 0.0246187 0.0447812 -0.0506235 -0.0422528 -0.00468813 -0.0699145 -0.0567336 0.0553716 0.022664 0.0112406 0.0677882 0.0127383 -0.0543029 0.0688335 -0.00439719 0.0405364 0.00103667 -0.0557685 -0.0286164 0.0149311 0.0745091 -0.0559736 -0.0450352 -0.00339014 -0.0213595 -0.0426326 -0.0617802 0.0433575 0.038748 0.0218955 -0.0730368 0.034075 -0.0393924 0.00763293 -0.0322096 0.0614115 -0.0529495 0.0692418 -0.0216176 0.0237524 -0.00258871 0.0517561 0.0614687 0.0210512 0.042034 0.0192604 0.0372111 -0.0652854 0.0405584 0.0210988 -0.0542967 -0.0422043 0.0296726 -0.00378182 -0.000296104 -0.0393853 0.0491681 0.0645967 -0.0707452 0.0312315 -0.0638011 -0.00966893 -0.071519 -0.00865545 -0.0389633 -0.00440677 0.0316285 0.0198555 -0.0127177 -0.0705968 0.0103658 0.00930912 -0.0306061 0.0232886 -0.0725324 0.0171961 -0.0123417 -0.0155792 -0.0473978 0.0613327 0.0289723 0.0101529 -0.0228897 0.00918555 0.014986 0.03045 0.0233204 -0.0510522 -0.0678847 -0.0579397 -0.0107358 -0.0319903 -0.0505422 0.0283763 0.0184801 -0.0706906 -0.011689 -0.0523795 -0.027598 -0.0522255 0.0162967 0.0313805 -0.0379965 0.0546835 0.0271529 -0.074845 0.0327558 0.0158607 0.0207058 -0.00407672 0.0331242 0.0653847 0.0621192 0.0672461 0.0426316 -0.0420074 0.0500773 0.0237702 0.0123481 -0.00518073 0.010481 -0.0648609 -0.0751249 0.0260623 0.0716391 -0.037419 -0.0137973 -0.0567022 0.0489164 -0.0315491 -0.0293788 -0.0551659 -0.0354812 -0.0740517 0.0513742 0.00829259 -0.0140005 0.0317905 0.0102123 -0.0153121 -0.0474164 0.0223307 -0.050344 -0.0316547 -0.0493049 -0.0606491 0.0614251 -0.0606355 0.0236946 0.0688022 -0.0677416 0.0613582 0.00686442 -0.0732476 0.0250372 0.0738301 -0.0543132 -0.00114027 0.0198426 -0.0482822 -0.0151368 -0.0238825 0.0650494 -0.00753949 0.0676817 -0.00104721 -0.0585829 -0.0618861 0.0711007 0.011122 -0.00361381 -0.0276145 -0.0352117 -0.025429 -0.0435716 0.0399786 -0.0557281 0.0167366 -0.051407 -0.060617 -0.0740899 -0.0274154 -0.0148065 -0.0381577 0.065143 -0.00292365 -0.051548 -0.0364269 -0.0413432 -0.00522236 -0.0245733 0.0169763 0.0637779 0.0160279 0.0257254 -0.00673463 0.0202507 0.0341819 0.0671739 -0.0698471 0.0507556 0.019967 -0.0120416 0.0720009 0.04413 -0.0318686 -0.00556623 0.0468849 0.0404211 0.014855 0.0325025 -0.0443648 0.0450984 0.052189 0.0452339 -0.049667 -0.0170959 -0.00160247 0.0617747 0.00571602 -0.0218703 
-0.00410516 -0.0403554 -0.0595771 0.0456155 -0.0222809 -0.0689999 -0.0565731 0.061631 -0.0577862 0.00765016 0.0159317 -0.0405355 -0.035108 0.0101211 -0.0240203 -0.0445418 -0.0662695 0.0725584 0.0281594 -0.0650228 0.0449691 -0.0457291 0.0384842 -0.0686679 0.0724497 -0.0711111 -0.047345 0.0163375 -0.050417 -0.0640073 0.0398035 0.051388 0.00325081 -0.0586381 0.0584402 -0.0701167 0.0465249 0.0340557 0.00764452 0.0110752 0.0576934 -0.015641 -0.0700221 -0.0291297 -0.0156027 0.057713 0.0637225 0.0687171 0.0648968 0.0248517 0.0175186 0.0433618 -0.0557761 -0.0132285 0.0604505 0.0212897 0.024264 -0.0268882 0.0406222 -0.0592849 -0.0526073 -0.0184195 0.00133072 0.0531953 0.0377738 -0.0555367 0.0646124 -0.0494103 -0.0713276 -0.0404493 -0.0261881 0.000630465 -0.0713496 -0.0184563 -0.0586834 -0.0495768 0.0611583 -0.0605984 -0.0561874 -0.0273925 0.00811418 -0.00412644 -0.0307003 0.00358212 0.0340109 0.0175773 0.0292292 -0.0512274 -0.0320104 0.00466164 -0.0210882 0.0481594 -0.0346538 0.0193219 -0.0177996 0.0231657 0.0667627 0.0459866 -0.0277246 -0.0366501 0.020542 0.0068431 0.0509378 -0.0724299 0.0359294 0.0538377 -0.0399204 0.0733409 -0.0663492 0.062229 -0.0585127 0.071879 0.0581023 -0.0672352 -0.0431347 0.0304459 0.0563796 -0.0552247 0.0136388 -0.0378912 -0.0127403 0.0605513 0.0158691 -0.0444662 0.0369198 0.0732532 -0.0341874 -0.0134882 0.0216278 -0.0251064 -0.00445362 -0.0203731 -0.0387444 0.0648362 -0.0346905 -0.0368047 0.0398115 -0.0101784 -0.0197831 -0.0241837 0.0710501 -0.0326119 -0.0047001 -0.072391 -0.0529417 -0.068051 -0.0550323 0.0426304 -0.0123565 0.0379823 -0.0382969 0.0309649 0.0292421 0.00173616 -0.0721957 0.0710178 0.0061303 -0.0645013 0.0476453 0.0549605 -0.000713252 0.0532806 -0.0552137 -0.0667387 -0.0597934 0.0396456 -0.0566664 -0.00320107 0.0288959 -0.0257458 0.027533 -0.0753143 -0.00337178 -0.0113069 -0.011649 -0.0336095 0.0543993 0.0340407 0.0238457 0.0585842 -0.0178119 -0.0579557 -0.0043504 -0.068116 0.0227875 -0.0451656 0.0460788 0.044268 -0.040336 0.000150311 0.0604734 0.0428223 -0.00546283 0.0374279 0.00807321 -0.0182804 -0.0163944 -0.0169403 0.00639752 -0.0363835 0.0298512 -0.00873463 -0.0737318 -0.00357863 0.0430381 -0.00893494 0.0454103 0.0730721 0.0516722 -0.00798151 -0.0185655 0.0259187 0.00730225 -0.0175304 0.067375 0.0189733 0.0636068 0.0432549 0.0353052 0.0425051 0.0629664 -0.0626817 0.0605974 0.0349188 -0.0269564 -0.0741402 -0.0366712 0.0419561 0.02201 0.0139739 -0.059433 -0.0753866 -0.0461093 0.0744048 -0.0479692 -0.0133351 -0.0703894 0.0184232 -0.0446357 -0.0682342 -0.0587021 -0.0657466 0.035999 0.0254095 0.00364732 0.0410833 0.0156341 -0.00393245 -0.00956318 -0.00018136 -0.018216 0.0752903 0.0134025 -0.0116752 0.0525311 -0.0474746 
0.0488985 0.00580144 0.00713951 0.0493454 0.0643012 -0.0385377 0.052546 0.0147701 0.048099 -0.069318 0.0602305 -0.0113865 -0.0685346 -0.0112137 0.0212594 -0.0219549 0.0529099 -0.0189312 0.0494117 -0.011886 0.0525497 -0.0732439 0.0155588 0.0101506 0.0615886 -0.0469459 0.0729077 -0.0350491 -0.0125522 0.042161 0.00325113 0.0148055 0.0121155 0.00755168 0.0138216 0.00831501 -0.0779165 0.0532491 0.0575575 0.0858862 -0.0166199 -0.0281391 0.0556898 -0.0700352 0.00436801 0.0287671 0.0499106 0.000243908 0.0097207 -0.0562286 -0.0109021 0.0522929 0.0742815 -0.0654662 0.0206508 0.0226435 -0.00788184 -0.0143014 -0.0490148 0.00847884 0.0451131 -0.0253094 0.00580798 -0.0884616 -0.0459004 -0.0733239 -0.0693374 0.0415951 -0.0186761 -0.0561375 0.0611937 0.0540583 0.0430695 0.0589276 -0.0149614 0.00857891 -0.0211942 0.0468796 0.0396452 0.0790814 0.0753069 0.0564406 -0.0457801 0.024943 0.0808506 0.0519711 0.0474309 0.0383558 0.0370294 0.0380673 -0.0252088 -0.0939331 -0.00450705 -0.0836223 -0.0377481 -0.0837426 0.0226859 0.0667574 -0.0294174 0.0416404 0.044404 -0.0768091 0.0270551 -0.0300729 0.0650012 -0.0132846 0.0945611 -0.00972878 -0.025403 0.00198225 -0.0245876 0.0902853 0.0284855 0.0255186 -0.0290329 0.0315814 0.0211193 0.0675991 -0.0585056 -0.0526719 0.0156536 0.0496195 0.00182551 0.0306675 -0.0127758 -0.0113691 0.0182509 -0.0534495 -0.0282546 0.0148457 -0.0452841 0.0893654 -0.0927129 0.0633183 -0.0196189 -0.0497768 -0.0526469 0.0401509 -0.056792 -0.0257271 0.0722401 -0.000177966 -0.0301887 -0.0683218 0.061163 -0.0534749 0.0443153 0.0727583 -0.0574173 0.00571649 -0.0212541 0.0412886 -0.00292969 0.0863932 0.00610351 0.0704187 0.0403042 0.00541858 0.0884667 -0.0338591 0.00359167 0.00421136 -0.0114602 0.0154059 0.0242033 -0.00723713 0.00647855 0.0642711 0.046941 0.0536124 0.0213497 -0.0468863 6.67407e-05 -0.0888215 0.0520127 -0.0269247 -0.0510601 -0.0107618 0.0197175 0.0468945 0.0152335 -0.00265769 -0.00942349 0.00280231 0.027848 -0.0239028 -0.0480928 -0.0932816 -0.0681958 0.0554212 -0.0749429 -0.00739154 -0.0106452 0.00125443 -0.0609122 0.0271772 -0.0606083 -0.00377994 0.0135487 -0.0673336 -0.0354469 -0.0700699 0.0544601 -0.0484883 -0.0723686 0.0742601 -0.0215072 -0.0240234 -0.00905871 -0.072348 -0.0204469 -0.0740295 0.0599215 -0.0908954 0.0445773 0.0074575 0.057419 -0.0537345 -0.0129653 -0.00544703 -0.0515221 -0.037818 -0.0185281 0.0247395 0.0573523 0.0217699 -0.0733718 0.0770487 -0.065438 0.0295742 -0.0132399 0.0380288 0.0681326 -0.0306757 -0.0732834 0.056912 0.00134602 0.0282309 -0.0102028 -0.0400609 -0.0558983 0.0351711 -0.00787714 0.0107942 0.0476259 0.0232868 0.0747082 0.0261177 -0.0594228 0.0404675 0.00791049 -0.0290567 -0.0534561 0.00534772 -0.0495213 0.0454968 
0.0359821 0.0114784 -0.0199168 0.0164193 -0.0404915 -0.074125 0.0546816 0.0720644 -0.0310633 0.0747617 0.0281787 0.000712209 -0.0355273 -0.073879 0.0659082 0.0182718 0.0836592 -0.0531907 0.047523 0.0376235 0.0379342 -0.0159947 -0.0712606 0.0143741 0.0721908 -0.0750278 -0.0168107 -0.031985 0.0877554 0.00667141 0.075552 0.00389754 -0.0193858 -0.0427657 -0.0256384 0.0397668 -0.0535132 -0.0223779 0.0747777 0.0710302 0.0103777 0.0600118 -0.0433897 -0.0277846 0.00523835 0.00533508 -0.00185336 0.0269843 -0.0439426 -0.0551003 -0.0372789 -0.0941822 -0.0235009 -0.0712279 -0.0926102 -0.0477485 -0.0293774 0.105455 -0.0851717 0.00576655 -0.08914 -0.0175993 -0.0544176 -0.0160941 -0.0620326 -0.0475357 0.0411807 -0.0617317 -0.0427143 0.0675539 0.0207117 0.0058002 -0.060943 -0.0731245 0.0317736 0.0729675 0.0615757 -0.038337 -0.0569408 0.0708768 -0.0617645 -0.100895 0.0229008 -0.074679 0.0154407 -0.0167995 0.0417885 0.0251103 -0.0621651 -0.0498377 -0.0241499 -0.0308426 0.00380829 -0.0911473 0.0247472 -0.101859 -0.0212968 -0.0114642 -0.0155562 0.0015011 -0.0727929 -0.0211467 -0.0985032 0.0287845 -0.0530568 -0.0898085 0.0884217 -0.0409708 0.031849 0.0236168 0.0283574 -0.00770575 0.0701245 0.0287089 0.0481148 -0.0498177 0.0250385 0.0373407 -0.0385096 0.047951 -0.00416051 0.00162271 0.00519232 -0.0284563 0.0392451 -0.0474314 -0.0381506 -0.0345322 -0.0630443 -0.0068049 -0.0906668 0.0598313 -0.0773532 -0.0389359 -0.0639393 0.0750919 -0.0255302 0.0535783 0.0446401 -0.0404812 -0.0356775 -0.0742573 -0.0597993 0.0340714 -0.0518333 0.0471931 -0.00794512 0.0303932 0.0342865 -0.0546055 0.0783773 0.0322125 -0.0217047 -0.0441025 0.0358836 -0.0244486 0.0795828 0.0519959 0.102543 -0.0491111 0.0721053 -0.0699704 0.0628178 -0.0396124 -0.0203654 0.0427262 0.0252369 -0.0390828 0.0249068 -0.0559792 -0.0913778 0.0638707 0.0324745 -0.0752806 0.0298178 0.014704 0.00159337 0.00277819 -0.0922875 -0.0223418 -0.0196314 0.00478404 0.104028 -0.0641336 -0.0111708 -0.0660019 -0.0258131 -0.0201959 -0.0404796 0.00260103 -0.0890028 -0.063818 0.00679301 -0.00726923 -0.0800922 0.0555449 -0.0322142 -0.0572947 0.0313726 -0.0612711 0.0292287 -0.0992324 0.0139403 0.0368215 -0.0505986 -0.0220894 0.031405 0.0441585 -0.0346047 -0.0554241 0.053492 -0.095523 0.0235729 0.0208364 0.0654908 0.0419093 -0.00370549 -0.0292338 -0.0349771 0.041167 -0.0891548 -0.0921758 0.0155904 -0.0380094 -0.0107247 0.000133858 -0.0207378 0.027139 0.0451973 -0.0930364 0.0548425 0.0729051 0.0211055 0.0654511 0.0476859 -0.0463482 -0.0420145 -0.0740196 -0.0259054 0.0398944 0.0306211 -0.0599977 -0.0549284 0.0182343 -0.0388572 0.0587093 -0.00984686 -0.000893481 -0.0323109 -0.0570305 -0.00895057 0.0386378 -0.0518692 0.0212151 -0.038617 -0.0376083 
0.0553276 0.0442735 0.00636205 -0.0697834 -0.0151983 -0.0222475 -0.00929938 0.0479279 -0.103908 0.0871333 -0.0545168 0.0283434 -0.0452809 -0.0183776 0.077132 -0.0294136 0.0297725 0.0257372 0.0497331 -0.00899537 -0.0809317 -0.0434722 0.067002 0.0045346 -0.0746014 -0.0941847 0.0591666 -0.0143334 0.0426519 -0.00679188 -0.0703807 0.0379821 -0.0120312 -0.0809392 -0.00520118 0.036194 -0.102066 -0.0170954 -0.00298793 0.0553905 0.0504718 0.00505584 0.0792284 0.0433766 -0.0513871 0.00858961 0.0246194 -0.0483335 0.0324981 0.0325671 -0.0600872 0.0570345 0.0307988 0.027197 -0.0623439 -0.0185979 -0.00125567 -0.0253158 -0.0157199 0.0091095 0.0195448 0.011305 -0.032349 -0.0952245 0.0460238 -0.0677003 0.00825425 -0.0146622 0.0947332 -0.0720316 -0.0828782 0.0969715 0.0605542 -0.028015 -0.0794398 0.00107725 -0.0142739 -0.108673 -0.0503937 -0.0148007 -0.0397814 0.0445611 -0.0112545 0.078367 0.0257399 0.029763 0.0214373 -0.016269 -0.0264423 0.00724939 -0.0873619 -0.0108268 -0.00462587 -0.0567243 -0.0302907 -0.0418637 -0.0310935 0.0427866 -0.0262744 -0.00429667 0.00855437 0.0425846 -0.00402727 0.0347885 -0.0642389 -0.0304703 1.78212e-05 -0.0393411 0.0747025 -0.10325 -0.0578032 0.1031 0.0764794 -0.0270126 0.0895369 -0.0600052 0.0697305 0.00514208 -0.0405487 -0.0337116 -0.0290178 -0.0688691 0.0391297 0.0243498 0.0695407 -0.0230158 -0.0589463 -0.019071 -0.0620399 -0.0809998 -0.0345884 0.0804196 -0.0757577 -0.0719511 -0.0456549 -0.0230342 -0.0114869 0.0518918 0.00381554 0.0457002 0.00747432 -0.0147731 -0.0951094 -0.0679035 0.00875364 0.0612247 -0.0137284 0.0285007 -0.0127187 0.0463227 0.0188996 -0.0151434 -0.0643954 0.088561 -0.0435829 -0.0234913 0.0305796 0.0941835 0.101376 -0.0212676 -0.00848281 -0.00406662 0.0199046 0.0538056 0.0513743 0.0597977 -0.00328595 -0.0410218 0.012632 -0.0446011 0.0408897 -0.0177714 0.0061365 0.0280675 0.052654 0.0532538 0.00163328 -0.00802697 -0.0867111 0.0278568 -0.0794793 -0.021611 0.0684266 0.0599502 0.106396 -0.0126448 0.0112735 -0.0557705 0.0446181 0.0674177 -0.0287573 0.0204458 -0.0323172 -0.00275694 -0.00663188 0.014384 -0.0578683 0.0548604 0.000102648 0.0296172 -0.00819136 -0.0820476 -0.0682525 0.045207 0.0736575 0.0860773 -0.0317401 0.0342566 0.0485641 -0.0274342 0.000456022 -0.00461386 0.0127065 -0.0980846 0.0740665 -0.0694251 0.0761179 -0.0534047 0.0433128 -0.0155914 -0.0311443 -0.0917423 0.00958017 0.113058 -0.0137392 -0.0477422 -0.0673315 0.0943961 0.0357354 -0.00344412 -0.0079391 -0.027919 -0.0487922 -0.0268305 -0.000689792 0.0423938 0.0182759 -0.0387647 0.00158807 0.0131736 -0.0391638 -0.061067 0.0519655 -0.0247022 -0.00259919 -0.0184944 -0.0486358 0.0305939 -0.075086 -0.10159 0.00025068 -0.0716745 -0.0256449 0.0633704 -0.0205134 0.0445335 
-0.0109872 0.0700394 0.0206402 0.0235976 -0.0199628 -0.00504653 0.0386326 0.0623213 -0.103115 -0.0580554 -0.00467391 0.069056 0.0400625 -0.0694137 -0.0328139 0.0252904 -0.0334238 0.0403692 0.00994196 -0.0309744 -0.0223582 0.0412478 0.0770513 0.0607665 0.0572181 -0.0458573 -0.0350214 0.100661 0.0948802 0.0336906 0.0471153 -0.028666 -0.00970565 -0.0983255 0.0274265 -0.0680852 -0.0671425 0.00958936 -0.00448037 0.0639337 0.018474 -0.0751792 0.0336866 0.0172478 -0.114808 0.0708449 -0.0754591 -0.002702 0.0750061 -0.0622558 -0.00664911 0.0632853 0.118872 -0.0722715 -0.0143857 -0.0208408 -0.0880904 -0.0296548 0.0116506 0.0454776 0.0127344 0.0206203 -0.0143812 -0.047089 0.0309525 -0.0735382 -0.00292971 0.00608149 0.0904571 0.0309776 0.00863763 0.0528749 -0.0409465 0.00443511 -0.012126 0.0323098 -0.0567317 -0.112666 -0.0535346 0.000259398 -0.0375665 -0.0458019 -0.0282721 0.0350073 -0.00748867 0.0169538 -0.0147793 -0.0816716 -0.0367116 0.0234015 -0.0253767 -0.0237055 -0.0117728 -0.0536306 -0.0830772 -0.129022 0.0374918 -0.020242 -0.0838829 -0.0272008 0.0199835 0.045198 0.0270913 0.00933627 -0.00688459 -0.0895871 -0.0121827 0.0714824 -0.0293042 -0.0403129 -0.0151014 -0.00388994 -0.0151786 -0.0565902 0.0389121 -0.0899863 0.0367781 0.00204486 -0.103195 0.0212399 -0.0597806 -0.0669456 -0.0366606 0.0303707 0.118169 -0.0467618 -0.0706921 -0.0549379 0.0457446 -0.0538764 -0.0617924 0.0286206 -0.0611369 -0.0434898 -0.0271535 -0.038557 0.102983 -0.0381927 -0.0387804 0.0249993 -0.0360466 -0.0687584 0.00172918 0.0216084 -0.0665957 0.0662756 0.0631204 -0.044719 0.0462459 0.0529409 0.0066119 0.0842479 -0.00787624 -0.00141649 -0.0630736 -0.075728 0.0342042 0.0445096 0.138418 -0.0344017 -0.0256316 0.0442522 -0.0462877 -0.0305608 0.046669 0.00103342 -0.0428728 0.0116943 -0.00733751 -0.026249 0.0771499 -0.0739971 -0.0181446 -0.0294982 0.0583098 0.0317126 0.09169 -0.0688004 0.037867 -0.0185469 -0.0371243 -0.0950355 0.102181 0.0129643 0.0449277 0.0152942 -0.00735706 0.0253839 0.073877 -0.00476976 -0.0901281 -0.0574539 0.068786 0.0277628 0.050396 0.126997 -0.0276169 -0.0595462 0.0309726 -0.0109586 -0.0736741 0.0578139 0.040704 0.0596555 -0.0045742 0.0888768 -0.0233774 -0.0026339 0.0334618 -0.0535143 -0.0698822 0.0254386 -0.041801 0.0524259 -0.000297757 0.0122632 0.0421382 -0.0313475 -0.0780989 0.0151667 -0.0743857 -0.0933969 -0.00563119 0.0181437 -0.0633117 -0.00703989 0.0112504 0.102177 0.0498897 0.0482908 0.0195298 4.83074e-05 -0.0314503 0.113824 0.00194897 0.071968 -0.0153579 -0.0553791 -0.057009 -0.062786 -0.0322592 -0.0914868 0.0130657 0.0709817 -0.0668128 0.0745573 -0.0519662 -0.0306073 -0.0343466 -0.00114528 -0.091853 -0.0533965 0.0439492 0.0605171 -0.0268093 0.105524 
