0.070431 0.00578742 0.0754722 0.0151117 -0.0599551 0.0100426 0.0751625 0.0713584 -0.0462481 -0.0393848 0.0286868 -0.0079289 -0.0329862 -0.00172132 -0.0633432 0.0388947 -0.0404731 0.0256766 0.0279275 -0.060652 0.0519138 0.000903048 0.0627682 0.00324285 -0.0453021 -0.0163917 -0.0592915 -0.0644726 -0.0214415 -0.0365967 -0.0437662 -0.0605961 0.0738411 0.0291304 -0.0578962 -0.0688884 -0.029897 -0.0147933 0.0288886 -0.0273268 0.00137576 -0.0228749 -0.0277167 -0.0748151 0.0100773 -0.0430698 -0.0684045 -0.00601165 0.0552311 0.0331239 0.029307 -0.0215057 0.0275926 -0.013465 -0.0656166 0.0624654 -0.0522388 0.0670286 -0.0019736 0.00419913 0.0453051 0.0646792 -0.0281122 -0.0470719 0.059063 -0.0180303 0.0682499 0.0157312 0.024442 0.034477 -0.0480801 -0.0344456 0.0211504 -0.0481761 0.012082 -0.00148528 -0.0306726 0.00245285 -0.071798 -0.0455285 -0.0300671 -0.0432508 0.0464817 -3.5909e-05 -0.0554264 0.00922354 0.0425533 -0.0182314 -0.0362866 -0.0135334 -0.0707558 0.0297832 -0.0408265 -0.0268087 -0.0571802 -0.0703216 0.0397876 -0.0158283 0.0154901 -0.0282218 -0.0418291 -0.0270969 -0.0752651 0.0566098 0.0752234 0.0171221 0.0690982 0.0662167 0.00518034 -0.0107096 0.00454226 -0.0622837 0.00305112 -0.0632804 0.0413185 0.0436797 0.0410947 -0.0670704 -0.0373513 0.0677375 -0.0231867 0.00784346 0.0229079 -0.0506001 0.0539245 -0.026906 0.0093577 0.0480473 0.0629412 -0.0535013 0.0474224 -0.0507512 0.0390414 -0.0482032 -0.0265485 0.0259586 -0.0432771 -0.0251903 -0.0607954 0.0498353 0.00680821 0.0726079 -0.0296387 0.0109402 -0.0657623 -0.0484348 0.00386697 -0.0664714 -0.0531751 0.020314 -0.0500339 -0.0251105 0.00109508 0.0358901 -0.0122391 -0.0205537 -0.0394568 -0.0377629 -0.0187648 0.00211058 0.0545938 -0.0620737 0.00653752 -0.0232355 -0.0182278 0.0609231 0.0382043 0.0479034 0.0741059 -0.0105265 -0.0386211 0.0130138 0.0283261 -0.027758 -0.035876 -0.0693139 0.0507746 -0.0526513 0.0233447 -0.0758476 -0.0487866 0.0609475 -0.0275676 -0.0741835 0.015521 -0.0222331 -0.0277232 0.0162221 -0.02922 -0.0669869 0.00557939 -0.0279181 0.0137887 -0.0374185 0.051184 0.0463229 -0.0671649 -0.0680295 -0.0729779 0.0290754 0.0295823 0.0305486 0.00494125 0.0200117 0.0224999 0.0486054 -0.0169117 -0.0165378 -0.0336742 -0.0750222 -0.0143489 0.0325051 -0.0333785 0.0353224 -0.0703193 -0.0573531 -0.0335652 -0.0550449 0.011139 0.0512686 0.0151182 -0.0739469 -0.0393216 0.0459528 -0.0184483 -0.0510321 0.0553338 0.0485761 -0.0214389 0.0402139 0.0205578 0.0393354 -0.0517465 0.0449568 0.0481192 -0.0273089 -0.00875356 0.0331589 -0.0101994 -0.000400272 -0.0383752 -0.0242074 -0.0341027 -0.0699866 0.0341757 -0.0714986 0.04842 -0.0387223 0.0453526 -0.0398703 -0.0427694 -0.0284796 0.0255619 -0.0385074 -0.0369789 0.0283255 
0.0274664 0.00767723 0.0465919 -0.0503702 0.00639576 -0.0159902 0.0161891 -0.075411 0.0264101 -0.0614688 0.0731295 0.0311258 0.0109347 0.0664852 -0.0205673 -0.065889 0.0674967 -0.0720829 -0.0614965 -0.0183259 0.0449733 -0.0321559 0.0288519 0.0725229 0.0234297 0.00930105 0.00130398 -0.0371145 0.059778 -0.0742387 0.0684122 -0.0600784 0.0219851 -0.0489563 0.0606634 0.0343096 -0.0360635 -0.0585615 -0.00257708 0.0276662 0.0706632 0.0550219 -0.0698978 0.00334965 -0.071057 0.0437902 -0.0525207 -0.0426552 0.0247565 0.0360649 -0.0162017 -0.0634606 0.0672019 -0.0626418 0.0445333 0.0409436 -0.0207061 0.041261 0.00858993 -0.0297397 -0.00365597 0.0175097 0.0121762 -0.0432948 -0.0542829 -0.0388988 0.0736411 -0.0313711 -0.00467419 0.0230083 -0.0161389 -0.0504084 -0.0614969 -0.0560444 -0.0479759 -0.00498366 -0.0690499 0.0427021 0.017528 0.0418473 0.0436734 0.0697448 -0.0568868 -0.0104504 -0.00384201 0.0377044 -0.00348757 -0.0238438 -0.0106633 0.0268004 0.0701001 0.0658809 -0.0602048 -0.0758302 0.0506868 0.0116188 0.0206571 -0.00505872 -0.0118907 0.0156438 -0.00891448 -0.0639469 0.0518926 -0.0105556 0.0558134 0.0410902 0.0133876 -0.049232 -0.0609364 -0.0566616 -0.0174358 -0.0585198 -0.0201929 0.0111832 -0.0192113 -0.0571676 -0.070329 -0.0249601 -0.0293051 0.0180523 0.0553197 0.0198286 0.0489282 0.070656 -0.064411 0.0580065 0.0667232 0.0566152 0.05034 0.0325132 0.0509998 0.033344 -0.0200153 -0.0218016 0.0124291 0.016537 0.0237007 -0.0730498 -0.0018429 -0.0352797 -0.0730702 -0.00577862 -0.00452516 0.0446692 -0.00120734 -0.0632403 -0.0604324 -0.0406123 0.0748043 -0.0554517 -0.0594414 -0.053654 -0.0684153 0.00711263 -0.0519344 0.0749774 0.0256908 0.00437207 -0.0368786 -0.063794 -0.000908671 0.0436347 0.0312606 0.066967 0.0260093 -0.00769331 -0.0330905 -0.0219774 0.0334615 -0.026838 0.0420349 -0.0554603 -0.0212722 -0.0643523 0.0305987 -0.0124986 -0.0274939 -0.0156343 0.0239212 0.0082667 -0.0723351 -0.071719 0.070712 -0.0426156 -0.0202267 0.0211598 -0.0675158 0.00344578 -0.0227539 -0.0326182 -0.0669701 0.0144387 -0.0403705 0.0263274 0.00654376 0.0267856 -0.041308 -0.0631714 0.0654671 0.0700929 -0.00545082 0.0710156 0.0744198 0.0448593 -0.0146463 0.0118707 -0.048009 -0.0724941 -0.0316663 0.0281628 0.000431802 -0.0412043 0.0541252 0.00699396 -0.0119923 0.0105846 -0.0506215 0.0543639 -0.0397916 -0.0109072 0.054791 0.0220558 0.0117347 0.029447 0.0230548 0.0617773 -0.0112322 -0.0717244 -0.0127963 -0.0665101 -0.0147584 -0.051773 0.0673989 0.0715049 0.0436456 -0.0390764 -0.0248255 0.0717888 0.0394587 -0.0614172 0.01839 0.0619163 0.0213469 0.0345371 -0.000412167 0.0140403 -0.0664597 0.064948 -0.00414953 -0.00718891 -0.0298566 -0.0265818 -0.026207 0.0489649 -0.0579639 0.0732057 
0.0117566 0.0485716 0.0692528 0.0640821 -0.0046462 0.0494533 -0.0215119 -0.00224873 -0.0207912 0.0130867 -0.0106475 -0.0226075 0.0293333 0.05562 -0.055436 -0.0369642 0.0212324 0.0357695 0.0223742 -0.00448015 -0.0170235 -0.0048035 0.0721239 0.0483216 -0.0156542 0.0570855 0.0149819 -0.0303309 -0.0410984 -0.0386234 -0.00138764 0.00204918 0.0151841 -0.0555436 0.0163512 -0.0122673 0.00856462 -0.0299669 0.0697389 0.00674515 0.0371724 -0.0180296 0.0369827 0.064447 -0.0713604 0.0563006 0.017668 -0.0110425 -0.0142093 0.0345067 0.0549711 -0.0321241 -0.0613496 0.0243748 0.0487152 0.0733939 -0.0585189 -0.03042 0.062144 -0.0743074 -0.0299429 0.0408958 -0.0483503 0.00760578 -0.0146398 0.0360259 0.0193123 0.00111579 0.0333915 -0.0585972 -0.0391593 -0.0484369 0.0709421 0.045936 -0.00267906 -0.0496696 -0.0748464 0.0707338 0.0501035 0.0625275 0.0639882 0.0387686 0.0169796 -0.0652466 0.0148328 -0.0419457 -0.0696875 0.0353511 -0.0321817 0.018768 0.0064988 -0.0578305 -0.00721267 -0.0558356 -0.0109355 -0.0467876 0.030679 0.0286207 -0.00118271 -0.0266847 0.0628063 0.0529798 -0.0376286 0.0145898 -0.00468003 -0.00841404 -0.0519377 0.0122321 0.0318231 -0.0342247 0.0123563 0.0141533 0.0238237 -0.0732818 -0.0640773 0.0172981 0.0618063 0.0309659 0.0588295 -0.0643652 0.0119547 0.0685703 0.0264008 -0.0633076 0.0581746 -0.0158996 -0.0175828 0.0239632 0.00402702 0.067111 0.0394355 0.0629121 -0.0674391 0.00996986 0.0387601 -0.0265209 -0.0526095 -0.0613065 -0.0244096 0.0253113 0.0689022 0.0513871 0.00557166 0.0313547 0.0135828 0.00137122 -0.0201442 0.0473112 0.0431134 0.0132129 -0.0362669 0.0663351 -0.0227256 -0.0487529 0.0482386 0.0245902 0.0243514 -0.00916297 -0.0142252 0.058947 0.0420451 -0.0459046 -0.0114316 0.0685294 -0.0429913 0.0228129 -0.0618381 0.00299684 -0.0282875 -0.0733937 0.0259253 0.0118819 0.0115485 -0.0151588 0.0170529 0.0281263 0.0253065 -0.0546009 -0.0434281 0.037845 -0.0339639 0.0623617 0.0544607 -0.0522973 -0.0746064 0.0616362 -0.0706103 0.0356251 -0.0636154 0.0262245 -0.0655747 0.0555776 0.0233212 -0.0739472 -0.0736282 0.0651354 -0.0438667 -0.0552049 -0.014282 -0.0497668 0.0154327 0.0609336 -0.06873 -0.0515475 -0.0290249 -0.0279936 0.0115857 -0.0351559 -0.0163942 -0.0312488 -0.0712113 -0.0577357 0.0495481 -0.0565418 -0.0343165 0.0156614 0.0107692 -0.0672219 -0.0293548 0.0535386 -0.0126291 0.0161862 0.0681598 0.0438232 -0.0285466 0.0557304 0.0733312 0.0351607 -0.0104083 0.0680785 -0.0703111 0.0747513 0.0748791 0.00841026 0.0738127 0.0633661 0.00245499 0.00699976 0.0476878 -0.0645509 -0.0213886 0.0407553 0.0733383 -0.0282387 -0.0431957 -0.00972411 0.0404665 -0.0142533 -0.00419946 0.0230738 -0.00491547 -0.043851 -0.0366721 -0.0706961 0.0598661 -0.0274886 
-0.0236263 0.024477 -0.0753323 -0.0039863 0.00470654 -0.0446308 -0.0282787 0.00984927 -0.0703362 0.0693553 -0.0272103 0.0548781 -0.0494097 -0.0712907 -0.0346021 0.0255795 0.0671778 -0.0702488 -0.045565 -0.0702182 -0.0356975 -0.0105354 -0.0222847 -0.0545196 0.0715449 -0.00667028 -0.0137232 -0.0152555 0.00766838 0.0118972 -0.0408329 -0.0531535 -0.0591884 0.00830854 0.0254965 -0.0286371 -0.0201643 0.069308 -0.0713016 -0.0227819 0.0721901 0.0615219 0.0729371 0.0564109 0.0103683 0.00420254 -0.0136791 0.0720639 0.0601726 0.0344241 -0.0341077 -0.0343414 0.0135012 -0.00901063 0.0592391 0.00981427 0.0303468 0.0352216 0.0620851 -0.0734877 0.0498759 0.0260741 -0.0232728 0.0294047 0.0682174 -0.06502 0.0273365 0.0709053 0.063654 -0.010688 -0.0222358 0.074893 0.0339414 -0.0285519 0.0665698 0.0508917 0.0555156 0.0647679 0.0104554 -0.0277937 -0.0596502 -0.0367264 -0.0659362 -0.0272223 0.0491826 0.0731162 0.00210229 -0.00233958 0.024004 -0.0291423 0.0164011 0.0751103 -0.0387811 0.0285392 -0.0648604 0.0544437 0.0148192 0.00433389 -0.0430582 -0.058064 -0.0456795 -0.0291464 0.0589716 -0.039553 -0.000256566 -0.0168033 0.0668225 -0.0331781 0.014185 -0.0159573 0.0100778 0.0309571 -0.019484 -0.0536459 0.00901402 -0.0330893 -0.0620062 0.00213257 -0.00736244 -0.00325287 -0.0218419 -0.0277897 -0.0359291 -0.0208116 0.0159184 -0.00155516 -0.0662095 -0.0261325 -0.0574231 0.0556772 0.0556852 0.0405965 0.0676934 -0.0217643 0.00503486 -0.0100072 -0.0380196 -0.0465577 -0.0731218 0.040041 0.0727363 0.0391358 -0.0237722 0.0152598 -0.0744547 -0.037096 0.059187 -0.0708055 0.0288646 0.0550273 -0.0746524 -0.0519009 -0.00193042 0.0517384 0.0120692 -0.0441869 -0.0282769 -0.0393991 -0.0227117 0.0323101 -0.0376387 -0.0644729 0.0505054 0.0511077 0.0102931 0.0498795 0.0115257 -0.0118526 0.0556748 0.0746146 -0.0172883 0.0107495 -0.00677886 0.0143009 -0.0353638 0.0188431 -0.0643702 0.0472977 0.0499136 -0.0693105 -0.0488434 0.067976 0.0107574 0.00749554 0.000822603 -0.065165 0.0420207 0.0211576 -0.0555699 0.0108567 0.0487878 -0.0362686 -0.0501544 -0.0703539 0.0728278 -0.000381397 0.0287852 0.0452819 0.0530718 -0.0192479 0.00118973 0.0226391 0.0681128 -0.0739293 0.0453581 -0.0375255 -0.0225732 0.0227071 0.0396678 -0.00385167 -0.0586668 -0.0312146 0.0386322 0.00419891 -0.0136895 0.0454626 -0.0204947 -0.0308814 -0.0375264 0.0711707 -0.068684 -0.0294559 0.0471535 0.00863519 0.0686761 -0.0589622 -0.0712348 0.0130032 0.00748106 -0.00263129 -0.0658101 -0.0397438 -0.00107658 0.0174794 0.00758987 -0.0020714 -0.00995861 0.0089837 0.0741831 0.000897601 -0.0722824 0.0291262 -0.0368064 -0.0430425 -0.000564144 -0.0311457 0.00830707 -0.0603616 -0.0529218 -0.000447121 -0.0104311 0.0633152 0.0547663 -0.0553543 -0.0431504 0.0248621 
-0.0572546 0.0238352 -0.0616029 -0.0144717 0.0436509 -0.011631 0.038154 0.0521575 -0.020222 0.0433259 0.0165536 0.0109472 0.031267 0.0350151 0.0015443 -0.0392013 0.021111 0.0709475 -0.0418458 0.075168 0.0604168 0.0254049 0.0141144 0.0582553 0.0194711 0.0479344 -0.0485653 -0.0163233 -0.0390105 0.0666465 -0.025897 -0.0345593 -0.0445858 -0.0721957 -0.0384912 -0.040916 -0.0164443 -0.00665333 -0.0577961 -0.0398629 0.0307948 -0.0556971 0.0302878 -0.0274046 0.04107 0.0154345 0.0357395 0.0359567 -0.0676551 -0.0468024 -0.0103112 -0.0429128 -0.0758216 0.0572243 0.00872038 -0.0562829 0.0636224 -0.028114 0.0111399 0.0600544 -0.0757247 -0.0214658 -0.0329042 0.0677815 0.0744571 0.0309241 -0.03363 -0.0406046 0.0298461 -0.0133832 -0.0238706 0.0229829 0.0698113 -0.0126619 0.0511737 0.071387 -0.0442553 0.0353698 -0.074208 0.05634 0.00526593 0.0333263 -0.0572582 0.0407914 -0.0756806 0.0408271 0.0518716 0.0469883 -0.046428 0.0319209 -0.065975 0.0296973 0.00716634 0.0115616 0.0377903 0.0365326 0.0479353 -0.0205748 0.0540719 -0.0155737 0.0269471 -0.00109417 -0.0504304 -0.0314701 0.0264124 -0.0742136 0.00460482 -0.0440171 0.0589634 -0.0488876 -0.059748 0.0704203 -0.067705 -0.0264029 0.0620414 -0.0455119 -0.0621918 -0.0215556 -0.0608782 0.020826 -0.0287088 0.00782184 0.048367 -0.0384613 0.0556973 0.0653423 -0.0598239 -0.0323778 0.0410171 -0.0220627 0.0420233 0.0259817 -0.0695323 -0.048029 -0.020306 -0.0306255 0.0556985 0.0361984 -0.0694684 0.0733311 0.0632063 -0.0602127 0.0208277 -0.0582567 0.0577212 -0.0746077 0.0539308 0.0207381 -0.00146173 -0.0128133 -0.0614653 0.00337135 -0.0201541 -0.0148029 -0.0209361 -0.0284441 -0.0132747 -0.0148701 -0.0693021 0.0460868 -0.0742614 0.0758283 0.0172186 0.0221139 0.048763 -0.0179847 0.00547405 -0.0299867 0.000896339 -0.0237619 0.00153025 -0.0370532 -0.0668934 -0.0263623 -0.0494661 -0.0171272 0.0132816 -0.0344909 0.0378855 -0.064167 -0.0304225 -0.0250082 -0.045071 -0.0574675 -0.0719152 0.0310068 -0.0658404 -0.0348643 0.00546977 -0.0145804 0.00573987 0.0616536 0.0599454 -0.0337686 -0.0230493 -0.0468283 0.057772 0.0583875 -0.035328 -0.0360287 0.0585637 0.0239482 -0.0310098 -0.0546045 0.0138684 -0.0122189 -0.00287314 0.0652544 -0.0356501 0.0479806 -0.0165956 -0.0605301 -0.0145527 0.0229707 0.0434629 0.0666584 0.0346748 0.0476664 0.00578053 0.0130396 0.0279709 0.0223325 -0.0180318 0.0017653 -0.0419165 0.0734992 -0.0183277 -0.0613115 -0.0266671 -0.0710888 0.0642888 -0.0698617 -0.0598444 0.0169808 -0.0157722 -0.016561 -0.0268311 0.0603316 0.0272103 -0.0519699 0.0218749 -0.0314198 -0.0512643 0.0710248 -0.0654199 0.0550812 0.0337768 0.0150441 0.00988253 0.00886232 -0.0594806 -0.0405116 0.00361733 -0.0560938 -0.0579467 -0.0263071 
-0.0505352 0.0234897 0.0543697 -0.00786667 -0.0420006 -0.0705996 0.0555846 -0.0210034 -0.0637541 0.0634051 -0.0742533 0.00916466 -0.0157908 -0.0122868 0.0131763 0.0534807 0.0260917 -0.0274966 -0.0726051 0.00605321 0.0290688 -0.0428868 -0.00313988 -0.00539255 -0.0676733 0.0417295 0.0120128 0.0495248 -0.057901 0.000602418 -0.0506012 -0.0725101 -0.00793804 0.000216509 0.0686397 0.0320598 0.0120892 -0.0534283 -0.0563691 -0.0277011 -0.0188464 0.0198785 -0.0629916 -0.023901 0.0322268 -0.0250542 -0.0461026 -0.0226719 -0.0632224 -0.0497749 0.0286091 -0.0255548 0.0117916 0.0675277 -0.0127886 -0.0373938 -0.000959481 0.0096114 0.0540271 0.0674063 0.0404018 0.029336 0.0701063 0.0619723 0.000829791 0.0630176 0.0402271 0.0340159 0.0311308 -0.0551844 -0.0315092 0.0629761 -0.060627 0.0347597 -0.00970093 -0.0541253 0.0104362 -0.0200075 0.0138224 -0.0308121 0.00942133 -0.0414845 0.0405424 -0.0178832 0.034801 -0.0266108 -0.0359451 0.000783975 0.0291129 -0.0461589 0.0455259 -0.0221138 0.0190364 0.00391169 -0.00137188 -0.0377451 -0.0411855 0.0516122 0.0690849 0.0237259 0.0679576 -0.068095 -0.000915299 -0.00282996 0.0540759 -0.0537263 0.0513534 -0.0665958 0.0108653 0.0376877 0.0666389 0.0147571 -0.0528918 0.0585027 -0.0242509 -0.0493679 0.0563312 0.0164152 -0.00462875 0.0668203 -0.0375564 0.0249914 -0.0577793 -0.0319023 -0.0180338 0.0745517 -0.0715816 -0.0121812 -0.0676546 -0.060045 -0.0174455 -0.0735517 0.0731037 -0.00154694 -0.0293719 -0.0417715 0.0368502 0.00352241 -0.0517794 -0.0757786 0.00642893 -0.0704015 -0.0191791 -0.0412059 -0.0172147 -0.0435359 -0.035508 0.0164325 -0.062456 -0.0755726 -0.0281449 0.0583874 0.0359834 -0.0643948 -0.0348831 0.00710622 0.0538755 -0.053953 -0.0497627 -0.0648006 -0.0214375 -0.0561277 0.0661495 -0.00661321 -0.0419173 0.0553374 -0.0528476 0.0334154 -0.00979693 0.0566012 0.0447183 -0.061388 0.0437073 -0.03477 -0.0634086 -0.000882204 0.0700717 0.024606 -0.0119679 -0.0100503 -0.0169081 0.00761488 -0.0317388 0.0418842 -0.0402406 0.0254426 0.047919 0.068751 0.0629907 -0.022179 -0.00140433 -0.0241901 0.00994668 -0.0460744 -0.0257232 -0.00618659 -0.00792769 0.0540326 0.0235716 0.0643206 -0.00379612 0.0205845 0.070542 -0.0250798 -0.0233734 -0.0522201 -0.0741584 -0.0514644 0.0647126 -0.0676288 -0.0658506 -0.0645928 -0.0677673 -0.00674764 -0.0192116 -0.0619863 0.00844307 -0.0206846 0.0652466 0.0033072 0.0491037 0.0428113 -0.0261814 -0.0128011 0.0538648 -0.0361433 0.0197028 -0.0166862 0.0527755 -0.0349479 0.0366859 -0.0500667 0.0689912 0.020843 0.0547849 0.0704382 0.0621473 0.0228696 0.0131704 0.0363261 0.0732823 0.0198039 -0.0411674 -0.0240758 -0.0594413 0.0324137 -0.0535162 0.0719675 0.00496745 -0.047329 0.0698235 0.0582248 0.0636742 -0.00463384 -0.0464354 -0.0597083 
0.0606926 0.0439305 -0.00112751 -0.0639385 -0.0717727 -0.0274751 -0.00221689 0.0204855 -0.00864053 0.0354315 0.0361746 0.0364296 0.0153439 0.00583119 0.0541905 0.0287151 -0.067083 -0.00926662 -0.0364336 -0.00411208 -0.0539577 0.0475528 -0.0217259 0.00598543 -0.020987 -0.0216094 -0.0389904 -0.0646041 0.0456924 -0.0644477 -0.0557563 0.0256436 0.016739 0.0597015 0.0663452 0.058959 0.0529309 0.0235844 0.0183349 -0.0163777 -0.0203948 -4.82402e-05 0.00272878 0.0471882 -0.0164867 0.0439904 0.0672339 0.0755794 0.0539959 0.0683677 -0.0315945 -0.0273222 0.0746546 -0.0106022 0.0176393 0.00472441 0.0182626 -0.0529677 -0.0387339 0.0250235 -0.0181211 -0.0650251 0.0333166 0.0466878 0.00787711 0.0674731 -0.0553321 -0.0720368 -0.0109789 0.0537645 -0.0335941 -0.0608648 -0.0173565 -0.0360216 -5.06363e-05 0.0751567 0.0630981 -0.0619646 0.0127857 0.0478652 0.0745954 -0.0503683 0.0750022 -0.0196893 -0.0462159 -0.0323613 -0.00783723 -0.0133258 0.0410749 0.0444354 0.016121 0.0562325 0.046673 0.0190109 -0.0659785 0.02212 0.0161383 0.0192708 0.02634 0.011964 -0.0478133 0.0602525 0.0390407 -0.0227862 0.0119773 -0.0718254 -0.0263796 -0.0553258 -0.0313009 0.0147968 -0.0301378 -0.0576962 -0.0118717 -0.00913837 0.00727014 0.0306071 -0.054958 0.0624046 0.0516743 -0.0165687 2.72224e-06 -0.0521922 -0.0020999 0.0346919 0.0212893 -0.0532158 -0.0424591 0.0348585 -0.057912 -0.0713343 -0.00906399 0.0593538 -0.0669453 -0.00720927 0.00686312 0.0529258 -0.0227424 -0.0130099 0.0125809 0.00652429 -0.00959986 -0.0583398 -0.0656115 -0.0046492 -0.0399679 -0.0108245 0.0499474 -0.0592935 0.0718086 -0.0558653 -0.0335183 0.0107656 0.0432203 -0.053245 0.00672351 0.0215311 -0.0705909 -0.065879 0.0717647 0.0705326 -0.0535423 -0.0684002 0.0123614 0.0707098 0.00611873 0.0088586 -0.000177823 0.0560964 -0.000343508 0.0358586 -0.0294889 -0.0234288 0.0344753 -0.0278768 -0.0018253 0.0482669 0.00713148 -0.0275874 0.0560992 0.0680401 -0.0696292 0.0686209 0.0178558 0.00402191 -0.0261672 0.063808 -0.0232949 0.0294476 0.0217527 -0.0539433 -0.0259348 0.0464943 -0.0179604 0.0726024 0.0628093 -0.0156882 0.0713273 0.0169338 0.0220223 -0.0582018 -0.0382503 0.0454682 0.0561569 0.00859632 0.000563891 -0.0658398 -0.0431036 -0.0451547 -0.0240732 -0.0413279 0.0754918 -0.00772448 -0.0441931 0.0560285 0.0646768 -0.0186688 -0.019654 -0.012204 0.0204342 -0.0347178 0.0674508 -0.0404517 -0.0466521 0.0265329 -0.0164386 0.0123635 0.046198 -0.0420795 0.00996131 -0.0123062 0.0754392 0.0464455 0.0752831 0.0228984 0.0579705 0.0568935 -0.0566546 0.0724048 -0.0669118 0.0541594 0.0514353 -0.00235367 -0.00383301 -0.0555111 -0.0402979 0.0406776 -0.00156441 -0.0198078 0.0646745 0.00331704 0.056498 0.0394053 -0.0307838 -0.000949982 0.0548676 -0.0494601 
-0.0215344 0.0349778 0.022685 0.0635671 -0.0526259 0.0116544 -1.49569e-05 -0.0590443 -0.0367535 0.0578554 0.0529827 -0.033755 -0.00456951 0.0418669 -0.0617991 0.0513285 -0.0328269 0.0482475 -0.0531555 0.0396643 -0.0278564 0.0741395 0.0659707 0.0619716 0.0718763 -0.075818 -0.0562206 -0.0030685 0.0386628 0.0381652 -0.0298019 -0.0291842 0.032457 -0.000788038 0.0324207 -0.0624814 0.0498715 -0.0213281 -0.0728757 0.0155414 0.0616704 -0.0434655 -0.0311242 -0.070355 -0.0697911 -0.0687577 0.0240442 0.047287 0.00474724 0.0419007 0.0102717 -0.0314965 -0.0274793 0.0245555 0.062434 0.0342814 -0.0297808 -0.0547358 0.0447081 -0.00396122 0.0715061 -0.0227429 -0.0290766 0.0498808 -0.0459214 0.0556626 0.0692391 -0.0527817 0.00858077 -0.0138889 -0.0683827 -0.0288009 0.0389558 0.0126017 -0.0223334 0.0140187 -0.0562091 -0.0586304 -0.054802 0.0298179 -0.0422903 0.00599772 -0.00737575 0.00955657 -0.0726694 -0.0755838 -0.00726231 0.0435978 0.0465031 -0.0607397 0.0423236 0.0524287 -0.0219136 0.0456211 0.0711513 0.0725364 -0.0224207 -0.0620049 0.058483 -0.010337 -0.0187341 -0.0185637 0.0312485 0.031075 0.0654607 -0.0255997 0.0738339 0.00446361 0.0560452 -0.00442276 -0.0433441 -0.0670262 -0.0554796 -0.0037797 -0.0345898 -0.0428857 -0.00211911 0.0558879 -0.0360245 -0.0167214 0.0758918 -0.00617985 0.0348926 0.0251628 -0.0528091 -0.035937 0.051532 0.0244957 0.00064096 -0.0483941 -0.0324862 0.0529634 0.0309196 -0.0680775 -0.0561083 0.0269755 0.0337769 0.0120129 -0.0121167 -0.0479089 -0.0573138 -0.0178918 -0.0175429 0.0755268 -0.0475362 0.00641466 -0.0733422 0.0436206 0.0295323 -0.0488495 -0.0204276 0.0488605 -0.0122163 0.0641047 0.0118278 0.0050113 -0.04251 -0.0139119 -0.0508951 0.0402677 -0.0718877 0.0213506 -0.0618607 -0.0355245 0.0430053 0.00474048 0.0401559 0.0563447 -0.0405798 -0.0721363 0.000506493 0.0742379 0.0595429 -0.0338542 -0.0493186 -0.0752604 -0.074343 -0.0180554 0.00271933 -0.0391178 0.00326137 -0.00157339 -0.0668271 -0.0422094 -0.0424929 0.0638009 -0.0224804 -0.0648682 0.0655812 -0.0593685 0.0525378 0.0471741 0.0702556 0.0149635 -0.0714842 0.0179888 0.0539872 0.0452938 -0.0197452 -0.0758072 0.0297903 -0.0141975 0.0731027 0.052049 0.00256573 0.0419612 -0.052121 0.0618126 -0.067125 0.00820138 0.0441275 -0.0474512 -0.0604207 0.0413563 -0.0282906 -0.00789859 0.0251509 -0.01021 -0.00726568 -0.0626412 0.0204906 -0.0205046 -0.0403513 0.0711565 -0.0546544 -0.014668 -0.0101178 -0.0391284 -0.0622283 -0.0156084 0.0526547 -0.0502235 0.0665978 0.0184204 0.00772807 -0.0251697 -0.0177576 0.0183194 0.0268598 0.0372246 -0.0277769 -0.0170549 0.060287 0.00146263 0.0511976 -0.0582886 -0.0366678 0.0303113 -0.0685382 0.00713363 0.0354641 -0.0634001 -0.0516658 -0.0191865 0.0476578 -0.0307662 
-0.0177841 0.010445 -0.0173608 0.0178112 -0.0228411 -0.0499637 -0.00295755 0.0693738 0.0113301 -0.0204339 -0.0239351 0.0104633 -0.00914188 0.0588322 0.0395956 0.0444307 0.0691532 0.0229949 -0.0568989 0.0700357 0.0428942 0.0452179 0.0428826 -0.0511838 -0.000338723 -0.0333043 -0.0637489 -0.0537213 -0.0358553 0.0709199 -0.00978169 0.0123835 0.0375122 -0.0589031 0.00796083 0.0269242 0.000492381 -0.000437797 0.00881322 0.00955672 0.012623 -0.0433983 0.0229145 0.0685271 0.0660474 -0.0614723 -0.0510917 -0.00853193 -0.0711698 -0.0602893 -0.0692703 -0.00383777 -0.0671754 -0.0701911 -0.0259551 0.0155034 -0.0759039 -0.0317114 -0.0435302 0.00680984 0.0331134 -0.0556742 0.0724652 0.00410544 -0.0130084 -0.0698712 -0.047556 0.0360006 -0.0126279 -0.0198767 -0.0370991 -0.0513335 -0.0306093 -0.0138484 0.0138151 -0.0094893 0.0688085 -0.0557927 -0.0452717 0.0345979 -0.0522053 -0.0255149 -0.0554259 -0.047539 -0.0529186 -0.0739478 0.0424627 -0.028656 0.0552168 -0.0327959 -0.00196548 0.0577645 -0.0269154 -0.070341 0.056115 -0.00796385 -0.0209389 -0.0484549 -0.0251069 -0.00994046 0.00455531 -0.0326923 -0.0148932 0.0518786 -0.0451508 -0.0720459 0.0248196 -0.00772014 -0.0649753 0.0306828 -0.0268751 0.026167 -0.0193888 -0.0514682 0.0445662 0.0718752 -0.0491655 0.0659193 -0.0618692 0.04225 -0.0746714 -0.00147246 0.0114964 0.0683075 -0.022669 -0.0634586 -0.0697988 -0.0336619 -0.00610783 -0.00988761 -0.00660084 -0.0362441 -0.0510282 -0.0425347 -0.061328 0.0682501 0.00127859 -0.0135599 0.0204993 0.00903103 0.067844 -0.00132445 0.0203897 -0.0148605 0.0517862 0.0189311 -0.0632556 -0.0404015 -0.0435252 -0.00738384 0.0469732 0.0382671 0.0374807 -0.0279391 0.0616868 -0.0250616 -0.0512479 -0.0216172 0.0438615 0.0583877 -0.0689382 0.0423878 -0.0597765 0.0167237 0.00131403 0.0236008 -0.059392 -0.0686199 -0.0590028 -0.0145153 -0.0291628 -0.0456819 0.0213409 0.0215396 -0.0626862 0.063965 0.0614412 0.0411288 -0.0147804 -0.0248367 0.0204521 -0.043292 0.00995416 -0.0274479 0.0407182 0.0180469 -0.0612466 -0.00890547 0.054919 -0.0176644 -0.0156368 0.0475212 -0.0537411 -0.0344644 -0.0274587 0.00987681 -0.0400597 -0.041002 0.029285 0.0586559 0.0575168 -0.0223684 -0.00761613 0.0528662 0.064583 -0.0450424 -0.0486559 -0.0547463 0.0108468 0.0523721 -0.0454688 0.0710563 0.0425344 -0.0344414 0.0549367 0.0495986 0.0678764 0.0616829 0.051457 -0.0182358 0.0678235 0.00125256 0.0715569 0.0130151 0.032115 -0.0300464 0.051362 0.044256 0.0376014 0.0735193 0.0117896 0.010738 -0.0672525 0.0617693 0.0100513 -0.031969 -0.060645 0.00979432 0.0569004 0.0460955 -0.0613396 -0.0192151 -0.0313709 0.0343045 0.065197 -0.0017993 0.0344478 -0.0688298 -0.0352269 0.0204367 -0.0483638 0.0717856 0.0722874 -0.0336486 0.0427526 0.0668938 
-0.0165066 0.0693179 -0.0180781 -0.0685473 -0.0382672 -0.012631 -0.0692188 0.0706564 0.0665948 0.037772 -0.0135678 -0.0709272 -0.0439381 0.0291019 0.0636261 0.0532462 -0.0589813 -0.00670079 -0.0440419 -0.0187626 0.0456913 0.0390359 0.0224525 0.0424194 -0.0705572 0.0153261 0.0710201 0.0378435 0.0327474 0.040256 0.0353871 0.026429 -0.0365073 -0.0475196 0.0140728 0.0730608 0.0473946 0.0581378 0.0186445 0.0618358 0.0753225 0.054217 0.00392193 -0.00650458 -0.0506044 0.0707881 -0.026766 -0.0056434 0.0225349 0.0437845 0.00131621 0.0138089 0.0470896 -0.0471935 -0.0216829 -0.0580012 0.0117858 0.0581132 0.0550059 0.0444548 -0.0154623 0.0610579 0.00258036 0.0439069 0.00589091 -0.0025744 0.0454016 0.0669501 -0.0721729 0.0619621 -0.0170709 -0.0570137 -0.0275548 -0.0511321 -0.0655111 -0.00754392 0.036239 0.0490592 0.0733683 0.00935107 -0.0626007 0.0146866 -0.059976 0.046532 -0.00642797 -0.0412409 0.00191433 0.0676273 0.036416 0.00264035 0.0148084 -0.0618439 0.0411089 0.0181317 0.0534621 0.027237 -0.0259287 -0.0368977 0.0160379 0.0663061 -0.00667606 0.0247304 0.0451799 0.0741059 -0.00863133 -0.0172382 -0.0720976 -0.051846 0.0734933 -0.0555153 0.066176 -0.0214783 0.00918448 -0.0601688 -0.064048 0.0171103 -0.0652251 -0.0115151 -0.0227175 0.0569629 0.00706745 0.0595869 -0.0410389 0.00963829 0.0634977 -0.00299132 -0.00518893 -0.027185 0.0441763 0.0191457 0.00556969 0.0486102 -0.0267775 -0.00457241 0.0224428 0.0756136 -0.0516652 0.0724991 0.0586128 -0.0605034 -0.0602351 0.0119334 0.0636337 0.0722412 -0.00948808 -0.0730649 -0.0656445 -0.0531187 -0.0725356 -0.0268152 0.0663503 -0.0637812 0.0449321 0.0415875 -0.0386663 -0.067921 -0.0568186 -0.0332774 0.0364517 -0.0133646 0.0405913 0.0326141 -0.0477668 -0.0668798 -0.0309287 0.0152801 0.0713249 0.0528524 -0.0639952 0.0164744 -0.0337309 -0.0128382 -0.00771202 0.0560543 -0.0638654 0.0291 0.0244112 -0.0184357 0.0578126 0.073873 0.0386187 -0.0232485 -0.0363771 0.0314965 0.0309663 0.00379887 -0.011117 0.0555408 0.07138 0.049715 -0.0119493 0.0657626 0.0270274 0.031661 -0.0165112 0.0194629 0.0585652 -0.0324548 -0.0588992 -0.0252879 -0.0725565 0.0371833 0.0511771 -0.0397188 0.0347147 -0.0396909 -0.0356315 0.000424934 -0.0707744 -0.0516415 -0.0388667 0.0627181 0.0713677 0.0390956 0.019363 0.0300557 0.072636 -0.015504 -0.0478066 0.0155103 -0.0251587 -0.034333 0.0757727 -0.0618799 0.0455657 0.0576175 -0.0177651 0.00794765 -0.0586545 0.0365418 -0.0358912 -0.0530562 0.0446126 0.0653706 0.0100559 -0.0448017 0.0575374 0.0664039 0.0240535 -0.0607668 0.0643632 0.0176274 0.0505715 -0.0524705 0.0264104 0.0198581 -0.064325 0.051554 -0.00414666 0.00986937 0.0401838 -0.0161325 0.0650384 0.0595551 0.0532211 -0.0530207 
-0.0169792 -0.0438262 -0.0345499 0.0436557 0.0403599 0.0244371 -0.0671431 -0.06169 0.0273558 0.0171001 -0.0732841 0.0133416 -0.0756765 0.0063633 -0.0188486 -3.01219e-05 0.0125143 0.0137486 -0.025344 0.0254812 -0.0230062 0.0687957 -0.0572098 0.05381 0.0558787 -0.0158956 0.0414517 0.0151317 -0.0123735 -0.0552626 0.0229093 0.0748952 -0.00734054 0.0485344 0.0105204 0.00754334 0.0557414 -0.062047 0.0607084 0.0269303 -0.0234209 -0.058777 -0.0311523 -0.0102852 -0.06975 0.0425457 0.0490738 0.0678864 0.017752 -0.0181321 -0.0677244 -0.0635265 0.0250414 0.0296098 -0.054998 -0.0316456 -0.012335 0.0481499 0.0570927 0.0325124 -0.0670275 0.0332379 -0.0534969 -0.00730634 0.0175574 -0.0610587 0.0151964 0.0626151 -0.0759397 0.0261904 -0.019876 0.0439808 0.0712911 0.0158741 -0.050829 -0.0720411 0.0105512 0.00865591 0.059195 -0.053018 -0.0305636 -0.0742511 0.0551591 -0.0349445 0.0173993 -0.0718689 0.0358539 0.00255428 0.0108504 -0.0544754 0.0430519 0.0758493 0.0551201 -0.0652969 0.0445475 0.0264352 0.0170999 0.0241594 0.0222796 -0.0141399 0.0665667 0.0737101 0.0383831 -0.0333148 0.0545221 -0.0521562 0.0226664 -0.0745716 -0.000686662 0.0517965 -0.0199942 -0.0190773 0.00980026 0.0343073 -0.0727245 0.0326013 0.00919949 0.074646 -0.00792907 0.0548281 -0.0121148 -0.046397 -0.0160046 -0.0221739 -0.0408676 -0.0384983 0.0462918 0.0704386 0.0279816 -0.0758036 0.0706027 -0.0144392 -0.0495692 0.0503425 0.0222915 -0.0133093 -0.0508132 -0.0129743 0.0474272 0.0648231 0.0711175 -0.00485602 0.0709252 0.0391573 -0.0715294 0.00864934 0.0713189 -0.0195389 0.0125392 0.0460631 -0.00865368 -0.0201828 0.000909392 -0.0318833 -0.0159899 -0.0334009 -0.0141121 -0.0196356 0.0546579 0.0742656 0.054336 0.0213776 -0.00166734 0.0348754 -0.05203 0.0613451 -0.00181953 -0.0423561 0.00963098 0.0493983 -0.0357387 -0.0490211 0.0413598 0.0381553 0.0674384 0.0592175 0.0628961 -0.0321876 0.0670368 -0.0461919 0.00957895 -0.0634803 -0.0548625 -0.000513282 0.0316739 -0.000478283 0.036826 0.0559319 -0.0391653 0.0183162 -0.0584345 -0.0527589 -0.0486378 -0.0225103 -0.0723291 -0.0295512 -0.0136928 0.0256121 0.0705552 0.0724332 -0.0634143 -0.0106313 -0.0714824 -0.0452475 -0.000655233 -0.00844 -0.0375299 0.0311789 -0.00559799 0.0653295 0.0323074 0.064026 0.0219743 -0.00119177 -0.0446968 -0.0749183 0.0203897 0.00452229 0.0268067 -0.0480178 0.0394 -0.0277593 -0.0539028 -0.0398957 0.0550514 -0.0466442 0.0037816 -0.0737882 -0.0376365 0.0345709 -0.0133817 -0.0592829 0.00424332 -0.0319312 -0.0433391 -0.0211285 -0.0739558 0.0193578 -0.0582204 -0.00703493 0.000626932 0.0112461 -0.0547998 0.00588381 0.0217253 -0.0365702 0.0458733 -0.00715905 -0.0277009 -0.0072201 0.0389039 -0.00013941 0.0583064 0.035197 0.0252406 -0.0580651 
-0.0403131 -0.0385081 -0.020918 -0.027284 -0.000743975 0.0205402 0.067085 0.0289763 0.059796 0.0411038 0.00863055 0.0366466 0.064659 -0.0115099 0.00780633 0.0101662 -0.0500134 -0.0680546 -0.0111452 0.0152462 0.0726441 0.0538918 -0.044226 -0.046158 -0.0253895 0.0621632 -0.00789653 0.0641222 0.00154188 -0.030027 0.0590722 -0.00977009 0.0177183 -0.0218707 0.0626929 -0.00453819 0.0406716 0.0692284 -0.0535985 0.0477334 -0.0744313 -0.0131896 -0.0155757 0.0473719 0.0437856 0.028001 -0.0352109 0.0482222 0.0232849 0.0598544 0.0735581 0.0421619 0.0740139 0.0469068 0.0212796 -0.0362364 0.0120596 -0.0650963 -0.0545065 -0.0144031 -0.018911 0.0327761 0.0359318 0.0225068 -0.00654305 -0.00328209 0.00894524 0.0162802 -0.0632196 0.0542989 0.0166942 -0.0676611 -0.0166236 0.0152134 0.0752162 0.00384051 -0.0254908 0.0508994 0.025325 -0.0325151 0.0210773 -0.0148255 0.00691752 -0.074697 -0.0182101 -0.0534125 0.0500538 0.0540219 -0.0176472 0.0522215 0.062997 -0.0197184 -0.0103544 0.0356979 -0.00728949 0.0484843 -0.0515322 0.051679 0.0589449 0.070631 0.0101999 -0.00450771 0.0232101 -0.067801 -0.0711054 0.00844715 -0.0427651 -0.0085099 -0.00164633 -0.0451056 -0.00307582 -0.0522761 -0.00174869 0.00442074 -0.0363692 -0.0508302 -0.0639499 0.0451991 -0.0748597 -0.0449925 0.0509917 -0.00282268 0.0117418 -0.0741436 -0.0559529 0.0253588 0.0596262 0.0472497 0.0599271 0.0646373 -0.0394876 0.0757088 0.0404663 0.0351882 -0.0353487 -0.0153019 -0.0720131 0.0256714 0.0323988 0.0123553 0.0387465 -0.0237484 0.027772 0.0512305 -0.0182339 0.0551289 0.0704651 -0.039235 -0.0441355 0.00932082 -0.00338832 -0.0695686 -0.0215951 0.0307314 0.0343461 -0.067203 0.0566389 -0.0758922 0.0205753 -0.0564711 -0.0643199 -0.0207313 -0.0394663 -0.0456209 0.0127904 -0.0598065 0.0747483 0.0570241 -0.0317979 -0.0360205 -0.0541747 -0.0383109 0.0466374 -0.0574408 -0.0165372 0.0213985 0.0661688 -0.000625397 0.032752 -0.0564359 -0.0122313 -0.0209097 -0.00471331 0.0359865 -0.0335941 -0.0150167 -0.00238892 -0.0573049 -0.0568119 -0.0214879 0.0466571 -0.0192616 -0.0665058 -0.0396764 0.0619041 -0.0277483 0.0673013 0.0202328 -0.00532434 0.0112407 -0.0504083 -0.0279804 -0.0167547 0.0529864 -0.0228328 -0.0640346 0.0478965 0.0247732 0.0416303 -0.0547291 0.0105782 -0.0724355 0.0455018 -0.0450479 -0.0496988 0.0640419 -0.0590631 -0.00670591 0.0568039 0.0493687 0.0376752 -0.0724242 -0.0277697 0.0580797 0.00753455 0.0514324 0.0449525 0.0699688 -0.015371 -0.0442849 -0.0617265 -0.0360204 0.0653565 -0.0393051 0.0341324 0.0374033 0.0614684 0.0103178 0.0613471 0.0592634 -0.00413015 0.0704595 0.00706262 -0.0209021 0.0383582 -0.0640896 -0.0453658 -0.0133535 -0.0173588 0.0292322 0.054437 0.014503 -0.0691863 0.0535708 -0.0327741 0.0204097 
0.0125782 0.0691693 0.0614653 -0.0665829 -0.028096 0.026579 -0.0253149 0.037589 0.0715506 0.0654878 -0.0580976 -0.0620672 -0.0133223 0.0785394 -0.0790927 -0.0616596 0.0464587 0.0374931 -0.0708167 -0.0397579 -0.0773736 -0.0108291 0.0395708 0.055665 0.0370851 0.0627792 0.0157627 0.0514822 0.0611556 -0.00425941 0.0322218 0.0240659 0.00918205 0.0358133 -0.0112658 -0.0107412 0.0218142 0.0353852 0.0438867 0.00869977 -0.0336725 -0.0063122 -0.0492458 -0.0278821 0.0265816 -0.00395833 0.0436742 0.0215586 0.057024 0.023967 -0.0721493 -0.0459221 -0.00605538 -0.0182863 0.0368754 0.070839 -0.0563821 -0.00728336 -0.0475326 -0.0234674 -0.0509861 0.020839 -0.0386892 0.0839249 0.0881275 -0.0472843 0.00701717 0.0494996 -0.07217 -0.0799299 0.0734958 0.0687783 0.044494 0.0252568 -0.0451698 -0.0399249 -0.0530379 -0.00446374 -0.0270512 0.0258156 0.00782748 -0.0445193 -0.0425059 -0.0154068 -0.0719522 -0.0592436 0.0535461 0.0067355 -0.0257708 0.00834242 -0.0596063 -0.0103408 0.067398 0.0495221 -0.0754815 0.0816429 -0.0676826 -0.0293401 -0.0169141 0.0649675 0.0722154 -0.0300498 -0.00279701 -0.00118783 0.0207673 0.0695974 -0.0143527 -0.0187888 -0.0307419 0.0103795 0.0395499 0.0520074 0.00292972 -0.062502 -0.0516303 -0.000887051 -0.0437122 0.0687314 -0.0137934 -0.0379217 -0.00305102 0.00392648 -0.0359302 0.0031541 0.073152 0.0628018 -0.0459771 -0.0649217 0.0122936 -0.0339826 0.0304277 0.0412805 -0.00803077 -0.00405135 0.042798 0.0668391 -0.0863835 -0.0308889 -0.0671765 0.0192004 0.0181993 0.0474864 0.0366896 -0.00770531 -0.0192765 -0.00237239 0.0741581 0.0092271 -0.0754445 0.0274097 0.00832491 0.0243931 -0.0630636 -0.0540383 0.10062 -0.0418657 -0.0928517 -0.0396747 -0.00374521 0.0187693 -0.04008 -0.0458252 0.0604629 0.0264013 0.00692363 0.0278274 0.0172325 0.0495479 0.046396 0.0789479 -0.0477236 -0.0528205 -0.0532639 -0.0246422 -0.0704149 -0.0252858 0.00754728 0.0416745 0.0331977 0.00718502 0.0703193 -0.0693534 0.0349074 0.0207568 -0.0616121 0.0682612 0.0779793 -0.0392993 -0.0200967 0.0632321 -0.00345906 -0.0264686 -0.0120229 -0.00329985 0.0220851 0.01641 0.0319435 -0.0563218 -0.0729506 0.0101614 0.055484 0.0420971 -0.015559 0.0373084 -0.00905835 0.0492851 0.0369017 -0.0133971 -0.071467 0.0388994 0.0346958 -0.0760595 0.00455395 -0.0154551 0.0310115 -0.0357663 0.0947927 0.0188495 0.00372946 -0.0368475 0.0898984 0.0470739 -0.00697814 -0.0597008 -0.0669306 -0.0585982 -0.000304074 -0.0618312 -0.00692669 0.0731373 0.0357279 -0.0227423 0.0517153 0.0604977 -0.0611933 0.0608086 0.010745 0.0652976 -0.0662838 0.0335545 0.0255522 -0.00829327 -0.0190854 -0.0279095 -0.0189398 0.0660494 0.105162 -0.0135235 -0.026627 0.0624886 -0.0157435 0.0709911 -0.00981867 0.108666 0.0497683 -0.0314718 
0.0928353 -0.0599424 0.0796603 -0.0380801 0.0717397 0.0504215 0.000865045 0.0694966 -0.00450487 0.02793 -0.0492236 0.052421 0.00902018 0.0312483 -0.0282063 -0.0434615 -0.0595834 -0.0149202 -0.0726796 0.016144 0.0495322 -0.030245 -0.0111736 0.0278934 0.0594924 -0.0323476 -0.0334785 0.00993478 -0.000808813 0.0181985 -0.0323584 0.0744817 0.0610533 0.0227454 0.0291624 0.00941883 0.0112985 0.00482394 0.00275771 0.0950488 -0.0531413 0.0072238 0.0261459 -0.00508772 -0.0442237 -0.0116238 -0.00685435 -0.0380015 0.04363 0.00886968 0.0573463 0.00377602 0.0711001 0.0557381 0.0349117 -0.0253402 0.0841139 -0.0721461 0.027939 -0.0643229 -0.0264178 -0.0449207 -0.0709219 -0.0284756 0.0964962 0.0260413 -0.0552231 0.0726296 -0.0239507 -0.00262324 -0.0620669 0.0745177 -0.00634427 -0.01914 0.017442 -0.00639012 -0.0488292 -0.0420673 0.0692113 -0.0159356 -0.00259796 -0.0330832 0.0536155 -0.0497552 -0.0219967 -0.0134967 -0.0215638 -0.0524827 -0.059755 -0.0515739 0.00973663 0.0654797 -0.0332648 -0.0363579 -0.00302452 0.0472713 -0.0337255 -0.0190388 0.0136656 -0.00419369 0.0466528 0.0333474 0.0432396 0.053226 -0.028091 -0.02894 0.0309977 0.0195847 0.0176595 0.0107128 0.053923 0.0528851 -0.0345173 -0.00968902 -0.000400398 -0.0108397 0.0518564 0.00277461 -0.0368033 0.039486 -0.0587281 0.0291553 -0.0258926 0.0153981 0.00838779 -0.0392052 -0.0456242 0.0593633 -0.0530275 -0.0365172 -0.0790369 0.0488272 0.0684567 0.0807141 0.0631664 0.0563118 -0.0580734 0.0588881 -0.0175057 0.0647571 0.0263338 0.0659825 0.0546614 -0.0285965 -0.103688 -0.000812281 -0.064732 0.0288246 0.0129547 0.0376422 0.0811145 -0.0129995 -0.0303136 0.0195772 0.0370014 -0.0381302 -0.0333033 -0.0338732 -0.041354 0.0649768 0.00107509 0.0332945 0.0676806 -0.0308206 -0.0238736 0.0704208 0.0807979 -0.0278924 0.0618979 0.0243063 -0.063069 -0.0846952 0.0594603 -0.0246846 -0.0860712 0.00320851 -0.0104693 0.0820633 -0.0186091 0.0825255 -0.0303943 -0.0637307 -0.0309556 -0.0563412 -0.00621962 0.0205221 0.0127033 0.0564107 -0.040922 -0.0136927 0.0447994 -0.017163 0.0712172 0.0157705 0.0364481 -0.0110342 -0.0702704 0.0170384 0.0409599 0.0497103 0.0444294 0.0384971 0.0522975 -0.0243114 -0.0722815 0.0791514 0.0135796 0.0402868 0.0242499 -0.0750734 0.0204471 -0.0463684 -0.0626411 -0.0152187 -0.0106137 -0.0468817 0.099166 0.0433096 -0.011312 0.0156381 0.0494483 0.0941387 -0.0196054 -0.0740818 -0.00776469 0.00638702 -0.0707847 0.0383635 0.0496196 0.00557396 0.00767745 -0.0215846 -0.0663333 0.0580141 -0.0133351 -0.0180039 0.0702442 0.000999029 0.00782358 0.0347773 -0.0157263 0.000506893 0.0634029 0.0762129 -0.0642072 0.0554476 0.105448 0.0755873 -0.0419951 -0.0408341 0.068398 -0.0615029 -0.0464026 0.0913116 0.005782 0.0605482 
0.053115 -0.027158 -0.0229752 -0.0480614 0.0506964 -0.0544751 -0.0203823 0.0333104 -0.0571616 -0.00759904 0.0147787 0.0412994 0.0231146 0.0880695 -0.0554295 0.0131578 0.0387954 -0.0181892 0.0614623 0.00476006 -0.0130458 -0.0524697 0.0282711 0.0765169 -0.0284898 0.0254016 -0.0740904 -0.0568834 0.090555 0.00283399 -0.0293816 0.0583629 -0.0138784 0.0752036 -0.0888113 -0.0737291 0.0124991 0.0505411 -0.0433645 0.00609071 0.0551363 -0.0736923 0.00868881 0.00914977 0.0551434 0.0151815 0.0110006 0.0393532 -0.031048 0.0246217 0.0879458 -0.0259154 -0.0286573 0.0473376 0.0494022 -0.0204725 -0.029535 -0.0107689 0.0345434 0.0678097 0.0217906 -0.0297008 0.0574478 0.0649575 0.0849126 0.019694 0.0239347 -0.00597122 -0.035101 0.0387498 -0.0366669 0.00591306 0.00247686 0.0256859 -0.0358495 0.0124833 -0.0215496 0.00924057 -0.0641382 -0.0321903 -0.0118039 -0.0713688 -0.0283698 -0.0191347 0.068641 0.0567639 0.00247152 0.0575255 -0.0616871 -0.0423219 -0.0333547 -0.0393639 0.0445719 0.013805 -0.0431707 -0.0339183 0.0392877 -0.0431031 -0.0821639 -0.040824 -0.0323227 0.0149372 0.0193496 0.0374215 -0.0273756 -0.00637328 0.0427027 0.0546814 0.00699904 0.0249118 -0.0707427 -0.0286927 0.0519605 0.0298014 -0.0530383 -0.0286537 0.0757556 -0.0106951 0.0512705 0.0546566 -0.0311521 0.00333406 0.0191 -0.0330965 0.0726083 0.0675497 0.00575746 0.0851474 0.0730099 0.0874044 -0.0507199 0.070017 -0.00302095 0.0241433 0.0122118 -0.000234075 -0.0369083 0.0573368 0.0238672 0.0273666 -0.0483078 0.0179667 -0.0381721 -0.0147142 0.0260073 -0.0441622 0.0130109 -0.0556048 -0.0407454 0.0657113 0.0887131 -0.01476 -0.0245797 -0.0830357 0.0676523 0.0594749 0.0205758 -0.00168806 -0.0523813 0.0248159 0.058245 -0.0706415 -0.00871415 0.0552281 0.047371 0.0182191 0.0746321 -0.028988 -0.0574001 0.0644797 -0.000181256 0.0674052 0.0928461 -0.0196865 -0.0501942 -0.0447805 0.0139293 -0.0227853 -0.0712801 0.0682622 -0.00511257 -0.00603562 0.0434173 -0.017346 -0.0497808 0.0398958 -0.0400381 0.0118513 0.088488 0.0554062 -0.0453993 -0.0729625 0.0286996 0.015438 -0.0113824 0.0777183 0.0133718 -0.0704666 0.00329399 0.00602525 0.00629522 -0.0136828 0.0134113 -0.00962686 -0.0754181 -0.0301038 0.0601365 0.0240301 0.0192665 -0.0403624 -0.0702859 0.0376078 -0.0239898 0.072575 0.0395566 0.02394 0.062753 0.046402 0.056225 0.0403333 0.0593812 -0.0525713 0.0542542 -0.0631421 0.0693807 0.0352694 -0.0312197 -0.0224811 0.070332 0.0439805 -0.0489635 0.0194751 -0.0516348 -0.0204031 0.00774528 -0.0576141 0.0023096 0.0707455 0.0523162 -0.0409264 -0.00423161 -0.0375249 -0.00706116 0.0746997 0.0577341 -0.056579 -0.0394431 0.0470584 -0.0900264 0.0667377 -0.0219016 0.0937365 -0.00892795 0.0705651 -0.0180241 0.0377253 
0.0617212 0.0404872 0.0719093 -0.0524122 -0.00612704 0.0749778 0.0898975 -0.0623936 -0.0119913 0.0814519 -0.038083 0.0156055 -0.0198786 -0.000103873 -0.045611 0.00922824 0.0172847 -0.0711824 -0.030987 0.0646025 -0.0161636 -0.0266089 0.0272066 0.0108254 0.0470295 -0.087272 -0.0576812 0.0123629 0.000426014 0.0443874 -0.000400715 0.0352642 -0.0260331 0.0595752 -0.0608196 0.0469986 0.00106596 -0.0289752 -0.0412783 0.0549023 -0.0521521 -0.0664812 0.0564279 0.0363724 0.0256164 0.0406772 0.0380854 0.041647 -0.0678488 0.0301424 0.0134358 0.0180674 -0.0364908 -0.00883805 -0.0267186 -0.0451951 -0.00215136 8.33895e-06 -0.0352316 0.0681167 0.0192792 -0.0751825 -0.0453265 0.0436209 0.0151341 -0.0258392 0.0735371 0.0935745 0.0182501 -0.0201425 0.0123232 -0.0333362 0.0230387 -0.0903815 0.012975 -0.0234431 0.0018168 -0.0500592 -0.0443878 0.0732316 -0.0297122 0.0630605 0.00238975 -0.0109156 0.0490441 -0.032826 -0.0450418 -0.0683252 0.0420155 0.0524281 -0.0274962 0.00854168 0.0459683 -0.0739458 0.045479 -0.0499946 0.0179318 0.0391772 -0.0690836 0.0425535 0.069537 0.0757975 -0.0494831 0.0491741 -0.0161811 -0.0687361 0.00789141 0.0231255 -0.0461113 0.0449467 0.048155 -0.0160799 0.0193031 0.0612115 0.0229746 -0.0348935 -0.0454025 0.0465589 -0.0507742 0.063994 0.00920129 -0.0532698 -0.0460151 -0.0588287 0.00385779 -0.0108829 0.00873288 0.0765082 -0.0622947 -0.0220546 0.0297776 0.0749024 0.0736431 -0.0445354 0.032496 -0.0573625 -0.0352449 -0.0400389 0.0639525 -0.0188603 0.0178596 0.0565149 0.00275867 0.0676083 0.0558901 -0.0459609 -0.0339746 0.0709847 0.0346272 -0.0159318 0.00680426 -0.0190138 -0.0878016 0.033243 0.0851469 -0.0480304 0.0212269 -0.0867428 0.0365573 0.0391167 -0.0567116 0.0124169 0.00961115 0.0870527 -0.0334775 -0.0863661 0.018378 0.0206206 -0.0062274 0.0499322 0.0405413 0.0585331 0.0891975 -0.0157288 -0.0432434 -0.069381 -0.0650144 0.0545152 -0.0397928 0.0925578 0.0241268 -0.010793 -0.0147005 0.0156937 -0.032789 -0.0313493 0.0322722 -0.0926976 0.0534021 -0.0231873 -0.0858939 0.0147462 0.0806809 0.0533932 0.0199686 -0.0472033 0.0670394 -0.0475872 -0.00685386 0.0567275 0.00679942 0.0237816 -0.0499917 -0.0732928 0.00157461 0.0187909 -0.0237566 -0.0384739 -0.0674123 -0.0369212 -0.0531519 0.0420804 -0.071477 -0.0739101 0.0201557 -0.0572034 -0.0256647 0.0562056 -0.0319088 0.06675 -0.0106324 0.0265629 0.0389592 -0.033441 -0.0155398 0.039965 -0.0101654 0.0315798 -0.0259028 0.0457552 -0.0158216 0.00909171 -0.00669744 -0.00720233 0.0579553 0.0801124 -0.0546007 -0.00623513 -0.0742304 0.00500654 0.0479726 0.0379845 0.0420834 0.0603276 0.00338474 -0.0129879 -0.0472647 0.034095 -0.0424858 -0.0502397 -0.015923 0.0819166 0.0151863 -0.0472165 0.0176357 0.0238861 
0.061858 -0.0213428 -0.00675566 -0.056409 -0.012076 -0.0428547 0.0314616 -0.0537586 0.0147841 0.0293841 -0.060583 -0.00545695 -0.0360626 0.0616489 0.0658929 0.0221405 0.0496198 -0.0364329 -0.0178311 0.0752656 -0.00160068 -0.0550903 0.0439232 -0.0153681 -0.0661515 0.0340069 0.0375101 -0.0590687 -0.0413009 -0.0557642 0.0750609 0.0445569 0.0701174 0.0299374 0.0637785 0.0713055 0.0390666 0.0425707 -0.00431943 -0.025374 -0.0210464 -0.0446283 -0.0423038 0.061111 0.0428988 0.00165551 -0.0689123 0.0595464 -0.0524061 0.0133762 0.0704984 -0.0596375 0.0680005 0.032147 0.0294295 -0.0567516 -0.0690831 0.0685376 0.0550893 0.0330058 -0.0746631 0.00668123 -0.0543201 0.0636812 0.0654776 0.0161451 -0.0121918 0.04033 0.0203368 0.0481277 0.0304406 -0.0387785 0.0453943 -0.0278445 0.0134035 -0.0107936 0.00996846 0.00389313 0.0722303 0.0360777 -0.0213396 0.0474023 0.0529591 0.043334 -0.00970463 0.0547672 -0.0739281 0.0562264 -0.0312367 -0.0166281 -0.0218694 -0.0110706 0.0280892 0.0234188 -0.0309069 -0.0191962 0.0512681 0.0192502 0.0678142 -0.0132907 0.029935 0.0498061 0.0599085 -0.0332934 0.0134905 0.00394718 0.0469455 -0.0222404 -0.0345303 -0.0386918 -0.0440702 0.0503849 0.0555507 -0.0444017 -0.0460125 0.0295339 -0.00202691 0.0339306 -0.0319028 -0.00548854 0.0369609 0.00281062 0.0466235 0.00231712 0.0631769 -0.0695676 -0.0538463 0.00825938 -0.0362574 0.071534 -0.00951718 0.0322193 0.0204281 0.043016 0.0640653 -0.0229843 -0.0461719 0.0187131 -0.0596691 -0.0578898 0.0267127 0.00628671 -0.0438397 0.0250708 -0.00503523 0.0459316 0.0121583 0.0470864 0.0728913 0.064302 0.0126126 0.0383184 0.0590683 -0.0362668 0.0339527 -0.0212777 -0.00406297 0.0589569 0.0239398 -0.0322102 0.0281121 -0.0747759 -0.0429916 -0.0542595 0.0265285 -0.0372593 0.0535146 0.0280858 0.00421443 -0.00652473 -0.0324014 0.0742837 -0.0504341 0.0281088 0.0305269 0.0410025 0.0681655 -0.0473867 0.0152652 -0.0698208 -0.0659182 -0.0417879 0.0734092 -0.0525305 0.0613816 0.0117903 0.0488273 -0.0147506 0.0291778 -0.0371898 -0.0539638 -0.0557587 0.0600935 -0.0552448 0.00276612 0.0737869 -0.0390403 -0.0394856 -0.0353159 0.0281538 0.0336011 0.0165737 0.0632944 -0.00354249 -0.0359467 0.050411 -0.0423802 0.0620208 -0.068619 0.0261557 -0.0147825 0.0747592 0.000350888 -0.0295798 0.0317917 -0.0199706 0.00294944 0.00537057 0.000204854 -0.00555556 0.00191382 -0.0432052 -0.0218807 -0.0755323 -0.0386848 -0.0134159 -0.0486757 -0.00516265 -0.0094729 0.000252014 -0.0549818 0.0268793 0.0410158 -0.0365996 0.0374291 -0.0676833 0.0318854 0.0699416 0.0148908 0.0392786 0.0279988 0.0398641 0.0476285 -0.0615767 -0.0161721 0.0519627 -0.0483807 -0.0454736 -0.0466783 -0.0175778 -0.0532513 -0.0323946 0.00198017 0.0307269 0.0552794 -0.0277447 
0.0375082 0.019749 0.0523259 -0.020481 0.0422551 0.0750602 -0.0578173 -0.0224125 -0.047039 -0.0699856 -0.0476271 -0.0656845 0.00900711 0.0706842 0.0435855 0.0735839 0.0342689 -0.0719757 0.0526728 -0.0131044 0.0099724 0.0178463 0.0130045 0.0515245 -0.0174525 0.0133485 0.0727816 0.0758079 0.002336 -0.0346452 0.0742733 -0.0268495 -0.0751697 -0.0595511 -0.0369775 0.0620394 -0.0631199 -0.0085255 0.00720091 0.00263887 -0.00183106 0.028715 0.073552 0.0219605 -0.065944 0.0755451 0.0681059 -0.0349589 0.0532782 -0.0717823 0.0685611 -0.0108466 0.056314 -0.0616146 -0.0218653 0.0213552 0.0545878 0.0538297 -0.047351 0.0267054 -0.0152982 0.049007 -0.00888494 -0.0638406 0.00509308 0.0519864 -0.0176496 0.040091 0.0360983 -0.0267367 0.0643707 0.0230161 -0.0643391 0.0461814 -0.0707965 0.0751078 -0.00600074 -0.0479368 -0.056044 -0.021099 0.0163708 0.0681213 0.0637763 0.0130415 0.0129304 -0.0583299 -0.0417896 -0.0436195 -0.00506948 -0.0584143 -0.0226499 0.0288261 0.0433235 -0.00867278 0.0674619 0.0232048 -0.0229959 -0.0220143 -0.00489382 -0.0445629 0.0482029 0.0255792 -0.0325586 -0.0758157 0.0615371 0.032083 -0.0300861 -0.0685738 0.0726043 -0.0741793 -0.0527069 0.0169707 -0.0515911 -0.0160023 -0.0530045 0.0419678 -0.0684079 0.00341582 0.0262725 6.73963e-05 0.0667379 -0.0123538 -0.0318891 0.0275484 -0.0589768 -0.0117171 0.0575892 -0.0725652 -0.0631705 -0.012881 0.008374 0.0610129 -0.0313517 -0.00637394 0.0621018 -0.0146909 -0.073578 0.0151697 0.0558418 0.0192638 -0.0356671 0.0158687 0.0041295 -0.0325319 0.0333466 0.070409 0.00292362 -0.022961 -0.0614988 0.0268575 -4.66548e-05 0.0220625 -0.0276633 0.0527048 0.00920386 0.00938063 0.0524899 -0.0642155 -0.0697177 -0.0204641 0.0334409 -0.0541407 0.0443465 -0.0686883 0.0453432 0.0315009 0.000460709 0.0020844 -0.0520497 0.0478439 0.0493129 0.0555528 -0.0388982 -0.0126604 0.0491758 -0.0358127 0.0395438 0.062381 -0.00854238 0.0175314 0.0308728 -0.0176747 0.0619498 0.0459842 0.0093498 0.0118936 -0.0188461 0.0604215 -0.0165504 0.00197312 0.0120933 -0.00725576 -0.020355 -0.0253301 -0.00409031 -0.0352908 -0.0668019 0.0107707 -0.0756087 0.074933 -0.0199707 -0.0098328 0.0573078 -0.0390411 -0.0459891 -0.0640544 0.0755809 0.0631078 -0.0431524 -0.0676579 0.0614908 0.043323 -0.0673249 0.0541283 0.0536259 -0.0405949 -0.0105582 0.0343059 -0.0414038 0.0679392 0.0279683 -0.0688651 0.0159358 -0.0640181 -0.0502799 0.0620807 -0.0153911 -0.0557667 -0.0655883 -0.0721114 0.0407593 0.0739764 0.0501181 0.00501852 0.0145751 -0.0352306 0.0545282 -0.0019733 0.0293868 -0.0623348 0.0569159 0.00431689 -0.0396654 -0.0539598 0.00567967 -0.0262895 0.0401656 -0.0653442 -0.0489736 -0.0382013 0.0494653 -0.000617619 -0.0274898 0.0107857 0.020547 -0.0715429 
-0.0161975 0.0058052 -0.0236138 -0.0131067 0.0194819 0.0463088 0.0297521 0.0411751 0.0238292 -0.0231392 0.0357032 -0.041973 -0.0472106 0.0639002 -0.0550356 0.0503925 0.0113851 0.0131224 0.0547779 -0.0011721 0.0547074 0.0719459 -0.0670919 0.0434281 -0.0193661 -0.0639826 0.0199486 0.0176985 0.0618099 -0.0477033 0.0516727 -0.00689839 -0.0570851 0.0746479 -0.0243181 0.0327099 -0.0497981 0.0433435 0.0233052 -0.0265585 0.0082778 0.0545876 -0.0113572 0.0317964 0.0684314 0.06601 0.0154687 0.0449194 0.0130977 -0.0321254 -0.0634055 -0.0196262 0.0212208 -0.0729035 -0.0279334 0.0374339 0.0375037 0.0135211 -0.0523014 -0.0551225 -0.0158465 0.0627207 0.0247309 -0.0365618 0.00671075 -0.0198175 -0.0316903 -0.0313233 -0.0679055 0.037436 -0.0186878 -0.0188762 0.0256689 0.0357763 0.0663296 -0.0645078 0.0338969 -0.0502367 -0.00830658 0.0719982 0.0733125 -0.00894295 0.0603954 0.00451227 -0.0106318 0.0679764 0.00397223 0.0530969 0.0551386 0.0696396 -0.0391144 0.0730872 0.0523027 0.0191583 -0.00800785 0.0373257 0.0725787 -0.0169342 0.0184405 -0.00139105 -0.0691361 -0.0641415 0.0696346 0.00861022 0.0738681 0.0684155 -0.0321977 -0.0433625 -0.0302349 0.0128599 -0.0101378 -0.0213408 0.0100391 -0.0130032 0.0395458 -0.0631767 0.0390507 -0.0427863 0.067575 -0.0291065 0.0343318 0.0150446 0.0222726 -0.0231724 -0.0611757 0.0287207 -0.018835 0.0117743 -0.0243901 -0.0036481 0.0417039 0.00605965 -0.0708009 0.0209051 -0.057992 0.00136043 0.055356 0.0746051 0.0427254 0.0660957 -0.0560462 0.0633966 0.0368569 0.019384 -0.0625123 -0.014558 -0.047605 0.000342665 -0.0219795 -0.0113272 -0.00567878 0.00827476 0.0157234 -0.00827741 0.0432473 0.0732268 -0.0339754 -0.0525404 0.00141032 -0.00785279 0.0490416 0.0608838 -0.00734842 -0.0312343 -0.0378257 -0.0417473 -0.0555292 -0.0489918 -0.0559415 0.0506481 0.0428339 -0.00674402 -0.0508217 0.0643423 -0.0127796 0.0692891 -0.0604912 0.00890121 -0.0406908 0.0646263 -0.0722402 0.0682033 -0.074976 -0.03426 0.0624585 0.0451727 0.0649685 0.0592735 0.064256 0.0432379 0.0706533 0.0532885 -0.0244456 -0.0745157 0.00440935 -0.0186874 0.050211 0.00694112 0.0677835 -0.0669579 0.0568504 0.00621848 -0.0229374 -0.0176458 -0.0428601 0.0636516 0.0369907 -0.0598936 -0.0335682 0.0738396 0.00298284 -0.00731495 0.000308153 -0.00737697 -0.0393367 -0.0547101 -0.042223 0.0621445 -0.034074 0.00579691 0.0454901 -0.00850259 -0.0721611 -0.0641369 0.0217717 0.0635286 -0.0323141 -0.0321975 0.0239649 -0.00359702 -0.0319697 0.00222403 -0.00845853 -0.037457 -0.056665 0.0659323 -0.0719963 -0.0191098 0.00254998 -0.024064 0.0659908 -0.0609073 -0.0184467 -0.0196197 0.0148294 -0.0727244 0.0492747 0.0224117 0.0653003 -0.00361862 0.012878 0.0739562 -0.0247865 0.0640624 -0.0442117 -0.043716 
-0.0285248 0.0728104 0.0681128 0.0410349 -0.043706 -0.057315 -0.074439 -0.00430965 0.000253441 0.054919 0.0493914 0.00625393 -0.0424747 -0.00268797 -0.0213541 0.0169081 -0.00868877 0.0249546 -0.0565687 0.0534139 0.0338683 -0.0203528 0.073982 -0.0702882 0.0246009 -0.072224 0.0755085 0.0269954 0.071005 0.0537698 0.0227385 0.0733837 -0.016612 0.0561367 -0.0720426 -0.0695352 -0.0452381 -0.0754722 0.0403948 -0.00633137 0.047864 -0.0212617 -0.0460285 0.0095559 -0.0024727 -0.0152187 0.0474915 0.0100891 0.011514 -0.066024 0.0356102 -0.0199516 -0.0062266 -0.044352 -0.0589399 0.0660642 -0.00153243 0.065887 -0.00872978 0.0497413 0.00858136 -0.0139759 -0.0164187 0.0123996 0.0257317 -0.0323754 0.051606 0.0401296 0.0608187 0.0288047 -0.0623511 -0.0526742 0.0754979 0.0635139 -0.0702603 0.0228429 0.00485751 0.0550182 0.0312559 -0.0401719 -0.0358101 0.00928612 -0.0230811 0.0371289 -0.0233301 0.057971 0.0350503 0.0221843 0.0175038 -0.00897765 0.0536048 -0.0693344 -0.0397095 -0.00853475 -0.0310107 -0.00219615 0.0279959 0.010151 0.0151875 0.0607847 -0.000478148 -0.0604418 -0.0172323 -0.0316852 -0.0577548 0.0406554 0.0651135 -0.00439747 0.0636618 -0.0317189 0.026917 -0.0441561 -0.029521 0.0720121 0.0628541 -0.0234012 0.0179431 -0.000713429 0.0156999 0.0567031 -0.0558857 -0.0296765 0.0680533 -0.00354656 -0.0210012 -0.0639493 0.039646 0.0453062 -0.0159204 -0.0387559 0.00941371 -0.0121043 -0.0102008 -0.0268561 -0.0720391 -0.025864 0.0236185 0.00638954 -0.00306386 0.0435038 -0.0591251 0.0692004 -0.0568548 0.0217895 0.00299059 0.0203765 -0.0626233 0.0308973 0.0264665 0.0312417 0.064777 -0.00532402 -0.0035174 -0.0387873 -0.0136807 -0.0660637 0.0246913 -0.0234525 -0.0394194 -0.0016953 -0.0478752 0.00286816 -0.0694861 -0.0680259 0.0123561 0.0472159 -0.00434684 0.0685294 -0.0222024 0.0204002 -0.0570197 0.0583074 0.0165173 0.0384812 -0.0651191 0.00612848 -0.0329915 0.0592855 0.0041155 -0.0610635 -0.0182183 -0.051416 -0.0701334 -0.0330923 0.0427545 -0.0514229 -0.070156 -0.0636153 0.0369274 0.0135346 -0.0682187 -0.0740628 -0.0736341 -0.0150842 0.0550757 -0.03543 0.0217254 0.0716706 -0.0755512 -0.0288717 -0.0340108 -0.027972 -0.000132685 0.0360489 -0.0149027 -0.0500867 0.0546689 0.0397171 0.0468008 -0.0623595 0.0267056 0.0685468 -0.0112473 -0.0144833 0.0453052 0.0630419 -0.035106 -0.0471202 0.00528716 -0.0592231 0.0665946 -0.047507 -0.0202029 -0.0359983 0.000197697 -0.0274839 0.0423736 -0.0424012 0.00494491 0.0164622 -0.0483484 -0.0264969 0.00127141 -0.0621386 0.0562536 -0.00519896 -0.00971084 0.0348541 0.0251949 0.0487055 0.0629889 -0.0726985 -0.052039 -0.0130786 0.00574112 0.0682141 -0.050228 -0.00815752 0.0143592 -0.023696 -0.0712315 -0.0209459 -0.0684354 -0.0481604 0.0721457 -0.0100657 
-0.0440765 -0.00128108 0.0596889 -0.0514233 -0.0433838 -0.00787537 -0.00425506 0.0543033 -0.0597332 0.0467414 0.0395586 -0.0696678 0.0335751 -0.0238548 -0.0581911 -0.0748881 -0.00598834 0.0343912 0.0581322 0.0734534 0.0582173 0.00822479 -0.0132468 0.0520191 -0.0324909 0.0650013 -0.0462741 -0.0619879 0.0759553 -0.024065 -0.0744216 0.0115787 -0.0422742 -0.0245041 0.033901 -0.051958 -0.0711202 0.0149749 0.0324974 0.0631234 -0.0275953 0.0166805 0.0208538 0.0701774 -0.0723104 0.070609 -0.0240131 0.0316025 -0.0402235 -0.00391391 0.0703897 -0.0738175 -0.0311411 -0.075903 -0.0127342 -0.0276021 0.00949216 0.067042 0.010421 0.0666338 0.0668629 -0.069335 -0.0571331 0.0115087 -0.0723509 0.00678098 -0.0660786 -0.0150248 0.0563763 0.00460076 -0.0128202 0.0495924 0.00914544 0.0540224 -0.010051 0.0437975 -0.0711174 0.0558819 0.0655849 0.059069 -0.0175557 -0.0733555 -0.028295 0.034046 -0.0202742 0.0673231 0.0695467 0.00940512 0.0564641 0.00226806 0.0505541 0.0449605 -0.0727185 -0.0127615 -0.0129343 0.051045 -0.0264792 0.0151965 0.0230232 -0.0489171 -0.0156493 -0.0390853 -0.0395052 0.0282311 0.0505485 -0.0187508 0.0293049 -0.0465182 -0.0328834 0.0405791 0.0391817 0.0545162 -0.0597539 0.0389213 -0.0700878 0.0558326 0.0283763 0.0683 -0.0647049 -0.0589684 -0.0545451 -0.0470353 -0.0667346 0.0684957 0.0691147 0.016617 -0.057308 -0.0157082 0.0622864 -0.0638469 0.062161 -0.0660231 -0.0454456 0.0269863 -0.0045208 -0.0454322 -0.0550671 0.0631139 0.0268799 -0.0338948 -0.0231082 -0.0601631 -0.0620138 -0.0592529 0.031484 0.0259532 -0.0138214 0.0424993 -0.0656743 -0.0176634 0.0608647 0.039664 -0.052164 -0.0602938 -0.0741727 0.0571787 -0.0533743 0.0698572 0.0534335 0.026358 0.0390436 0.04254 0.0119626 0.0504694 0.0134849 -0.0517221 0.0450361 -0.0737503 0.0438153 0.0205848 0.0624114 -0.0693914 -0.0511005 0.0221046 0.0111649 -0.0607515 -0.00761591 0.0187171 0.00723686 0.00705152 -0.0514307 0.0697214 -0.00443467 0.0109367 0.0130461 0.0201068 -0.0548369 0.0169653 0.051175 -0.0519455 -0.0445084 -0.0733739 -0.0392243 0.0391467 0.0317753 -0.0109894 0.0282386 -0.00384693 -0.020233 -0.0270263 0.0177911 0.0389958 0.033182 -0.0384301 -0.070446 -0.0740679 0.0654693 -0.0496764 0.0692623 -0.0724791 0.0507012 0.0244315 -0.00396944 0.0641276 0.0301497 0.0568225 0.0065521 -0.00340646 -0.0165133 -0.0669443 0.00634155 0.0744674 0.0570769 -0.017411 0.0755068 0.0692654 -0.0357324 0.0146994 0.0270722 -0.0647575 -0.0664038 0.0532911 -0.0241392 0.0604014 0.0358363 0.0103948 0.0466623 0.00216121 0.0195527 -0.0231917 -0.017051 -0.0377636 -0.0163594 -0.0750973 -0.00390513 0.0101281 0.0454691 0.0347965 -0.0696021 -0.0120803 -0.0182898 -0.0210581 -0.0313476 0.060804 -0.0282921 -0.0379951 
0.0010709 -0.0341255 0.0139972 0.0609806 0.062291 0.0290299 0.0282858 0.0350245 0.0415796 0.0475983 -0.0101025 0.00154642 0.0150455 0.0224687 -0.0757536 0.0134946 -0.0658272 -0.0648729 -0.0714787 0.0672602 0.0672176 -0.016043 0.038071 0.0206258 0.0456164 0.0105977 -0.0401143 0.0269286 0.0584919 -0.0503484 0.0120628 -0.0579321 0.0582571 0.0328368 0.0250082 0.0729067 0.029142 -0.0451913 -0.000290026 -0.0613637 -0.0675394 -0.0302726 -0.00583997 -0.072397 0.0692921 -0.0478217 -0.0598588 -0.0106985 0.0216764 0.0332336 -0.0494981 -0.0169794 -0.0355766 -0.0431513 0.0292465 0.053481 -0.0215575 0.021419 -0.0552939 -0.00366518 -0.0157629 -0.0696833 -0.0390165 -0.0683791 0.00454125 -0.0720636 0.0400611 -0.0696619 -0.0560646 0.0665417 0.0415079 -0.00593907 -0.00447346 0.0338386 0.040086 -0.0669577 0.0440632 -0.0688454 -0.0226244 -0.0397207 0.0144179 -0.0192393 -0.0391819 -0.0253951 0.0100924 0.0253694 -0.0466936 -0.0243389 -0.0196419 0.0332727 -0.0692901 0.00314875 -0.0614997 0.0757055 -0.0113047 0.0420763 -0.0463872 -0.0248615 -0.0241713 0.0479363 -0.0429864 0.0241315 0.0373873 -0.00556885 0.0289003 0.0606116 0.0436106 0.0375231 0.0270161 0.0132522 0.0231282 0.063116 0.0491055 -0.0554647 0.0337303 -0.0129364 0.041054 -0.034469 0.0448862 0.0379333 -0.0392633 0.0607273 -0.0588192 0.0340745 0.0454235 0.056293 -0.00696426 0.0447125 -0.0499127 -0.0541201 0.0235534 -0.0663168 0.00296502 0.0429484 0.0524473 -0.0757257 0.0282262 0.0752629 0.0511099 0.0338921 -0.0586077 -0.00379953 -0.0401902 0.0621005 -0.0498861 -0.0328692 0.0359026 0.0675875 0.0112118 0.0289673 0.0528558 -0.0331798 -0.0303174 0.0622881 -0.0302456 0.0551711 -0.0625476 0.0156576 -0.0129669 0.0234747 -0.0716314 0.0140235 0.0523283 0.00586861 -0.0745163 0.0420761 -0.0209267 0.0462429 0.0176636 -0.0479206 -0.0692015 0.0546776 0.0653215 -0.033487 -0.0382128 0.0411238 -0.0274776 -0.0371425 -0.00992104 -0.00948271 -0.0696059 0.0617043 0.064229 0.0734607 -0.0160023 0.0551419 -0.0493476 0.00314103 0.0538768 0.0706787 0.0406277 0.0522078 0.0594958 -0.0584062 0.0458864 -0.0700831 -0.0121308 -0.026686 -0.0107129 -0.0299779 -0.0551339 0.000351974 -0.0498224 -0.0744905 -0.0639557 -0.0478902 -0.0354569 0.074727 -0.0215303 -0.0461177 0.0129495 -0.0515303 -0.0411972 0.0550205 0.0546054 -0.0584639 -0.059561 -0.045713 -0.0495381 -0.0454208 -0.0630794 0.0656269 -0.0454206 0.0704435 -0.0610932 -0.0024531 -0.0641319 -0.00888855 -0.0369484 0.00323731 0.0483333 0.0211578 -0.0572402 0.0225628 -0.0332464 -0.0490875 0.0189512 -0.0141007 -0.0106734 0.0160456 0.00249854 0.0692694 -0.00746759 -0.025763 0.0558732 0.0401668 -0.0313834 -0.00702644 -0.0505658 0.070808 -0.0485976 -0.0363616 -0.0687259 -0.0702352 0.0405594 -0.0304642 
-0.0387166 0.0449531 0.00676046 0.0235027 0.0462971 -0.068058 -0.0334329 -0.0290143 -0.0702384 0.0716342 -0.00985585 -0.0339812 0.00927012 0.0265011 -0.0453446 0.0438705 0.0530406 0.0626331 -0.0597617 -0.0410102 0.0428244 -0.0690006 -0.0622241 -0.0340081 0.0638536 -0.0255222 0.0112043 -0.0135344 0.0541342 0.0246823 0.0607426 0.00894897 -0.0112683 0.0235212 0.0520175 -0.0629819 0.026119 0.0105986 -0.0419221 0.0322403 0.0719195 0.0617156 -0.0362488 -0.0254738 -0.0187354 0.00174111 0.0190285 0.0175969 -0.00489819 0.0277178 0.062308 0.00448596 0.0749376 0.0476511 -0.0530913 -0.0190229 0.0399877 -0.0606143 -0.0438277 -0.0492851 -0.00967687 -0.0608715 0.0376029 0.0649341 -0.0596202 -0.0474729 0.0742168 0.041049 0.0521058 0.0517389 -0.0279835 -0.0125763 0.0254784 -0.0487832 -0.00249885 0.0543208 -0.0527794 -0.0594675 0.0277779 -0.0203362 -0.058249 0.0596493 0.0675225 0.027824 0.047481 -0.0140758 -0.0234316 -0.0343924 -0.0576164 0.0359704 -0.0390144 -0.0330717 0.0426177 -0.0135271 0.0679762 0.0153994 0.0729601 0.0579143 0.0127405 -0.0108298 -0.00703702 0.0628014 -0.0502244 0.0460261 -0.00304047 0.0584054 -0.048236 -0.0507713 -0.0071068 -0.0631021 0.0173707 0.0629719 0.0297626 0.0749469 0.00685513 -0.0496269 -0.0366142 0.0743098 -0.00481911 0.0746456 0.0266123 -0.0411514 0.0216986 0.0347585 0.060833 -0.0526427 0.0203838 -0.056226 -0.0474497 -0.0461644 0.0270161 0.0298001 -0.0274092 0.0447272 -0.0221135 -0.0538821 0.0622039 0.0278332 -0.051273 -0.00108784 0.046408 -0.0568183 0.0085546 -0.0505316 0.00756865 -0.0195187 0.0590682 0.0283668 -0.0131299 0.0676029 -0.0109983 -0.0335803 -0.0146003 0.067806 -0.0422181 0.0199182 0.0675165 -0.0208205 0.0552497 0.0567385 0.00258349 -0.0368105 0.0649354 -0.0201758 -0.049673 0.0690106 0.0696752 -0.0305802 -0.00513552 0.000781543 -0.0719409 -0.000417859 -0.0246037 -0.0518896 0.0212377 -0.0176631 -0.0012613 0.0553113 0.0560738 0.0352006 0.0686185 0.0167188 0.0613427 0.00347257 -0.050614 0.0514974 0.0704647 -0.0721802 0.0207266 -0.0406134 0.0260593 -0.0319675 -0.0675041 0.046191 0.032872 -0.0602145 -0.0120177 0.00743123 -0.00697193 -0.0420923 0.0342422 -0.0103123 0.0690714 0.0360682 0.070209 0.0305653 -0.0350318 0.0646705 0.0674681 -0.00454794 0.0256299 0.0459565 -0.0443214 -0.0258125 -0.019725 -0.0246167 0.0682582 -0.040889 0.0256854 0.0240905 -0.0378321 -0.012136 -0.0190373 -0.064357 0.0136572 0.0102102 0.055937 0.00422573 -0.0362309 -0.0243338 -0.0410615 -0.0585533 -0.0485641 0.0615074 0.0181177 0.0326916 -0.0396774 -0.0672923 0.0468421 0.0598064 -0.0131071 -0.0416222 -0.0551859 0.0668228 0.0652261 -0.0567564 0.0613258 0.0223108 0.0153183 -0.0653599 0.0121653 0.0319547 0.000777947 -0.0403569 -0.0150747 0.0649905 
-0.0665496 -0.027466 0.0190478 0.0161122 0.049263 -0.0579597 -0.0519005 0.0252725 0.0562476 -0.0144875 0.0216886 0.0549304 0.0051112 0.0477022 0.0285383 0.0186525 -0.00752081 -0.0409599 -0.0718933 -0.0217092 -0.0708003 0.0228267 0.0549263 0.0732304 -0.00373254 -0.0564544 -0.0640192 0.0344868 -0.0170133 -0.0737287 0.0286801 -0.0695004 -0.0743558 -0.0420038 -0.0446698 -0.0235957 0.0342227 -0.0649336 -0.0552545 -0.0293451 0.0587221 -0.0544139 0.07042 -0.0245837 0.0405838 0.0549347 -0.0460016 -0.00369134 -0.0341578 0.00680311 -0.0101034 0.0699238 0.0113383 -0.0728701 -0.0675959 0.00913602 0.0104612 0.0421395 0.0258877 -0.0656616 -0.0185996 -0.0659018 -0.0347558 -0.00672766 -0.0475807 0.0723474 -0.0462883 0.0340307 0.0732058 -0.0522841 0.0678639 0.0411566 -0.00745226 0.0724206 0.0631753 0.0518813 -0.0349346 0.0507511 -0.00505304 0.0637986 -0.0393134 0.0465017 -0.0185708 0.067845 0.0142622 0.0501696 -0.0512276 -0.0744952 -0.0656696 -0.0238636 -0.0521099 0.00218513 -0.0461964 -0.0539918 0.0421676 -0.0312915 0.0660144 -0.0217477 0.0710005 0.0130167 -0.0399852 0.0122031 -0.031461 0.0186662 -0.0411778 -0.0457928 0.036812 0.0635614 -0.0265379 0.0184674 -0.022403 -0.032398 0.0515436 0.0495322 0.0675001 -0.0754508 0.0112612 0.0435182 0.0274906 0.0380159 -0.0654336 0.0592623 0.0224206 -0.0020205 -0.0441264 -0.0490276 0.0213281 0.0640651 -0.00291279 -0.0501831 0.0466489 -0.0551461 0.0144249 -0.0528698 -0.0388981 0.0401177 -0.0705053 0.0260295 -0.0476863 0.0361496 0.0555808 -0.0110368 0.0560061 -0.0556201 -0.00466428 -0.0624699 0.0354299 -0.0363207 -0.0731169 0.0121395 0.0671264 -0.0325511 0.0510146 0.0565477 0.0296159 -0.0580223 -0.0571115 0.0040599 0.0553584 0.0495435 0.0423671 0.0322676 0.00571809 -0.00873886 0.0184424 0.0292507 -0.00232911 0.0356767 0.0488676 -0.0641416 0.0486036 -0.054244 0.010736 0.0735149 0.051769 -0.0495535 -0.0283169 -0.0456521 -0.024073 0.00460617 0.0559111 0.0742169 -0.0303705 -0.0371732 -0.0656906 -0.0274535 0.032006 0.0636123 -0.0472225 0.0557096 0.0605471 -0.0669534 0.0687831 -0.0547969 -0.0400742 0.0460079 0.0248077 -0.063067 -0.061923 -0.0719601 0.0125889 -0.0201341 0.0373445 0.0179836 -0.0585535 0.0571167 -0.0620965 0.00678098 -0.0639382 -0.0603262 -0.0692191 0.0318781 -0.0320792 0.0418397 0.0689654 -0.0702526 0.0346973 0.0679505 0.0191917 -0.0152138 0.0324134 0.0745929 0.0714492 0.0513704 0.0349806 -0.0606498 -0.0670695 -0.011261 -0.0676593 -0.056978 -0.00353463 0.0219378 0.00381668 0.0633284 -0.0500536 0.0758541 0.0373258 -0.04729 -0.035216 0.0247557 0.0681449 0.051586 0.0360035 0.0175395 -0.0279203 -0.0514768 -0.00478129 -0.050604 -0.0720926 -0.0220257 0.0655719 0.0073017 -0.00568564 0.0573464 0.0653435 0.021334 
0.0240722 0.00165042 -0.0697202 -0.00564205 0.0173375 0.0371278 -0.0634226 -0.0417052 0.0481532 -0.0646582 -0.0052039 0.0563877 0.00794238 0.0580391 -0.0632513 -0.0592757 0.0445423 0.0216289 -0.00312367 -0.0134259 -0.022614 -0.0640685 0.0296403 0.0216045 0.0574134 0.0586603 0.0432341 -0.0466043 0.04866 0.0447444 -0.0125178 -0.0118136 0.0674077 -0.0153793 0.0298908 0.044233 0.0667931 -0.0051574 0.0123631 0.0271112 -0.0328962 -0.0450809 -0.0685545 0.0711568 0.0471089 0.0429372 0.0454338 -0.0123173 0.0377252 -0.0557883 -0.0324606 -0.0336464 -0.00651263 0.0710672 0.0191631 0.0724369 0.0582493 -0.034922 -0.0567186 -0.0283516 -0.0480399 0.0356954 0.0291153 0.0287766 0.060766 0.0279009 -0.0463121 0.0675916 0.0717177 0.00407806 0.0546851 0.0259608 -0.0543669 0.00778404 0.0275713 0.0302741 -0.0680243 -0.0591186 -0.0623267 0.0273799 0.0540116 -0.0738908 -0.0467332 0.0564478 -0.031547 0.0422991 0.00354461 -0.0711186 0.0504135 0.033716 -0.0237195 -0.00874599 -0.048003 -0.0613582 -0.0514536 0.0339794 0.0174375 0.0389476 0.0316385 -0.0287387 -0.0562212 -0.0285084 0.0667524 0.0328882 0.0673481 0.022659 -0.0552331 -0.0731709 -0.0154998 -0.0678721 -0.0119656 -0.0267549 -0.0233335 -0.0448665 0.0560823 0.0276564 -0.0659615 0.0358423 0.0442851 0.0159746 -0.0578553 0.0343979 0.0516465 0.0348063 0.0681009 0.0058696 -0.0724992 -0.0673744 -0.057247 0.00381985 0.03893 -0.0396767 -0.0152237 0.0225738 -0.0757825 -0.0216668 -0.059466 0.0387455 0.0748277 -0.0474364 -0.0120543 0.0487617 0.00505351 0.0739822 0.0250632 -0.0132952 -0.0309843 0.0307302 -0.0361397 -0.0622784 0.0360901 -0.016781 -0.0465758 0.00666139 0.0190181 0.00294508 0.0186581 -0.0267191 -0.0528275 0.020821 -0.0094693 0.0231823 -0.0132009 -0.0747158 0.0510912 0.0679359 -0.0273103 -0.0259445 0.0468641 -0.0700848 -0.00761617 -0.0699721 0.0600419 -0.0218162 -0.0299975 -0.0743317 -0.044137 -0.0357549 0.0637524 0.0240756 -0.016086 0.0204285 -0.0063928 -0.0611002 0.0450958 0.0404127 -0.016791 -0.0461601 -0.0406935 -0.070575 -0.0693158 -0.0214101 0.0619824 -0.0335116 -0.0660175 0.0182323 -0.033585 0.0141115 -0.0138273 0.0244611 -0.0320658 -0.00545715 -0.00211637 -0.0343651 0.0487093 -0.0189833 -0.0226352 0.0697123 0.0224472 -0.0626971 -0.0463438 -0.0606023 0.0622425 -0.0262475 -0.022909 -0.030903 -0.0351009 0.0461204 -0.03482 0.00646279 -0.025225 0.0532118 -0.0735831 0.0103117 -0.061001 0.0447342 0.03617 -0.0235133 -0.0566952 0.0254976 0.0278739 0.0535398 -0.0424773 -0.0234853 0.0353186 0.0339198 -0.00448952 -0.0400715 -0.00457522 0.0507436 0.046962 0.000569257 0.0689831 0.0746725 -0.0536108 -0.00184684 -0.0286744 0.0234019 0.0325271 0.0259847 -0.0251129 -0.0733127 -0.0692995 0.0316783 0.00646502 0.0596754 
-0.0328256 -0.0266612 0.0707644 0.0526865 -0.0120869 -0.0648555 0.052554 0.0653976 -0.0566058 -0.0216257 0.049812 -0.0446347 0.0412768 0.0491398 0.0260501 -0.0305941 0.0563401 -0.016231 0.0243242 -0.0497684 -0.00932234 0.0502148 -0.0632564 -0.0427315 0.0442226 0.0466139 0.00478859 0.0626173 -0.0494689 0.0752828 0.0265186 0.00213829 0.0135784 0.061843 0.07216 -0.0456487 -0.022067 0.0658627 -0.0457308 0.0159284 0.0137162 0.0451792 0.020862 0.0106282 0.00216505 0.0164123 0.039199 -0.0755574 -0.0580085 -0.0233305 0.0200643 -0.00178517 -0.00789234 0.0317913 -0.0554094 -0.0207579 0.00141776 -0.0560209 0.000645991 0.0664497 0.0238551 0.0745776 -0.00395814 -0.0328311 0.00351656 -0.0290611 0.00231045 -0.0387718 -0.0414047 -0.0192352 0.0665799 0.00567329 0.0318614 -0.0232989 -0.0171149 -0.0478027 0.0687863 0.0751179 0.0420431 0.00270751 0.00434226 0.0457126 0.0759509 0.0653876 0.00439224 -0.0281873 0.0424198 0.0188047 -0.0723931 0.043451 -0.0317272 0.0503298 -0.00537594 -0.0125757 0.0436003 -0.0746659 0.00921563 0.0430516 -0.0620203 0.0651261 0.069848 0.0384328 0.0758712 -0.00517763 -0.04703 0.0241855 0.011965 0.0133274 0.00546289 0.0615205 -0.0105818 0.0676002 0.00207229 0.0561507 -0.0042426 0.0459631 0.0528808 0.0343916 0.0251303 -0.0395612 -0.048505 -0.00544051 0.0328718 0.0194603 -0.00848057 -0.0511972 -0.0233851 -0.00200527 -0.0709286 -0.0659049 0.0429071 -0.0332224 -0.0194467 -0.0664466 -0.0503877 -0.0579359 -0.0511908 0.0468107 0.0691267 0.0592709 -0.0240091 -0.0294231 0.0433674 0.0137715 0.0376064 -0.0203891 -0.00364304 0.0326806 -0.0690916 0.00623138 -0.0302131 -0.0231276 0.00712884 0.0752212 0.0622613 0.0597921 0.0308693 0.0248969 0.0494497 0.0721486 0.000668753 0.0147986 -0.058098 -0.0613342 0.0373702 0.0349678 -0.0519586 0.0468593 -0.0295175 -0.00747056 0.0062129 0.0656668 0.0573854 -0.0421936 -0.0652662 0.0247239 -0.0033886 0.0563814 -0.0563945 0.00291172 0.0239434 -0.051443 0.0348831 -0.0559026 -0.0198045 0.0149771 0.072958 0.0267475 0.0729954 -0.0206166 0.0353056 -0.017139 -0.0743207 0.0209335 0.0678512 0.000743733 0.0346021 -0.0754733 -0.0610095 0.0344801 -0.0613369 0.0176841 -0.0247515 -0.0317677 0.0374454 -0.0269686 -0.0271862 0.0739399 0.0163217 0.0364024 0.0650448 0.000615964 -0.0228436 -0.0312834 -0.0532341 -0.0285828 -0.0691461 -0.0546233 -0.0745276 0.00930866 0.0589326 0.0282704 -0.0267234 0.0417757 -0.0478772 0.0537955 0.0414443 -0.0699639 0.0265172 -0.049007 -0.0690657 -0.0126099 0.0397103 0.0083874 0.0175151 0.0108769 0.0107085 0.0383387 0.0257938 -0.0599413 0.0513702 -0.00883666 0.0462936 -0.0133782 0.0747299 0.0390769 -0.00561317 -0.054427 0.0221378 0.035694 0.0134771 0.0696367 0.0344239 0.0404281 0.062886 -0.0506347 
-0.00888607 -0.0252173 -0.0367547 0.0705288 0.0587723 -0.0251885 -0.0509942 -0.0556984 -0.0458374 0.00685921 -0.0323037 0.0382719 -0.0438449 0.0749217 0.0176102 -0.0156929 -0.0251938 0.021287 0.0676834 -0.0444278 -0.0689351 -0.0561385 0.0597563 0.003567 -0.0449103 0.0729664 0.00626441 -0.0248897 0.00670998 0.0694767 0.0622763 0.0740947 -0.0319609 -0.0118058 -0.0306223 -0.0359465 -0.00562439 -0.0670245 0.0717209 0.0360721 0.0693899 0.0264827 0.046734 -0.0745082 0.023 0.0289033 0.0349018 -0.0517722 -0.0737829 0.0622296 0.0608624 -0.0555019 -0.0380631 0.060999 -0.0347469 0.0316849 -0.0737882 0.0667217 0.0668683 -0.041092 -0.045637 -0.0413438 0.0111864 -0.0343432 0.0160229 -0.0484475 0.0435944 -0.0432199 -0.0348952 0.0631666 0.0638333 -0.0470523 -0.00177403 0.017379 -0.00557564 0.0492677 0.0649893 -0.0113763 0.0534636 -0.0357539 -0.0127869 0.00797531 0.0456657 -0.0703678 0.0677169 0.00339437 -0.0570424 -0.0607612 0.0454392 -0.0740677 0.0153986 -0.034568 -0.01667 0.0210947 0.0487389 0.0558828 -0.0154509 -0.0663654 -0.0505182 -0.0443669 -0.0447806 -0.0346799 0.022587 -0.00857588 -0.00455671 0.0564891 0.0472895 0.0129393 0.0460225 -0.0744787 0.00313182 -0.0491465 -0.0255948 -0.0477532 0.0478053 -0.0183296 -0.025623 -0.0216192 0.00804362 0.0758302 0.0699843 0.046521 -0.0182381 -0.0267787 -0.0289344 -0.0122936 -0.0438628 -0.0237261 0.0271043 -0.0354499 0.0710194 -0.0152739 0.00371188 -0.0295662 0.0503799 -0.0257317 -0.000182838 -0.0452439 -0.0750709 -0.00137553 -0.0111731 0.0477534 -0.0611077 0.00953447 0.0151442 0.026115 0.0125509 -0.0163676 0.0597284 -0.0528551 -0.0481774 -0.0594205 -0.0713924 -0.035484 -0.037674 -0.0246267 0.0645848 0.0484949 0.0121205 0.0735295 0.000159162 0.0709703 0.0243145 -0.0603806 0.0533798 -0.0616645 -0.058365 0.015799 0.015311 0.00191247 -0.0506728 -0.0646564 0.0757335 0.0390057 -0.0137068 0.0159416 -0.0152015 -0.00663393 -0.0483255 0.0591682 -0.0016378 -0.0283223 0.0660067 0.025556 -0.0602315 0.0752369 0.0520723 -0.0380665 0.0316236 0.0670838 0.0394148 0.0109266 0.0503592 0.0618625 0.0396325 0.0525799 0.0250176 0.0692848 0.0159741 -0.0529866 0.0572801 0.0186767 -0.0727274 -0.0455134 -0.0757287 0.05164 0.0716589 0.0300585 0.0286835 0.0584059 0.0260988 0.00971295 0.0601683 0.03114 0.010186 0.00805067 -0.0710185 0.0280825 0.0652274 0.0715588 0.0220969 -0.0436838 -0.0690941 -0.023575 -0.0415683 0.0491194 -0.00712296 0.0573512 -0.00315871 0.0103128 -0.0670166 0.00547409 0.000474317 -0.019894 -0.00367684 0.0743254 0.0386602 0.0406916 0.0727334 -0.0553879 0.0683171 0.0650112 -0.00492849 0.0483651 0.0632884 -0.0309085 0.0664054 0.0498162 0.0554021 -0.0667058 -0.044373 -0.0284526 -0.0581047 -0.026593 0.0609429 -0.0174762 
0.0192315 -0.00406548 0.0259259 -0.0400602 -0.00341528 -0.0691995 -0.0551549 0.0422266 0.0199209 -0.0069899 -0.0623149 -0.0149198 -0.0522592 0.0222206 -0.000967853 0.00263531 -0.0754123 0.0719766 -0.0392366 -0.0239059 0.0672817 0.00219184 0.0582936 -0.0728213 -0.00656676 -0.0176459 0.0577175 -0.0122939 -0.0560811 0.0268717 0.0551896 0.0696408 0.00925826 -0.00551384 0.00445634 -0.0489577 0.00332058 0.0293849 0.072149 -0.00614883 0.0467567 -0.0269976 0.0168846 -0.0342509 0.0219599 0.0169755 0.0617855 0.0572078 -0.0721757 0.0611058 -0.0329104 -0.0417747 -0.0576973 -0.0473063 -0.00820137 -0.00204077 -0.0573879 -0.0710534 -0.0469167 0.0726313 0.0615071 0.00628723 0.0289438 0.0152058 0.0560683 -0.0647743 0.0674815 0.0619218 0.0511666 -0.0604388 0.075618 -0.0215855 -0.0703541 -0.0101914 0.0744768 -0.0698428 0.0248739 -0.06465 0.0510205 0.0227191 0.0244822 0.00297797 0.0671597 0.0074549 0.00471301 0.00169003 0.0212909 0.00174094 0.0148265 -0.0409553 -0.00702337 0.042192 0.0729351 0.0358678 -0.00658307 -0.0488703 -0.0448421 -0.000244132 0.0149717 -0.00816575 -0.029122 -0.0466904 -0.0294126 0.0536896 -0.0503924 0.0692962 -0.0737155 -0.0567049 0.0568993 -0.0163078 -0.00114589 0.044377 -0.0223561 -0.00490992 -9.19078e-05 0.0698426 0.0660278 0.0696275 0.0657437 -0.0696754 -0.0458545 -0.0477258 0.0676361 -0.053298 0.0384565 -0.0633758 -0.0135425 0.0757348 -0.0608231 -0.0491172 0.00648668 -0.0589918 0.0487851 -0.0694244 0.0166326 -0.0334883 -0.0521327 0.0480782 -0.0578721 -0.0672658 0.000538252 0.00502526 -0.0750524 0.0344481 0.040771 0.0537972 0.0603193 0.00186295 -0.00542196 0.0335188 0.0580864 -0.0194129 0.0364049 0.0478671 -0.0605876 -0.0649332 -0.07363 0.0311239 0.0756614 0.0578996 0.00356858 0.0712324 0.0554697 -0.0465082 -0.0290308 0.0356766 -0.0149744 -0.0527523 0.0539941 0.0640838 0.0672149 0.0659822 0.0633455 0.023706 0.0338788 -0.0567772 0.0119838 -0.0561776 0.00343021 0.018101 0.0335917 -0.00600041 0.0156678 -0.00847828 -0.00245978 -0.0206913 -0.0142468 -0.0186213 0.0659649 -0.0214408 -0.072468 -0.0254312 -0.0626023 0.0175197 -0.0134822 0.0560717 0.075027 -0.0677142 0.021507 -0.0335607 0.0116712 0.0327104 0.0227304 0.02744 0.0412498 0.0755523 -0.0187604 0.0601723 0.0368494 -0.072106 -0.0221137 0.0640626 -0.0728146 0.0628667 -0.0491787 0.0168113 -0.0533216 -0.0351993 -0.0729555 0.0670887 -0.0640427 0.0464025 0.0295344 -0.0315773 0.017921 0.0447119 0.0290143 -0.0717546 -0.00145318 0.0251043 -0.0695996 -0.0634732 -0.0615847 0.0553628 0.0343305 -0.0480003 -0.0479025 -0.0439816 -0.0736259 -0.027289 -0.0317883 0.0722078 -0.0344884 -0.0200181 0.0596566 -0.0598822 -0.0386266 0.00514788 -0.00215156 -0.0754361 0.07262 0.00222948 -0.031059 -0.0124956 -0.0255745 0.0134898 
-0.0356784 0.0614398 -0.0279294 -0.00420417 -0.06948 0.00377039 0.0532293 -0.00383384 0.00229561 0.00655206 -0.0454227 0.00208439 -0.0267874 0.020647 0.0559594 0.0342331 -0.0284656 0.0735347 -0.0385359 0.000691607 -0.0740606 0.0152612 -0.0228328 0.030736 0.0685974 -0.0463825 -0.0378233 0.029287 -0.0618358 0.022235 0.0517779 -0.0348662 -0.010607 -0.038656 0.0752303 -0.060998 0.011526 0.0726471 0.025794 0.0753226 -0.00905287 -0.0720215 0.037747 0.0673486 -0.032428 0.0344835 0.0318209 0.00722489 -0.0679696 -0.0689727 0.0473987 -0.00491562 0.0478121 0.0742091 0.0292607 0.0243905 0.00917953 -0.0487485 -0.0485514 -0.0430718 -0.0744369 -0.0738044 0.0569329 0.0735388 -0.0723096 -0.0157142 0.0119425 0.0269778 -0.043916 -0.0707267 -0.0738 -0.0515742 -0.00526364 0.0399654 -0.00584207 0.0150408 -0.0510527 -0.0427891 -0.0384851 -0.0229669 0.0398376 0.0537729 -0.057727 -0.0122371 -0.0396138 -0.0631572 0.044029 -0.0540612 -0.0665806 0.0428388 0.0464256 -0.0575464 0.0434569 -0.0239124 -0.00689332 0.0151008 0.069181 0.036928 -0.0292523 0.0750149 0.0591685 -0.0584672 0.00310428 0.0646741 -0.0453389 0.0505438 0.0499281 -0.0293311 0.0454892 0.0596159 -0.0583243 0.0457554 -0.0258665 -0.064671 -0.022272 -0.012494 -0.0272767 0.00750548 0.0205049 0.0181459 0.0261121 -0.0132716 -0.0403484 -0.0563489 0.00540617 -0.0396349 0.0757801 0.0222093 -0.0440459 -0.0335244 0.0354153 0.0587498 0.0663235 0.0525444 -0.0515577 0.0648506 0.0619971 0.0300697 0.0175996 -0.0306601 -0.0158044 -0.0639398 -0.0421445 0.0537062 0.0203779 -0.00751765 0.00148879 -0.0505642 -0.0353145 -0.0346876 0.0204914 0.0236994 -0.0743373 -0.0565759 0.0134083 -0.040588 -0.0283094 0.0625976 0.0547398 -0.00508188 0.0298404 0.0274364 -0.0264247 -0.0692093 -0.0678764 -0.0512309 -0.0488969 -0.0210411 -0.0486719 0.0489828 -0.0531306 0.0713379 0.0678557 0.0233266 -0.0421224 -0.00738086 0.0119204 -0.0501923 0.0482138 -0.024797 -0.00944978 -0.0112311 -0.0205228 0.00329686 -0.0177601 -0.00455554 0.0557165 0.0449126 -0.0450156 0.0499582 -0.050368 0.0253789 0.0626157 -0.0601788 0.0234227 0.0717163 0.0661969 -0.0121899 -0.0697996 0.0129809 -0.0287784 0.0379072 0.056396 -0.0619234 0.00230777 -0.044324 -0.0650745 0.00243108 0.0204544 0.0262853 0.0100755 0.0385976 0.0399088 -0.0344755 0.0519762 -0.0458403 0.0511873 -0.0561129 0.0214315 -0.0263627 0.0318106 0.0518126 -0.066148 0.0338831 0.00357833 -0.061192 -0.00318409 -0.0717706 -0.0543862 0.00468791 0.00412028 0.0448871 -0.0250749 -0.0751903 0.0655799 0.070896 0.0484405 0.0533456 -0.0528309 0.0739018 0.0568387 -0.0451931 -0.0747848 0.0525828 -0.0510684 -0.0729165 0.00325856 -0.0302298 -0.0163275 0.0517162 0.0542184 -0.00166668 0.0194616 -0.0254751 -0.0750856 0.00628304 
-0.0158752 0.062712 0.0714165 -0.0329118 0.00985026 0.0299251 -0.0483379 -0.0120667 -0.0475556 -0.00129821 -0.0338427 -0.0642621 0.0563591 0.0498203 0.0565978 0.0754165 -0.0377796 -0.0384717 -0.0434074 -0.0310814 0.00621823 0.0471044 0.0468574 0.0570771 0.0254015 0.0209365 -0.00958538 0.0323981 -0.010842 0.0488105 0.0248075 0.0264573 0.0399318 0.0195276 -0.067156 0.0258559 0.01687 0.0431864 -0.0110126 0.0737071 0.0150545 -0.0613754 0.00736624 -0.0536263 0.00755365 0.0421015 0.0685742 -0.0744846 -0.0493401 -0.0489796 0.0136951 0.0401157 0.0600732 -0.0200127 -0.0393832 0.0532202 -0.0262788 -0.0412345 0.0374356 0.0155281 -0.0159615 -0.0416949 0.0480662 0.00191159 -0.050477 0.0572015 -0.0756577 0.00970302 0.00942748 -0.0664293 0.0694873 -0.0135627 0.0713585 -0.0723804 0.00557797 -0.0243966 -0.0597331 -0.073484 -0.0440289 0.0523324 0.0526072 0.00359035 0.0341073 0.0127345 -0.0282376 -0.0270148 0.0146069 0.0138663 0.0705452 -0.0511665 0.0253651 -0.0413539 -0.0433515 -0.0287487 0.038192 0.00966357 -0.0268707 -0.051117 -0.0130301 0.0653476 -0.0314446 0.0190749 -0.0734824 0.0651383 0.0690831 -0.0714164 0.0651686 0.0396818 -0.0725384 -0.0267054 -0.0713889 -0.0121567 0.0244751 -0.0401371 0.0585266 0.029786 -0.0449557 -0.0233378 -0.0164404 0.039286 -0.0119945 -0.00691338 -0.0741545 -0.00840113 -0.0286981 0.025658 -0.0453351 -0.0736235 0.0551396 0.0606764 -0.0486312 0.0473823 -0.0656467 0.00547263 -0.035923 0.047385 -0.0294225 -0.000106269 -0.00117721 0.0162363 0.0318889 -0.0346823 -0.0359672 0.0617502 -0.0514465 0.0743903 -0.000793396 -0.0504928 -0.0491595 0.0359958 -0.0307053 0.00630576 0.0656187 -0.0175881 -0.0421804 0.0137769 -0.0583848 -0.0340887 0.0692401 0.02687 -0.0105347 -0.00997167 0.0450683 -0.0213606 0.0408309 -0.0549481 -0.0624189 0.0286977 -0.0591917 -0.0355597 0.0416761 0.00831813 -0.0156779 -0.045273 0.0210262 -0.0446088 0.0391348 -0.0165125 -0.0347522 0.0610628 0.0225176 -0.0457965 -0.0614042 -0.0747413 0.0546476 0.0546595 0.0677085 -0.0245991 -0.0567126 0.00131497 0.0295818 -0.0576711 -0.00658693 -0.053788 -0.0490392 -0.0590277 -0.0315711 0.0244501 0.0435073 -0.050201 0.0482265 0.0496754 -0.00634368 -0.075928 -0.0270323 -0.0164571 -0.0249161 0.0480437 0.00242575 0.0710115 0.00482032 -0.0320916 -0.0348306 -0.0594291 -0.0433039 -0.0400476 -0.0169374 -0.0624643 0.0218204 0.000455599 0.0729816 0.056787 0.0490123 0.0139356 -0.000877192 -0.0583266 -0.0215042 -0.0204685 -0.0254196 -0.0197248 0.0361549 -0.023872 -0.00701654 0.0481942 -0.00272922 0.00477819 -0.00516372 0.0420516 0.0250553 0.0594246 -0.075294 -0.00980655 -0.0639521 -0.0614227 -0.0492774 0.00954778 -0.03086 -0.0603033 -0.0282513 0.0680783 0.0473646 0.0181694 -0.0680372 0.0619073 0.0163791 0.0392822 
-0.000885559 0.0549076 -0.0169644 0.066368 -0.0588515 0.0646067 -0.047813 -0.0458034 0.0453533 0.000580157 0.0441603 0.0203107 -0.00938164 -0.0727967 -0.0315132 0.038627 0.0734227 -0.0469395 0.00684517 -0.0210642 0.0419415 -0.056346 -0.0198737 0.0568395 -0.051122 0.000734901 -0.016916 0.0747396 0.00911155 0.058077 -0.0238057 -0.0114922 0.0425108 -0.00723331 -0.0257778 -0.0506579 -0.00658033 -0.07232 -0.056648 -0.0110231 0.0330695 0.0345716 0.0145411 -0.0646159 -0.0352935 0.0571091 -0.0386458 0.0442818 0.0168304 -0.0542996 0.043627 -0.0200988 -7.32115e-05 0.0125531 0.0591978 -0.000413495 -0.00389346 0.0316031 0.0128859 0.0569342 0.0536411 -0.0457987 0.0590598 -0.0326198 -0.0121149 -0.0219816 -0.0263393 -0.060124 0.046138 0.0429476 -0.00071269 -0.0729775 -0.0515074 0.0194308 -0.0149354 0.0516381 0.0312648 -0.00897249 0.0149157 0.0664398 -0.0204687 0.00305114 0.0492834 -0.0396771 0.0728992 0.0324258 0.0710734 -0.0314938 0.0213337 0.0458228 -0.0222574 0.0594632 0.0659106 -0.0642789 -0.0142469 -0.0656757 -0.007527 -0.0215896 -0.0497048 0.0144933 -0.00587083 -0.00868598 0.0491806 -0.0591652 0.0227019 0.0430775 0.0397559 0.0335176 0.0317992 0.00855909 0.0256006 -0.0612007 0.0124227 -0.0264315 0.00925065 0.00499998 -8.32252e-05 -0.00719309 -0.0702094 -0.0235669 -0.0530408 -0.0324434 -0.0136699 0.0364425 0.0467917 0.0271975 0.0650173 0.0456985 0.0425858 0.0102759 0.0221164 0.0601693 0.0707103 0.0156605 -0.023708 0.00755105 0.0103681 0.0217905 -0.0231042 -0.0200469 0.0390557 -1.4393e-05 -0.0685692 0.0276366 0.000252161 0.0533677 0.0574045 -0.0568955 0.0330169 0.00791956 0.0307767 0.0527145 -0.0229051 -0.0675665 0.018245 -0.0215191 -0.0295019 -0.0175486 0.0374382 -0.0747926 0.0746872 0.0116334 0.0514558 -0.0272466 0.0316037 -0.0561555 0.0109912 -0.0209679 -0.0700672 -0.0132101 -0.0144349 -0.0246228 -0.0511739 -0.029475 0.0250351 -0.0357212 -0.0704963 -0.0310977 -0.0613002 0.010964 -0.0287189 0.0637777 0.053432 -0.0643143 -0.0542826 -0.00364848 -0.0251339 0.0283267 -0.0738775 -0.0443387 -0.0136449 0.0550405 0.0217802 -0.0295677 -0.0132072 -0.0528552 -0.0238577 0.026133 0.0565746 0.0233706 -0.0413933 -0.0746523 0.0589316 -0.0516901 -0.0330945 -0.0305631 -0.025584 -0.0136674 -0.042053 0.000767749 0.0511449 -0.0419967 0.0167031 -0.0393342 0.00905889 -0.0584946 0.0268844 0.0719505 0.0516031 -0.0404536 0.0665907 -0.068032 0.037662 -0.00121898 0.0544421 -0.0698052 -0.0424727 0.0503811 -0.0420576 0.0489731 -0.0021329 0.0361615 0.0671985 0.0390038 0.0138124 0.0370923 -0.0584417 0.0409827 0.0403626 0.0495658 0.0356992 -0.0237894 0.0370711 0.0519895 -0.067134 -0.0310092 -0.0357696 -0.0447176 0.0709663 0.0184958 0.0571786 -0.0188681 -0.0238832 0.0672402 -0.0691355 0.0470539 
-0.0244011 -0.0300162 -0.060578 0.052895 0.046708 -0.0159482 0.0740902 0.029069 -0.00925319 -0.0524937 0.0105504 0.0695715 -0.0605676 0.0420178 0.0528599 0.0525547 0.0288626 0.0447843 0.0628879 -0.0330601 -0.0700311 -0.0252636 -0.0122474 0.00759698 -0.0508183 0.0211046 0.0394935 0.0230552 0.0198074 0.0207464 -0.0260459 -0.0754335 0.0392981 0.0730022 0.0118512 0.0529474 0.0229619 -0.0134884 -0.0562025 -0.0254772 0.0731845 0.0502384 0.0109106 -0.0394216 0.0314284 -0.00382353 0.0176192 -0.074093 -0.00120166 0.048283 -0.0712903 -0.0331551 0.0225387 0.0322806 0.0616859 -0.00911682 -0.00162551 -0.0230907 -0.0164335 0.0180192 -0.0388011 0.00203151 0.0677314 -0.0513787 0.0677235 0.00134637 0.0635798 -0.025614 0.0290972 -0.0498755 -0.0063243 -0.0525479 -0.0635798 -0.0438015 -0.0550561 0.055477 -0.039068 -0.0313423 -0.0342825 -0.0740241 0.036788 0.0593121 0.0367259 -0.0469197 0.026315 0.0721532 0.0697884 0.0629235 -0.053483 -0.0149801 0.0239892 0.000968984 0.021001 -0.0322797 0.0385472 -0.0560228 -0.0671413 -0.0560384 -0.068276 0.0372336 -0.0372304 0.0570541 0.0419229 -0.0209406 0.0444454 -0.0312941 -0.018584 0.0720935 0.0696674 0.0427148 0.0501006 0.06994 0.0243038 0.0594069 -0.0157113 0.0122484 -0.0404251 -0.051326 -0.0155876 0.0349599 0.0223339 0.000833547 0.03349 0.03803 -0.0565116 -0.0347259 -0.0445327 0.057586 -0.0252392 -0.0264097 -0.00351749 0.055276 0.0746259 -0.00538975 -0.00680461 0.019225 -0.02 -0.00502185 0.00919383 -0.0177258 -0.0599781 0.0102974 -0.0745038 -0.013259 -0.0137872 -0.00494394 0.01897 0.0328127 -0.047559 0.0138043 0.0506906 0.0625914 -0.0336345 0.0748282 0.028942 -0.0330338 -0.029953 -0.0302826 0.0578823 -0.0304006 0.0690351 0.0743302 -0.041419 -0.0501957 0.0669445 -0.0349932 0.0491022 -0.0154159 0.0414383 0.0584229 -0.0636845 0.0732526 0.059345 0.0320873 0.0748241 -0.0444659 -0.0602031 0.0605864 0.0470297 0.0224841 0.0412648 -0.0587247 0.0388477 5.32927e-05 -0.0373036 -0.00871501 -0.0631377 0.0673318 -0.00878342 0.0378045 0.0620759 -0.0373148 -0.0574988 0.0634394 -0.0544388 0.0495485 -0.0210427 0.0308762 -0.0364616 -0.0651518 -0.00709659 -0.0214421 0.020116 -0.00895657 0.0234979 -0.0638521 -0.0625245 0.0332763 -0.0607132 -0.0280582 0.0422946 0.0502508 -0.0473903 -0.0628832 -0.00590789 -0.0362234 -0.033241 -0.0624305 -0.0752311 -0.0663847 0.0447094 -0.055118 -0.071312 -0.0110901 0.025747 0.0424596 0.0608049 -0.0545341 -0.0585989 -0.0599021 0.050824 0.00881502 -0.0424961 -0.0483302 0.0361674 -0.0469672 -0.0391933 -0.0541158 -0.0250203 0.0108889 0.0130954 -0.0683517 -0.0508732 -0.0539091 -0.0676091 -0.00735004 0.0488808 -0.000134268 -0.0227615 0.0488725 -0.041085 -0.0307489 -0.00598477 0.0282684 0.0530599 -0.0450565 
0.0201287 0.0214582 -0.0220287 -0.00523316 -0.0420093 -0.00154128 0.0139935 0.0107709 -0.0699123 -0.0596815 -0.0457723 -0.0432581 -0.0584162 -0.00144612 0.00172272 -0.0472945 -0.0744581 -0.0089194 0.000525754 0.0137983 0.0514836 0.047073 -0.0674731 0.0476352 -0.0329657 -0.0258982 0.0598903 -0.000745666 0.0645593 0.00937872 -0.0375538 -0.0296626 -0.00830263 -0.0439938 0.016181 0.0605363 0.0376165 0.045151 -0.00403262 0.014181 0.0213438 -0.00572178 0.0632654 -0.00691202 0.047587 -0.0638887 0.00680526 -0.0363808 -0.04916 -0.000502572 -0.0466459 0.0502882 0.0777293 -0.0302243 0.0363455 -0.0295487 -0.018098 0.0621289 -0.00465773 -0.0682513 0.0821546 -0.0453931 -0.0280047 0.0249037 -0.0334763 -0.0430711 -0.0351242 0.0667864 0.0396653 -0.0176919 -0.021716 0.0484247 -0.073129 -0.0547027 -0.0534166 -0.0460047 -0.0505925 -0.0419543 0.0733879 0.05967 -0.0370723 0.0749982 0.0132413 0.0624174 -0.0393703 -0.0439063 0.0811904 0.0153006 0.00786275 -0.0471305 -0.035931 -2.26438e-05 0.0179557 0.00376873 -0.0269497 0.0196701 -0.043207 -0.0113903 0.0737402 0.0417182 0.005568 0.0628557 -0.0404619 -0.0177382 -0.0488491 -0.0316607 0.0503039 -0.0166706 -0.0534303 0.0539914 0.0626407 0.049877 0.0117652 0.0319557 -0.0059516 0.0537853 0.0249228 0.0564503 0.0673771 -0.0546318 -0.0626231 0.03913 -0.00372405 0.00154836 -0.0288225 0.02684 -0.0345228 -0.0615319 -0.0705081 -0.051158 0.0443519 -0.0542368 -0.0342958 0.0189759 0.0344672 0.0485682 0.0470223 0.0592426 0.0266814 0.0652272 0.04598 0.0468847 0.0486279 0.0351257 0.0083068 -0.0118899 -0.0279345 0.0702923 0.0727981 0.0442701 -0.0161916 0.0352204 -0.0696976 -0.00906911 -0.0375377 0.0525883 -0.000292307 0.0532158 -0.00362484 0.0018312 0.00623431 0.0480965 -0.0617726 0.0257026 -0.0384716 0.0146886 0.0506583 0.00817772 -0.0395365 -0.0304367 0.00784471 -0.0293363 -0.0582331 0.00453821 0.00426677 -0.0496582 -0.0709343 -0.0660344 0.0292274 -0.0392663 0.0265183 0.00723489 0.0208195 0.0653907 0.0462711 -0.0323267 -0.0357719 -0.0196385 -0.0110681 -0.0715166 0.0703658 -0.0724934 -0.0169364 -0.0284697 -0.0522665 -0.0168513 -0.00110929 -0.00598177 0.0205388 0.00787234 -0.0634428 -0.0446881 0.0504699 -0.0666382 -0.0383915 -0.00450354 -0.0755615 -0.0536808 0.0374635 -0.0195089 -0.0504 0.0582292 -0.00101574 0.0587037 0.0159668 0.0732544 0.000212541 0.0589748 0.0638405 0.0137277 -0.0440803 0.0531179 -0.0687057 0.00318361 -0.0513732 -0.0743146 0.0543641 0.0385654 0.00341402 -0.0394742 -0.0310149 -0.016521 -0.0734526 -0.0403451 0.0159644 -0.0539301 0.023035 -0.00515883 -0.000233108 0.0676903 -0.00478935 -0.0107843 -0.0159942 -0.028992 -0.0298135 0.00971552 -0.0426728 -0.0702703 0.0617338 0.0478271 0.0684524 -0.0679533 0.0452996 -0.0444028 0.0371771 -0.0169665 
-0.0467636 -0.0730298 -0.021123 0.0476707 0.0683008 -0.0685929 0.0260655 -0.0385648 0.0604666 -0.045746 0.0695032 -0.0459169 -0.0219139 0.01496 -0.0246903 -0.00560793 0.00639198 -0.0488715 -0.0629968 0.0273856 0.0017374 -0.00483768 -0.0335222 0.0486325 -0.0659641 -0.0780747 0.0591691 0.00663127 0.0131819 -0.0258689 0.0413599 0.0259417 -0.0489502 0.0349539 -0.0899358 0.0935863 -0.00365165 0.052345 -0.0287054 0.00218081 0.011424 -0.00983032 0.0374312 0.0114566 0.0367127 -0.0553649 -0.0325127 0.0137311 0.0841054 0.00505617 -0.0356584 0.00896427 -0.030012 -0.0459212 -0.0561136 0.00698426 0.0201831 -0.00674248 0.0207276 -0.0659669 0.0857935 -0.0206067 0.0476362 0.0328483 0.0386601 -0.0378206 -0.0791652 0.0363651 -0.0705015 0.0531033 0.0440161 -0.0701048 -0.00110001 0.00376502 -0.0367126 -0.0879173 0.00198193 -0.0191081 0.0141008 0.0129968 0.026186 -0.00279306 0.057255 -0.0039398 -0.015152 -0.0362088 0.0566881 -0.0172947 0.0236973 -0.0651125 -0.0483578 -0.0109026 -0.00222747 0.0258378 0.054986 0.0119308 0.0669029 -0.0479508 0.0367415 0.040612 -0.0127963 -0.0703981 0.057715 0.0037379 -0.0433498 0.0660889 -0.0271423 0.0172606 -0.0239452 -0.0606457 0.0653086 -0.0220848 0.0540808 -0.0240617 -0.0286395 0.0432614 -0.0432361 0.00149438 0.0707474 0.0519981 -0.0572072 0.0458768 0.0444536 0.0255274 -0.033247 -0.0192644 -0.0310638 -0.0504072 0.013207 0.0848661 0.0249622 -0.0721606 -0.011693 0.0042208 0.08601 0.0324714 -0.0560487 -0.026204 -0.094963 -0.0711318 0.0689351 -0.0202863 -0.00410983 0.044467 0.0289397 -0.00753798 0.0441855 -0.0567517 -0.0443183 -0.00671869 0.0206746 -0.00315821 0.00617744 0.00116666 0.0123306 -0.0836084 -0.0391067 0.006905 -0.0313865 -0.095045 0.00817162 0.0636709 0.0155203 -0.0281544 -0.0580274 -0.0332159 0.0184357 0.0352817 -0.0341254 0.0108658 -0.0421797 -0.0845936 0.0804224 -0.0251617 0.0348774 0.0462318 -0.0326994 -0.0490961 -0.0650708 0.0869912 -0.0156181 0.0389686 0.0210649 -0.052017 0.0516099 -0.0365195 -0.00407448 0.0554896 -0.0312422 0.0166062 0.0637053 0.0388622 -0.0280432 0.0170245 0.0176138 -0.0274966 0.0384038 0.0750996 -0.0405608 -0.0708424 0.0333212 -0.0238978 0.0134434 -0.00856919 -0.0184042 0.0520099 0.0346696 0.017314 -0.0741995 0.039434 -0.0463972 0.0161373 0.023863 -0.00482166 -0.0202393 -0.057194 0.0716985 0.0073872 -0.0493505 -0.0306881 0.0232156 0.0362371 -0.0459024 -0.0251893 -0.0214888 0.067519 -0.0386447 -0.00323749 0.0346764 0.0179074 -0.00707166 -0.0244468 0.00447126 0.0485306 0.0400411 -0.0817708 -0.0397421 -0.0469077 0.0474492 -0.0512144 0.0322838 0.0479455 -0.0690789 0.0360657 -0.0103694 0.0218695 0.00695298 0.0469296 0.0105362 0.0444761 0.0306071 -0.0181327 -0.00964868 -0.0466049 0.0600483 -0.00378835 
-0.00452177 0.0399724 0.0439666 0.0212456 0.0711941 0.0343807 0.0344368 -0.0613243 -0.0604075 0.0189871 0.0578448 -0.050758 0.0452308 0.0848701 -0.0338185 -0.0735653 -0.0157494 -0.0191924 -0.0171535 -0.0226557 -0.100086 0.0750091 -0.0611212 -0.00766013 -0.0678941 0.0333616 -0.00121698 -0.0440427 0.00545903 0.0016694 -0.0739605 -0.00165534 -0.088468 -0.0337255 0.00363616 -0.0175366 -0.0268524 -0.00619676 -0.0142023 -0.0910073 -0.097095 -0.0831131 -0.0714789 -0.0375677 0.00998321 0.00985757 -0.0708446 -0.0753178 0.0458088 0.0551592 -0.048787 0.0347213 0.020716 0.0277182 0.103895 0.0280367 -0.0184722 0.0751555 -0.0522587 0.0180179 0.00161073 0.0104158 0.00839302 0.0140555 0.0499468 -0.0391967 0.00246529 0.0524634 0.0091158 -0.0428385 0.0588783 0.0307625 0.0146029 0.0110931 -0.0392797 -0.0914256 0.0539885 0.0515834 0.0370735 -0.0512229 -0.0152751 0.0286939 0.0402608 0.0388139 -0.0589849 0.0107954 0.0290526 0.0194341 -0.0166939 -0.0173696 0.0796557 -0.0037779 0.0202293 -0.019565 0.0273452 -0.0313325 -0.0604366 0.00990419 -0.0259868 0.0298178 -0.0363315 0.0397323 0.072161 -0.032961 -0.0454481 0.0283931 0.0405928 0.0199519 -0.0181874 0.0338756 0.00213847 0.00430663 0.0828492 -0.052783 -0.042367 -0.0431683 0.0436008 -0.0896997 0.0140535 0.0410094 -0.0555633 -0.0396812 -0.0388273 -0.0947679 0.0237066 -0.0508203 -0.0120198 0.0194354 -0.0713783 0.0154305 -0.0326821 -0.0103655 -0.0385552 -0.0641138 0.00688418 -0.0698 0.0775651 -0.0293596 -0.0419803 -0.0446773 0.045251 -0.00915993 -0.011616 0.0745794 -0.0315227 -0.0280559 0.0421054 0.00554765 0.0669312 -0.0196615 0.037717 -0.014973 0.0287185 0.0676639 0.0567432 -0.0716933 0.0482053 -0.00940873 0.0804805 -0.100137 -0.0202794 0.0544422 -0.0283477 0.0259333 -0.0801351 -0.0385414 0.00487817 -0.0101714 0.0289253 0.0227191 0.0216193 0.0342929 -0.0129084 0.0179593 -0.0322477 0.0659915 0.0524733 0.0348233 -0.0019389 0.103785 -0.0900743 -0.0534173 -0.0110582 -0.104916 -0.077681 0.0875699 0.051934 -0.030181 -0.0491856 0.0624604 -0.0114553 -0.0540514 -0.0647968 0.0850373 -0.0262504 0.00571144 -0.0532371 0.0210621 -0.0495215 0.0180482 -0.0459822 -0.0290292 -0.0354973 -0.0771328 0.0365932 -0.00208044 0.0321063 -0.0653522 0.0710217 0.0828061 0.0153074 -0.0306921 0.0593237 -0.0547217 -0.0537758 -0.0657165 0.0128649 -0.0358743 -0.024832 0.054144 -0.0468082 -0.0766114 -0.0742034 -0.0972026 -0.0590599 0.0753454 -0.0168842 -0.0514393 0.00191776 -0.0194451 -0.0698179 -0.0574314 -0.00398969 0.000771896 0.0884887 -0.0463305 0.045782 0.0191775 -0.0331873 -0.0833564 0.0309923 -0.00279683 -0.0744482 0.0579475 0.0864757 -0.0412367 0.082689 -0.0972972 -0.0724378 -0.0839673 0.0356562 0.0279128 -0.0329404 -0.0147789 -0.0180807 0.0141118 
0.0447152 -0.0302021 -0.0478511 0.0626808 0.105193 0.00476651 -0.0027221 0.0115498 0.0536603 0.0137565 -0.0507289 -0.0854842 -0.0440783 0.0132024 -0.00794491 0.0444555 -0.0605215 -0.0440819 -0.0344559 0.00977986 -0.100393 -0.053927 0.0205232 0.0165306 0.00956102 -0.0187619 -0.0197347 -0.0146173 -0.0250052 -0.0374257 0.0472331 0.00201479 0.00269906 -0.00717412 -0.02593 0.0582673 0.0110645 -0.018585 -0.0451635 -0.0664154 -0.0788231 0.050787 -0.0748948 -0.0437489 -0.0123391 -0.0542737 0.00629621 0.0430649 0.0869764 0.0468845 -0.0146437 0.0916229 0.0472926 -0.00991798 0.0391628 -0.0317474 0.118483 0.0311206 0.0405425 -0.0719279 0.102455 0.0358589 0.0123914 0.0792913 0.0515291 0.00463336 -0.0562115 0.0369102 -0.0691014 -0.0734634 -0.0611949 0.00259027 -0.0633661 -0.0438258 -0.0296975 -0.0921795 0.0242126 -0.0813286 -0.0430099 -0.0820702 0.0235388 -0.00906264 -0.00942646 -0.0866525 -0.0982745 -0.107494 0.0960775 0.034984 -0.0747098 -0.019409 0.0748829 -0.100808 0.0249354 -0.0532658 -0.0135853 0.0275638 -0.0836533 0.00510059 -0.0126912 -0.0852417 0.068505 0.0166124 -0.0472829 0.0557788 0.0235611 -0.0232617 -0.0390137 0.0290543 -0.0579635 -0.101284 -0.0285834 0.0487982 -0.0374862 -0.0450099 0.00812644 -0.00963173 0.0654326 -0.00809877 -0.0730023 -0.00674781 -0.093125 0.0458736 -0.0811326 -0.0609869 -0.00529286 -0.0374752 -0.0393253 -0.0908743 -0.0454733 0.0369831 -0.0743146 -0.0182802 0.0267941 0.0414425 -0.0161389 -0.0364371 -0.0484038 -0.121968 0.0329903 0.0379829 -0.0126407 -0.0143458 0.105456 0.0624942 0.0862195 0.0691003 -0.0401174 -0.0826451 -0.0214754 0.011897 0.063987 0.0411356 0.00244625 0.0683592 0.0152026 -0.0533014 -0.0570704 -0.0031192 0.0742563 0.0553035 -0.0986996 0.0253365 0.0471076 0.0519468 0.0344673 -0.00219692 -0.0331341 0.113436 -0.042473 0.0422258 -0.00091852 -0.0507964 -0.0118315 -0.00817911 0.0623202 -0.0331971 0.0898739 -0.02255 0.0252008 -0.0103759 -0.0223738 -0.0123625 -0.01891 -0.0740383 -0.0641998 0.0289673 -0.0109437 0.042581 -0.0676012 0.0211564 0.0231046 -0.029863 -0.0583332 0.0841935 -0.0900344 -0.0224353 -0.113121 0.0612124 -0.0108972 -0.0711168 0.000463324 -0.0490433 0.0286949 -0.0501193 0.0761002 0.026598 0.0793827 0.0242904 0.0163717 0.0545424 0.0336956 -0.0486097 0.0257337 0.0501049 -0.029181 0.0094306 0.0321041 -0.0634076 -0.0564959 -0.0131525 -0.0808432 -0.0740203 -0.0478611 0.0103257 0.0156827 -0.00662909 -0.0412239 0.0592073 -0.0234924 -0.0537056 -0.0404682 -0.0327021 -0.00766233 0.0731409 0.0209738 -0.00274242 0.0273281 0.0379384 0.0746562 -0.0894174 0.0030606 -0.0448718 0.0269512 -0.020119 -0.0207555 0.0327351 0.0651031 0.0118676 -0.0115226 -0.0533704 0.107627 0.0997114 0.0333335 0.0625519 -0.00585367 0.0429888 
0.0692403 -0.0486732 -0.0789453 0.125088 0.0512058 0.00334544 -0.0607954 -0.0833491 -0.0250876 0.0722416 -0.0665415 0.0120529 -0.0227175 0.0710242 0.0016339 -0.0424443 -0.0782789 -0.0527129 0.0341191 0.0238041 0.0453147 0.0364704 -0.00118869 -0.0847126 0.00152818 -0.0361122 -0.0339979 -0.0544661 0.0931018 0.0964419 0.0824276 0.0144016 -0.0935461 -0.00371635 -0.0871871 0.067181 0.0861823 0.0669076 -0.0264997 -0.0512195 0.00445518 0.0624879 -0.060356 -0.0435042 0.0854035 -0.0550431 -0.0302917 0.0022557 0.0081735 -0.0662126 0.066501 0.0402264 0.0337424 -0.054026 -0.0163034 0.00754245 0.0840592 -0.028824 0.0585524 -0.049209 -0.0286401 0.0642163 -0.0705845 0.0298417 0.040786 0.0120927 -0.0236818 -0.0264437 0.0629668 0.00948524 -0.0644858 -0.0117238 0.0160042 0.00895174 0.0128581 -0.00274998 0.0257648 -0.0394699 -0.0566025 0.0202067 0.073728 0.0485107 -0.0424129 -0.125099 0.0207833 -0.127725 0.113698 0.0444224 -0.0716703 -0.131594 0.0597773 0.0364694 -0.0311045 0.0570381 0.054687 0.0248475 -0.0290092 -0.099965 0.0709036 0.0583734 0.0416669 -0.0565741 0.0831381 0.0649438 0.0116302 0.0538638 -0.0780706 0.045758 -0.0911737 -0.0940764 -0.0139592 -0.00451045 0.031473 -0.0452351 0.0428328 -0.0302849 0.0187406 -0.071551 -0.0495434 0.0704708 -0.112719 -0.0401024 0.0321291 0.060794 0.105003 0.0672203 0.0103041 -0.0890095 -0.0750897 -0.0633653 -0.0951688 -0.00198609 0.0623997 0.0494509 0.0476589 -0.00481825 0.0288349 -0.0587344 -0.0627387 0.0282516 0.0378685 -0.0350711 0.0194019 -0.0107632 0.0294922 0.0597049 0.0344366 0.0317896 -0.0301657 -0.117198 0.0663462 -0.0237367 -0.00809376 0.0329623 0.0244519 -0.0107648 0.0767604 0.0311413 -0.0925379 -0.0549432 -0.0293793 -0.0153238 0.0332972 0.0187347 -0.0481547 -0.0631523 0.0473159 0.0997891 0.0875583 0.0644128 -0.0426047 -0.0923283 -0.125506 -0.0426165 0.0291248 0.0529428 0.0783723 0.00444035 -0.0492169 0.021469 -0.0100588 -0.103415 0.0988065 0.0422831 -0.0169571 0.0605686 0.0354675 -0.0913979 0.0551823 0.0928064 0.0194744 -0.0450385 0.0315461 -0.0498428 -0.0385447 -0.0241988 -0.0755916 0.0430489 0.0322582 0.0507736 0.00746942 0.00415731 0.0112094 -0.0827151 0.00995612 -0.0536904 -0.00559297 -0.0254707 0.00455109 -0.0263199 -0.0662476 -0.0859267 -0.0186163 0.0407535 -0.0117002 -0.0201458 0.0868506 0.0792391 0.000907615 0.0513698 -0.0829191 0.010396 0.0153433 -0.0850895 -0.0624907 0.0785842 -0.0218184 0.0299414 -0.0109627 0.0981404 0.0558274 -0.0290413 0.0396698 -0.074403 0.0766423 -0.0683455 -0.0269735 0.0721637 -0.0393404 -0.0366051 0.0949784 0.0529128 -0.0136348 -0.0684209 -0.0621576 -0.0516656 -0.00520651 -0.0473971 -0.0737277 -0.082181 0.0688241 0.069767 -0.0472051 0.103591 0.0635555 -0.0377329 
