0.027275 -0.0179029 -0.0101409 -0.0355919 -0.0707353 0.072401 -0.0545601 0.00106834 -0.0126882 -0.0596997 -0.0123203 -0.0668402 -0.0558079 -0.0201496 -0.000854471 0.0388948 -0.0331037 0.060299 -0.00362363 0.00914058 -0.0419595 0.0106718 -0.0409491 0.0695154 0.0260144 0.0750111 -0.0371615 -0.0686496 0.0365387 -0.00219666 0.0533554 0.0553298 -0.0494866 -0.0422633 0.0239867 0.0464299 -0.021246 -0.0655017 -0.0254413 0.0404172 -0.0378212 -0.0364959 0.0104653 -0.0734323 -0.00106721 0.0525533 0.0168454 -0.00748096 0.0131237 0.0387234 0.0355743 0.0693343 0.0346417 -0.0577256 -0.046339 0.0694878 0.00248339 0.022165 0.0203646 -0.0180099 0.0144187 -0.00390835 -0.0262776 0.0511269 -0.0358564 -0.0677605 -0.0542263 0.0525732 0.0138021 -0.0290806 -0.0701055 -0.0517599 0.0339597 -0.042667 -0.0178161 -0.0169839 -0.0260761 0.0487951 0.0446409 -0.0279589 0.0269323 0.00856069 -0.0373785 0.0639805 0.00429287 -0.0691895 0.0378453 0.0705742 -0.0432977 -0.0112172 0.0134384 -0.0187979 -0.0421288 0.0260018 0.0195128 -0.0113333 0.0291727 -0.057593 -0.0708332 -0.0717567 -0.0483295 -0.0422017 0.0527196 0.0128068 0.00015634 0.0508847 -0.0398182 -0.0612154 0.00257314 -0.0709181 0.0367085 0.0442297 -0.0606381 0.0160813 -0.0362985 -0.0406111 0.0187884 -0.0366412 0.0647257 -0.0538879 0.00582403 -0.0440386 -0.0516142 -0.0509513 -0.0671617 0.0171254 0.0668967 0.0154773 -0.0607909 -0.00126677 -0.0541146 -0.0628555 -0.0184743 0.061788 0.0389361 0.0513806 -0.0635864 -0.0292904 0.0151665 -0.0164259 -0.0103112 0.012492 0.0475776 -0.0271364 -0.0382252 0.0118259 -0.0124697 0.0386606 -0.0106705 0.0544725 -0.015102 0.0317586 -0.0665081 -0.0292598 0.0750813 0.0396638 -0.0378115 0.00483883 -0.0527337 -0.0377684 0.0386063 -0.00567646 -0.046942 0.0625706 -0.00458558 0.0459996 -0.0570565 -0.0270675 0.000924512 0.00930166 -0.0327282 -0.00640254 0.0428268 -0.0340286 -0.0319919 -0.0563446 -0.00997326 -0.0170607 -0.071165 -0.00149437 0.0558763 -0.0353547 -0.0187701 -0.035964 -0.0311884 -0.0463074 -0.0713235 0.0354665 -0.00318191 0.0355661 -0.0639721 0.0706879 -0.0418564 -0.0643489 0.057719 -0.00282934 -0.0322446 0.0497492 -0.0300292 -0.0708591 0.0207575 0.0549187 -0.0700851 0.00954401 0.0593286 0.0364374 0.0262618 -0.045151 -0.0531658 0.00904342 0.0152088 0.0592853 -0.0117425 -0.0159943 0.0680403 -0.00670221 -0.0512365 -0.036498 0.0375871 -0.0104347 0.0709177 0.0659685 0.0216275 -0.0745036 0.0250352 0.0366848 -0.00365612 0.0137211 -0.0459746 -0.0450869 0.0455791 -0.0517072 0.0167596 -0.0303995 -0.0489533 -0.0579452 -0.0244854 -0.0108091 -0.0457576 -0.0167757 -0.0134006 -0.0162439 -0.0611177 -0.0751048 0.00592371 -0.0605356 0.0269683 0.0615514 0.0742548 0.00896803 -0.0175631 0.00542036 0.00402243 -0.0326043 -0.0649424 -0.0141457 
0.0741122 -0.0280248 0.0278165 0.00465668 -0.0650816 0.0181471 0.0684923 0.0116625 0.0463302 0.0367469 -0.0316347 -0.0743582 0.031423 0.0257939 -0.0644441 -0.0406578 -0.0343137 -0.0141773 -0.0688451 -0.0052477 -0.0374678 0.034188 0.00054643 0.0202033 0.0352759 -0.0693276 0.0270072 0.00867812 -0.0627702 0.0197733 0.00558705 0.0299668 0.0708973 0.0291001 0.00715203 -0.0715157 0.063609 0.0494288 0.0275294 -0.0633597 0.00186838 -0.0183962 -0.0435381 0.0361494 -0.0399588 -0.0256492 -0.0127704 0.0153085 0.0271851 0.0240674 0.0386293 -0.0570841 0.0726938 -0.033556 -0.0194143 -0.0534623 -0.0449115 0.00627496 -0.070154 -0.0045244 -0.0129149 -0.0400747 0.0697908 0.0345953 -0.0669028 -0.0508227 0.0070282 0.0735228 0.00943057 0.0305419 0.0579768 0.0639353 -0.0166098 0.00798639 -0.0580169 -0.0591718 0.0517929 -0.0743853 0.0598817 -0.0481932 0.0490797 0.0755606 -0.0294617 -0.0166529 0.0161333 0.00594709 -0.0438723 -0.0160025 0.00692472 0.0436955 0.020283 -0.0547865 0.044954 0.0141909 -0.0417047 0.0506765 0.0638689 -0.0684559 -0.00810786 0.0654688 0.0550948 -0.0527783 0.0356546 -0.0470669 -0.069851 0.022504 0.061806 0.0731482 -0.043321 0.00510578 -0.0509587 0.0107094 -0.0148111 -0.0117212 0.0595784 0.0349868 0.0720947 -0.0617291 -0.0347873 0.0643839 0.0197764 -0.0178886 0.0154467 0.0134923 -0.0508684 0.0422756 -0.0145769 -0.0380429 -0.0110311 -0.00496919 -0.0454975 -0.0278705 0.0232175 0.0557999 0.0326904 -0.00318396 0.00938782 0.0482509 -0.0216709 0.0669343 -0.0643193 -0.0437794 -0.050409 -0.0114472 -0.0245 0.00307567 -0.0511077 -0.0749373 -0.00086861 0.0454509 0.0096598 -0.0230487 0.0201776 -0.0579303 -0.0313264 -0.0343866 0.0434586 -0.0116477 0.0663813 0.0580387 -0.0379181 -0.0604479 0.00314177 -0.0645429 -0.00943356 0.0361742 0.0670107 -0.0522838 0.0675102 0.0459842 -0.00922773 -0.00930129 -0.055921 -0.042726 -0.0398532 0.0758283 -0.0509274 -0.0692719 0.0130241 0.0383645 0.00310688 0.0392766 0.0217631 0.0322587 -0.0716917 0.0650212 -0.0594219 0.0672309 0.0571612 -0.0414199 0.00838841 0.0362308 0.00173921 0.0492619 0.00560202 0.0681476 0.0678538 0.00109729 0.0740081 -0.0672833 -0.000143245 0.0234115 0.0365228 0.0449344 -0.0158932 0.0603994 0.0371485 -0.0451154 0.0695591 -0.0288351 0.0227788 -0.0727031 -0.0293928 0.0519504 0.0451847 0.0321777 -0.0197529 -0.0469289 0.000794482 0.0197823 -0.0531338 0.00766528 0.0475151 0.0488197 0.0115133 0.0293655 -0.0635408 -0.00120556 0.0138334 0.0724967 0.0532269 -0.0115206 0.0711973 0.070462 0.0687737 -0.0719092 0.0557161 0.0533459 -0.0417565 -0.0066652 -0.00158306 -0.00164061 0.05586 0.0695145 -0.0398073 -0.0657441 -0.0654137 -0.0729102 -0.0514043 0.0346581 -0.0125421 -0.0150993 -0.0686553 0.0596675 0.0368302 0.0396342 
0.016184 -0.0165466 0.027601 -0.0576034 0.0183518 -0.0684088 0.0726083 -0.000101706 -0.0692586 -0.0197744 -0.0612199 -0.0417516 0.0439826 -0.0719248 -0.036908 -0.0496723 0.074435 -0.0157597 0.00147089 0.0243495 0.0236412 -0.0314252 -0.0290128 -0.0227222 0.0138433 0.00486949 -0.0273008 -0.0241574 -0.0280281 -0.0376079 -0.0154 0.0156348 0.0390044 0.0609284 0.0725759 0.00873915 -0.0319916 0.0330332 -0.00423726 -0.0390835 -0.0339864 0.0245421 0.0418692 -0.0238239 0.0588607 0.0319137 -0.0230527 -0.0639121 0.0697219 0.0578525 -0.0712206 0.00208391 0.0702995 0.0731006 -0.042371 -0.0222678 -0.0562272 0.0246623 0.0758251 0.0217484 0.0717728 -0.0330657 0.0558631 0.0701544 0.0747657 -0.0647508 -0.0312924 -0.00493925 -0.0502495 0.0348881 -0.0302576 0.0231952 -0.0177961 0.0509473 0.00552242 -0.0522675 -0.0349735 0.0673047 -0.0640265 0.0188658 -0.00550727 0.042135 -0.0234337 -0.00895237 0.0488557 -0.0357259 -0.0511418 0.01763 0.0402144 -0.048324 0.0160191 -0.0584024 0.00765116 0.0628503 -0.0297194 -0.00716492 0.0470701 0.000765341 -0.00121631 0.0106526 0.0121502 0.0176356 0.0107379 0.00557957 -0.030256 0.0373684 -0.0298848 0.0242402 0.0718536 -0.00525892 0.00506966 -0.0250532 0.0318243 -0.0620382 -0.0133201 -0.0222399 0.0424624 -0.00753323 0.0448622 -0.0219373 0.0185528 -0.0720874 0.000710197 -0.0100445 -0.0259345 0.000393605 -0.0718673 0.00247908 0.0551101 0.0367098 0.0758632 0.003318 0.0454138 -0.0321445 0.00117265 -0.0381619 -0.0724745 0.0372337 -0.0638678 0.0220648 -0.0756766 -0.0420416 -0.0161862 -0.0254863 -0.0175051 -0.0623139 -0.0375502 0.0187803 -0.00334865 0.0486151 0.061092 -0.0540479 0.0563782 -0.0564305 -0.0755038 0.0307624 0.0311839 -0.0519208 -0.00182319 0.0646375 -0.0201971 -0.028522 -0.0365985 0.0581481 0.0480065 0.00370863 -0.0690853 0.0155988 0.0582354 0.0453625 0.029765 0.0307254 -0.0194154 -0.0175958 -0.00888505 0.01263 -0.0120312 0.0640885 0.0341736 -0.0472489 0.0634331 -0.0554775 -0.0653814 0.0410035 0.0583548 -0.0411938 0.0329823 -0.0499156 0.0744178 -0.0171501 -0.0673513 0.0650983 -0.0672722 0.00845931 0.0165103 -0.0097731 0.0119152 -0.0266534 0.0240724 -0.041055 -0.0500073 -0.0103663 0.0636681 -0.0634543 -0.0665473 -0.0708835 0.0545372 -0.0346584 -0.0738174 -0.0598783 -0.00783676 0.0342684 0.0591854 -0.0114059 -0.0291754 -0.00571995 -0.0252008 -0.0412194 0.0704023 -0.013778 0.00417286 -0.0145534 -0.0622083 0.0025531 -0.0285967 -0.0250481 0.0631905 0.00920693 0.0594485 -0.0252869 0.0485209 -0.0564657 -0.0756959 -0.0729296 -0.0274641 0.00228886 0.0117988 0.0385933 -0.0158853 -0.0361796 0.0162831 -0.024714 -0.0550712 0.0174182 -0.0405851 -0.0452222 -0.0541297 -0.012269 -0.0647138 0.0170715 0.0302859 -0.0154283 -0.0515426 -0.0361601 0.0570921 0.0428703 
-0.060345 0.0584597 0.0167052 -0.0520354 0.00540447 0.0711695 0.00797656 0.0720946 -0.0580087 0.0741305 0.0002856 -0.0512431 -0.0627774 -0.0151842 -0.0363534 -0.00256127 -0.055155 -0.0270467 -0.063202 -0.0229286 -0.00402982 0.0542397 -0.0186106 0.0732982 -0.0104984 0.0322218 -0.0121769 -0.0703537 -0.0296243 -0.0358779 0.0228227 -0.0520375 0.0226323 -0.0200833 0.00391546 -0.00944267 -0.0205848 -0.0621243 0.0151746 0.0370628 -0.0647389 0.0533688 -0.0730149 -0.0501959 -0.0472712 -0.00548459 -0.0163087 0.0448177 0.0216885 -0.0729307 -0.0335438 -0.0306613 0.0492714 0.0466984 -0.0701434 -0.0661259 0.0306096 -0.0353298 -0.0525684 -0.0310685 0.0411265 -0.067014 -0.0469755 -0.0331101 0.00845383 -0.00722193 0.063108 -0.0526031 -0.0535058 0.0387128 0.029802 -0.0499587 0.0297057 -0.0283692 -0.0497913 0.0331798 -0.0196721 -0.0662851 -0.0436497 0.0306584 0.0266698 0.00962529 0.0467074 -0.0542112 0.0216785 0.0324859 0.0267797 -0.0552905 -0.00971212 -0.00946876 0.038918 -0.0630425 0.025982 -0.00693399 0.0677946 -0.0430086 -0.0470453 -0.0556712 0.0443207 0.037311 0.0753151 0.0573122 0.0722759 -0.00258758 0.071172 0.0491871 0.00745191 0.0156114 0.0433654 0.0435157 -0.00677756 0.00201346 -0.00671788 -0.0370159 -0.0300509 -0.0128745 -0.0563221 0.0650233 -0.0595429 -0.0141748 0.0332442 0.058994 -0.0524967 0.0406324 -0.0568226 -0.0175016 -0.0613163 -0.0134498 -0.051881 -0.0120242 0.00697419 0.064262 0.0246535 0.0365219 0.0408215 0.0572513 -0.0543961 -0.05419 -0.0485875 0.0352299 -0.00937416 0.00352664 0.0194071 0.0448323 0.0361248 -0.0280345 0.0466104 0.034942 0.0318884 -0.013602 -0.0646912 -0.0529077 -0.035309 -0.023603 -0.0590956 0.0593571 -0.0310053 0.0655386 0.0499245 0.00771316 0.0233554 -0.0131565 0.0511387 0.0513141 0.0185601 -0.00881706 0.0161193 0.0301428 -0.019277 -0.0349576 -0.041389 0.0252975 0.0234762 -0.0645928 -0.0715281 0.0403622 -0.0703432 0.00264486 -0.0567794 -0.0100631 0.0723073 -0.0191406 0.0421496 -0.0755092 0.069868 -0.0227264 -0.0380808 -0.00335773 0.00412651 0.0207056 0.0581837 0.0619685 -0.0418959 -0.0138996 0.0640544 0.0619026 0.0602395 0.0604588 -0.0218474 0.0259444 0.00527881 -0.0173869 -0.026599 -0.00732757 0.00203058 -0.000656285 -0.0388444 0.0568382 -0.00160795 0.0167797 0.0245862 0.00159717 -0.0630618 -0.0675801 0.0287376 0.0455579 0.0497292 0.0520398 -0.0703609 -0.0312414 0.0104574 0.00806792 0.0547499 0.055492 0.0751716 0.0494579 0.0663835 -0.0724395 0.0222009 0.0196638 0.0494856 -0.0671827 0.0286276 -0.0580583 0.000741048 0.0330951 0.064512 0.00420524 0.0323517 -0.0376835 0.0348585 0.0139946 0.0217364 -0.0251762 -0.0537412 -0.0754792 -0.0364177 -0.0587786 -0.0367515 -0.00233406 -0.0754817 -0.00663731 -0.00951378 0.0585969 -0.0305346 -0.0388599 
-0.0675261 0.0360076 0.0427667 -0.0396679 -0.0350924 0.0546651 -0.022784 0.0606801 -0.0243637 0.0194201 0.00285398 -0.00854813 -0.0043722 0.0700153 0.0296454 0.0106075 -0.0629875 0.0575887 0.0618356 -0.0105991 -0.0464826 0.0415094 0.00630179 0.0597762 0.0493583 -0.00795407 0.0330695 -0.013638 -0.0374029 0.00818848 -0.0637279 -0.028205 -0.0288766 0.0676771 0.0731121 -0.0605497 0.00522374 0.0491289 0.00826928 0.0151552 -0.0595553 -0.0282807 -0.0615514 0.00203118 0.0544256 -0.0295385 0.0537996 0.0718309 0.0753688 -0.0541393 0.0277259 -0.0260561 -0.0273504 -0.0302895 0.00782121 -0.0388901 -0.0614849 0.0519964 0.00692998 -0.0392605 0.0693102 -0.0416587 0.0549608 0.0526542 -0.0409342 0.0261773 0.0442531 -0.0716833 -0.00197225 0.0650331 -0.0433318 -0.0328347 -0.0169843 -0.0514698 0.0414776 0.0556611 -0.0561716 0.0497946 0.0705836 -0.0243709 -0.0434816 -0.0331666 -0.0643679 0.0208642 0.0437028 0.0514354 0.0250869 -0.0661951 -0.0741744 -0.0513369 0.0471599 0.0714522 -0.0441511 -0.0578731 0.0648928 -0.039425 -0.0718264 -1.74016e-05 0.0482727 0.0725818 0.0458633 0.0434922 -0.0745361 0.00375318 0.0266097 -0.00916112 -0.0176747 -0.0209879 0.0752918 -0.00733885 0.0113591 0.0139881 0.00866253 -0.0487201 0.0693701 0.0471549 0.0714748 0.0138896 -0.0217231 -0.0701 0.00117331 -0.0136419 -0.00547882 -0.0665216 0.0395363 0.00523467 -0.0515683 -0.0162795 0.0463573 -0.0710446 -0.0494659 0.00696106 -0.0708994 0.0135911 -0.0725184 -0.0247279 0.00300667 -0.0600852 0.0511127 -0.0152673 -0.0734701 0.0378891 0.0335373 -0.0456549 -0.047255 0.0610805 0.0695414 -0.046641 -0.047109 0.0260091 -0.028209 -0.0620493 0.0419107 0.0442043 0.0457118 0.0452646 0.0636118 0.071373 -0.031918 0.0324038 0.0431394 0.0553797 -0.0571084 0.0347532 0.0284983 -0.056125 -0.0468418 -0.0323547 -0.0487419 -0.0515711 0.0655401 0.0397379 0.0731521 -0.0560055 -0.0338585 -0.00811625 -0.0269668 0.0595315 -0.025621 -0.0731641 0.0702924 0.0664943 -0.0108417 0.0431041 0.00353763 0.00933329 -0.0610216 0.0497126 0.0487215 -0.0372789 0.0132746 -0.0150662 -0.0377273 0.0486906 0.0528242 0.0300643 -0.045737 0.0437994 -0.034081 -0.0343476 0.0286988 -0.0536849 -0.00404698 0.043664 -0.0280279 -0.0379232 -1.85436e-05 0.0548907 0.0599845 -0.0332311 -0.0468902 -0.068272 -0.0313883 -0.0342066 0.0171589 -0.0694789 -0.0488109 0.00442776 -0.0637323 -0.0224387 0.0252953 0.064022 -0.0751578 -0.0707935 0.0280053 -0.0540282 0.0145184 -0.0754979 0.0371556 0.0114629 0.0678936 0.0251279 -0.0668925 -0.0219691 0.0319025 0.0622999 0.0574282 0.0582691 0.0168305 -0.050956 0.0395088 0.0225207 -0.00632556 -0.037551 0.0389888 0.0369636 0.0575046 0.0305571 0.00930838 -0.0157245 0.0059747 -0.0678489 0.000734051 -0.0554913 -0.0345634 0.0318943 
0.0704442 -0.0236778 -0.0359136 0.0754769 -0.0236097 0.0304446 0.0426188 -0.0137237 0.0633796 0.0394952 -0.0343586 -0.0203378 0.0621236 0.0124096 0.0462923 -0.0188517 0.00397336 0.0543577 0.00788343 -0.0252456 -0.00239243 -0.0466602 -0.0117338 -0.00427211 -0.0281704 0.0079661 0.00459208 0.02714 0.051358 -0.0654653 -0.0205332 0.0246782 0.0533658 0.0563351 -0.0157558 0.0685837 0.0503258 -0.0448144 -0.0230393 0.0449428 0.0222126 -0.0294612 0.0498602 0.0375104 -0.0277584 0.052671 -0.0754341 0.00960646 0.0634946 -0.0236671 -0.0062187 0.054384 0.0519541 -0.071908 0.0568057 0.062563 0.0377495 0.00247906 0.0176246 0.0467396 -0.0596007 -0.0533267 -0.0136151 -0.0318471 -0.0589345 0.0261593 -0.0111073 -0.0391 0.0170409 -0.00104357 0.0151824 -0.0420644 0.0683641 0.0132153 -0.0415194 0.00511785 0.0268576 -0.0622265 0.034177 0.0578316 -0.012226 -0.00977635 0.0409186 -0.0655305 -0.0490647 0.0248679 -0.0345651 -0.0240463 0.0249529 -0.0557868 -0.0336642 -0.0349126 -0.00381595 0.0447862 -0.0716851 -0.050995 -0.0710057 -0.00759554 -0.0511032 -0.0346106 0.0718536 0.00629667 -0.0616579 -0.0337768 0.0438952 -0.0405525 0.0437395 0.0394528 0.0370764 0.0332236 0.0446095 0.0385674 0.009038 0.0216377 0.0269715 -0.0423961 0.0223397 0.0354428 -0.0625154 0.0121205 0.00298071 -0.0286483 0.0331868 0.0294879 -0.0167564 0.046037 0.00438616 0.00424201 -0.0641398 0.0394722 -0.0669181 0.00712466 0.0602351 0.0542107 0.0503712 0.0192914 -0.0737329 0.0685132 -0.0513847 -0.000314222 -0.00755693 0.0672539 -0.00432034 -0.0498848 0.0120522 -0.0619987 -0.0532627 0.00606771 -0.0736718 -0.0456063 -0.0345463 0.0380707 -0.0129612 0.0497783 -0.0636764 -0.0466683 -0.00809309 0.0364315 -0.0575462 -0.00229749 0.00575176 0.0297197 -0.0271769 0.0241246 0.0242535 0.0386407 -0.0315117 0.0745587 -0.0332776 0.00582301 0.0183464 0.0373019 -0.0600541 0.047299 0.0500239 0.0392697 0.0459906 0.0628407 -0.0427274 0.0730555 -0.00314569 0.0634805 -0.0132721 0.0692004 -0.0708525 0.0185212 -0.07394 -0.0193842 -0.0250848 -0.0680615 0.0248802 -0.0665659 0.0403084 0.0637391 -0.0391758 0.00444618 0.0131663 0.0451343 0.028442 0.025868 -0.0312165 0.0361341 -0.0256147 0.0113657 -0.0171187 0.0481263 0.0592223 -0.0381426 0.0159885 -0.0633601 0.023845 0.0304355 0.0678487 0.005253 0.0744702 0.0129162 -0.0313977 0.067702 0.0403225 -0.0402497 0.0329777 0.0494124 -0.029592 -0.0435898 0.0526915 -0.0255615 -0.0395745 0.00565691 0.0184928 0.0463014 -0.0729791 0.0442349 0.0745277 -0.0026907 0.0693142 0.0274426 0.0708986 0.0354963 0.0372383 -0.0568649 0.0654881 -0.0212 -0.0696291 0.0179039 -0.0743148 -0.0460531 0.000246788 -0.0618359 -0.0325013 -0.0353818 -0.0745486 -0.0474416 -0.0373643 0.0203512 -0.0496688 -0.0244666 
-0.0755883 -0.00856336 0.00308753 -0.00730761 0.072968 -0.0756436 0.0507225 -0.060798 0.0617258 -0.00955445 -0.00785307 -0.0330518 0.0471722 -0.0551942 0.00509837 0.0219515 0.0179166 -0.00605348 -0.00280386 0.0584459 -0.0459481 0.0235926 -0.0106653 -0.0161283 -0.0536533 0.057924 0.0335183 0.0512988 -0.0727964 -0.0415491 -0.0093928 -0.0456348 0.0227845 0.00814098 -0.00297299 0.069979 0.0411557 0.0155818 -0.0194149 0.0623079 0.0735246 -0.0656809 0.0475582 -0.00638574 -0.0113016 0.00487214 0.0603406 -0.00787629 -0.0536366 0.036281 -0.00742416 0.0738956 -0.0465648 0.0729151 -0.0687951 0.0178558 -0.0221567 -0.0391223 -0.0432342 0.0716133 -0.00424938 -0.0515837 0.00634014 -0.0462092 0.0539669 0.0455284 -0.0528474 -0.0466634 -0.0435482 -0.0752656 0.0496894 0.0291669 -0.0109175 -0.0728784 0.0141432 -0.0283113 0.0200306 0.012626 -0.0372465 -0.00332326 -0.000453245 0.0121402 0.033363 0.0245042 0.0128416 -0.0020762 -0.0387224 0.0572763 0.0539362 0.0645331 -0.0470058 0.0650754 -0.0740135 -0.0231013 0.0233186 -0.0352356 0.0274388 -0.0238397 0.038195 -0.0414134 0.00749503 0.0356355 0.0432376 -0.0567548 0.0573435 0.00240515 -0.0184051 0.0668716 0.00746427 -0.0529406 -0.0303338 -0.0663741 -0.0474426 -0.0165484 -0.057116 0.0187818 -0.0432151 0.060473 0.0657046 0.00871452 -0.0569159 -0.0281881 0.000901403 0.0554576 -0.0451848 -0.0498967 0.0198874 0.0175874 -0.0390055 0.054066 -0.00365333 -0.0327908 -0.0274139 -0.0585118 0.00594145 -0.0452116 -0.0334084 0.0132905 -0.020577 0.0524008 0.0107122 0.0220937 0.0150587 0.0540229 0.0301225 -0.0382961 -0.0262364 0.00988405 -0.0130946 -0.0674166 0.00429426 0.0721954 -0.025766 0.0488589 -0.0521128 0.0246682 0.0165316 -0.0507364 -0.0335335 0.00866607 0.0667314 0.0214852 -0.0470496 0.0364095 -0.0632016 0.0201801 -0.0444097 -0.0218665 -0.0706477 -0.0651473 -0.0647187 -0.035703 0.0679616 -0.0230493 -0.0638423 0.0649222 -0.0234672 -0.0486014 0.043166 -0.00728078 -0.0347629 0.00272059 -0.0269328 -0.0300093 -0.0646514 0.0118404 -0.046074 -0.0265999 0.0625992 0.0153885 -0.0180071 -0.0756266 0.0555029 -0.0623965 0.00642213 -0.0312394 -0.0520093 0.00308264 0.00366781 0.0673301 0.00139304 -0.0725499 0.0289213 0.032983 0.0537956 -0.05797 0.0390984 -0.0249939 0.0564289 0.0384792 0.00935824 -0.0464295 -0.0221128 -0.0559812 -0.0683701 -0.0417522 0.0307676 -0.0522502 0.0279211 -0.0195212 -0.0583779 -0.0479291 -0.0245136 -0.0352531 0.0624152 0.0077648 -0.00227943 0.0206523 -0.0276979 0.0498898 -0.0597998 -0.0382674 -0.05226 0.0701642 0.00616715 -0.017852 -0.0268101 0.041431 0.0503919 0.0755739 0.0668629 0.00402751 -0.0555072 0.0466386 0.0363739 0.0496521 0.0478053 -0.00103691 -0.0308356 -0.0242387 0.0381577 0.0495916 0.0255723 0.0286253 -0.00245871 -0.0509167 
0.054373 -0.0686103 0.0341756 0.0476049 -0.0272669 0.0464716 -0.0410484 -0.0113627 0.00303505 0.0416354 -0.0749421 0.0153229 0.00520115 0.054451 -0.0252904 -0.0556947 -0.0600672 0.0384777 0.0184165 -0.0330897 -0.0136984 0.00691651 -0.0234946 -0.0735858 -0.0395321 0.0717459 0.0204599 0.0481939 0.0451821 -0.00903704 -0.00332212 -0.00646101 0.0130218 0.0141258 -0.0282816 -0.0286163 -0.0209406 -0.0225559 -0.062067 -0.0063276 0.0063101 -0.0284918 -0.0447763 0.0306944 -0.0394454 0.0390022 -0.0211336 0.0543654 -0.0244076 -0.0502173 -0.0189141 0.0696234 0.0150623 0.0218074 0.0618515 0.0656877 0.0177072 -0.0497882 -0.0328447 0.0393251 -0.0213137 -0.0362434 -0.0489384 0.0326573 0.0331294 0.0671939 0.0116712 -0.0222968 0.0384402 -0.0392413 0.0650453 -0.0572676 0.00459937 0.0107701 0.0222089 0.0161565 -0.0457944 -0.0653526 -0.0432809 0.0565961 -0.0634714 0.0509456 0.0701791 0.0339619 0.0678731 0.022485 -0.0506546 0.00762278 0.0250081 -0.0756264 -0.00484772 -0.0515103 0.0282058 -0.0536239 0.0641151 0.0177558 0.0177255 -0.0158427 -0.0111455 -0.0385136 -0.0235443 -0.0374893 0.0365464 0.0488049 -0.0697245 -0.0502004 0.0730148 0.0167762 -0.0685675 -0.0285046 0.0652609 -0.0281517 -0.0387113 0.0726106 -0.0444146 0.0292523 -0.0569473 -0.0708406 -0.0413009 0.0349654 -0.0653835 0.0260513 -0.0127959 -0.0108864 -0.0347694 -0.0345543 -0.0655409 -0.0426196 -0.0280503 0.0704558 -0.008915 0.0463288 -0.0721325 0.0627881 -0.044072 -0.00892751 0.000326393 0.0488246 0.0573564 -0.0710354 0.00624249 -0.0692347 -0.0595755 -0.013649 0.00127204 -0.047867 -0.0568008 0.0448905 -0.0647273 0.00400441 0.0703905 -0.0716644 0.0661994 -0.0222325 -0.0460865 -0.00734162 -0.0416296 -0.00568282 -0.0423723 0.0344876 0.0390998 -0.00320634 0.0289861 0.0234108 0.0149438 -0.0522388 0.0250488 0.0111451 0.0151399 0.0610414 -0.00412352 -0.00981666 0.0662478 -0.0444019 0.0317794 -0.0200226 -0.0587049 -0.0177491 0.0482977 -0.0224614 0.0712214 -0.0537438 -0.0174294 0.0753735 0.0402132 0.0709618 0.0542653 0.0124908 -0.0668505 0.0199666 0.00541356 0.0135839 0.0526155 -0.0465319 -0.0494124 0.0391568 0.0559457 -0.0344018 -0.0629671 -0.0549058 -0.00883188 0.0370929 0.0549088 -0.0709394 0.0399099 0.0330632 -0.018503 0.0732939 -0.0161119 -0.0375838 -0.0440285 0.0667616 0.0477248 -0.016157 -0.0165477 -0.0481278 0.0603543 -0.0312418 0.0593311 -0.0569384 -0.00958587 -0.0527114 -0.0110203 0.0201747 -0.0246281 0.0547065 0.0376093 -0.0413109 0.0609215 -0.00340888 -0.0366066 -0.0249973 -0.0745545 0.064001 -0.0210038 -0.0338371 0.0508723 0.0551831 0.0108407 0.026358 -0.0613344 0.0190883 0.0126299 -0.0540759 -0.0661702 0.0600221 -0.0701368 -0.0497858 0.0189083 0.0572191 0.0751498 -0.0280841 -0.00949411 0.01984 -0.052884 0.0585723 
-0.0558314 0.00215125 0.0622763 0.0598471 -0.0540682 0.0414005 -0.0636033 0.0676919 -0.00347136 -0.0565204 -0.0200757 -0.0755087 0.0558248 -0.0373858 -0.0111408 0.0186793 -0.0654402 -0.00403966 0.0151422 -0.0454094 0.0292654 0.0082054 0.0742213 -0.0073225 -0.0326416 -0.0424291 0.0749707 -0.0391172 -0.0554882 -0.072909 0.0331689 0.013604 0.0137279 -0.0367705 -0.0460701 0.0696603 0.0142349 0.0318237 0.0688393 -0.0533049 -0.0509054 -0.0112143 -0.0298689 -0.0341793 -0.0476009 -0.000492049 0.0662862 -0.0631053 0.0311553 0.00695512 -0.050985 0.0541039 -0.0661251 0.0176869 -0.0266278 0.0301817 -0.0577125 0.0632813 -0.0426385 -0.00792317 0.00242772 0.0466739 -0.0186387 -0.0305845 -0.0183852 -0.0721353 0.0575574 -0.0581793 0.0415374 0.0140387 -0.0341677 -0.026365 0.0683486 0.0645017 -0.0304624 0.0115522 -0.0579141 0.0369783 0.069893 -0.0218706 -0.00812183 0.0044555 0.0657296 -0.0454945 -0.0376911 0.0624143 -0.0285159 0.0325982 -0.0555732 0.0415918 0.015165 0.0164162 -0.00145247 0.0344926 -0.0047581 -0.0411671 -0.0522747 0.0260665 0.0740052 0.0488645 -0.00148417 0.0256094 -0.00759857 -0.0687019 0.0294134 0.013337 -0.0629854 -0.0415791 0.0056699 0.00896705 0.0345717 0.0678293 -0.0119541 -0.0341514 0.00401996 0.0545434 -0.0450161 -0.0581392 -0.073615 0.0668888 0.0381877 -0.0118548 -0.0180081 -0.0332768 0.0388312 -0.0739165 0.044947 0.0117287 0.0706125 0.0581828 -0.0539515 -0.0427675 0.00850886 -0.0457743 0.0579656 -0.0185778 0.0733075 -0.0246749 -0.0676823 0.0436168 0.0706326 -0.00706321 -0.0423424 0.0744205 0.0580104 0.000104245 -0.0149407 -0.0248405 -0.00450747 0.0515744 0.0283238 0.0667918 0.0164849 0.0668752 -0.0523735 0.0304743 -0.000181077 -0.0466961 0.00331469 -0.0486574 -0.0444928 0.0449275 0.00925394 0.0727462 0.0613714 -0.0513871 0.0424859 -0.0341383 -0.0308251 -0.0531154 0.0425407 -0.00148486 0.0692606 0.0362865 0.0136637 -0.0737678 -0.0123324 -0.0126822 0.00304289 -0.0336531 0.0661026 -0.0111769 -0.0216469 0.0672627 -0.0223096 0.062883 0.0275564 0.0436428 0.0580259 -0.0564543 -0.00430552 0.0103333 -0.00536077 0.036703 0.0506029 -0.065323 -0.0145659 0.00783054 -0.0367833 -0.074027 -0.0529282 0.0197858 0.0639909 0.047317 0.0588647 -0.0476574 0.0366931 0.0472294 0.0147899 -0.0165581 0.0683381 -0.0410567 0.0189132 0.0263088 0.0360367 -0.0616918 -0.0101709 -0.0379288 0.0190144 0.0203729 0.0377211 0.0640054 -0.071503 -0.0315352 0.0402881 0.0183334 0.0289487 0.0223654 0.0589386 -0.00687883 0.0726939 0.0145506 0.0702584 -0.0518062 -0.00339997 -0.0732634 -0.0601965 -0.0529195 -0.00599527 -0.0708135 0.0252478 -0.0416837 -0.0290445 0.0741405 0.0220219 -0.0244183 0.0647773 0.0344242 0.0717518 -0.0237639 -0.0721088 -0.0492464 0.0103538 -0.0268416 0.0551766 0.0206339 
0.0330753 -0.0447118 -0.0475675 0.0570659 0.0169049 -0.0327579 -0.0359169 0.0427068 0.0344106 -0.0163537 -0.0423225 0.0717312 0.0427532 -0.0429289 -0.0651916 -0.0624996 -0.017891 -0.0206879 0.0141226 0.0220927 -0.0529938 0.0237686 0.0107929 -0.00760953 0.0272685 -0.0106553 0.0286036 0.0390352 0.03382 -0.0492281 -0.0589742 -0.0638838 0.035254 -0.0645201 -0.0646757 0.019229 -0.0269375 -0.0190957 0.0317113 -0.0480438 -0.0345975 0.0666559 0.0651053 0.02256 -0.0622325 0.0137938 0.0214935 -0.0388015 -0.0374546 -0.0720272 0.0239902 -0.0362417 -0.044362 0.00327104 0.0326539 -0.0382228 -0.0343778 0.0450726 -0.0726985 -0.0293367 -0.0199476 -0.0458159 -0.0165259 -0.0639446 0.0445197 -0.0174048 -0.057266 -0.0739544 -0.0548125 0.00839283 0.020116 -0.000931756 0.00218022 -0.0508662 0.00744847 -0.0544415 0.0331304 0.0527112 0.0720807 -0.0648989 -0.017234 0.0205853 -0.0385886 0.0255906 -0.0436211 -0.00076408 0.010912 0.0623311 -0.0288585 -0.0517762 -0.075917 -0.0199013 0.0230531 0.0721833 0.0756267 -0.00518585 -0.0553707 0.000941978 -0.0389733 -0.0182492 0.00344488 -0.071046 -0.0159146 0.0217846 0.0367161 -0.0173685 0.0263484 -0.0522912 -0.0488743 0.0478998 -0.0366137 0.0250843 0.00687068 0.00453643 -0.0555485 -0.0402666 0.038143 -0.0478198 0.0755738 -0.0282683 -0.0350897 0.0132987 -0.0315896 -0.0205426 0.0158166 0.00463358 0.0222713 0.0281177 0.038159 -0.0538376 -0.00276099 0.0135122 -0.0309063 -0.0527548 0.0265058 -0.00329077 0.0198214 -0.047056 -0.0742471 0.0393639 0.0399446 -0.0224616 0.00816812 0.000191077 -0.0603735 0.0679501 -0.0577071 -0.0196338 0.0704245 0.0251028 0.0585244 -0.00758805 0.0746388 -0.000389486 -0.065516 0.0664732 0.0658309 0.0112326 0.0644565 0.00665353 -0.0525142 0.0274779 0.00820609 -0.0362104 -0.0571612 -0.0278223 -0.0687961 0.0167425 -0.0507976 0.00503494 -0.0330764 -0.0592509 -0.00885971 0.0724472 -0.01904 0.0530354 -0.0488034 0.068127 -0.0426981 0.015663 -0.0386538 0.0458221 0.0385762 -0.032891 -0.0383018 0.066182 0.048971 -0.0248904 0.0713166 -0.0666613 0.0222566 0.0548292 -0.0487792 -0.00262541 0.0497821 0.0119235 0.0594152 0.0424155 0.0439024 0.0587129 -0.00441405 0.0105476 0.0425459 0.0332128 -0.0182681 -0.0265624 0.0216574 -0.0437145 -0.0649856 0.00566102 -0.010107 -0.0267006 0.0384679 -0.0345814 0.0207888 0.0605924 -0.0447386 0.0594991 0.0443159 0.0339381 -0.0561484 -0.0562992 0.0624649 -0.0210414 -0.0344929 -0.00711862 -0.0124025 -0.0507491 0.06076 -0.0639942 0.0496077 0.075502 -0.0442566 0.00858791 0.0269671 0.013212 0.0254008 0.0723924 0.0681271 -0.0500886 0.00229037 0.0689589 0.0374553 0.0141836 -0.0515803 -0.0202285 -0.0617344 0.0514299 0.033218 -0.0208075 0.0674149 0.0533301 -0.0579591 0.01369 0.0688131 -0.0305516 
-0.0211059 -0.0569897 0.0415784 -0.0721793 -0.0425096 0.0427314 -0.0376142 -0.0636748 -0.0501238 -0.0388837 -0.0357543 0.074518 0.00720226 -0.0748998 0.0369294 0.0588281 0.0162229 -0.0106086 0.00158279 0.0650519 0.00713736 0.003298 -0.0104843 0.0125674 -0.0708437 0.0385539 -0.00721955 0.0705036 0.0500283 0.0732073 -0.0423413 0.0358872 0.026978 -0.018127 -0.0209629 -0.0745627 -0.0721145 -0.0306776 0.0243194 -0.0379384 0.020182 0.0496628 -0.0490953 -0.00258118 0.0262145 0.0345512 -0.061186 -0.0510419 -0.0576614 0.0486222 -0.0591499 -0.0203259 0.053232 -0.000803693 -0.0206748 -0.0547125 0.00858751 0.000797831 -0.00263031 -0.0617033 -0.00779217 0.0178212 0.0462625 -0.0629162 -0.0571979 -0.0303664 0.0353606 -0.0127961 0.061079 -0.0462128 0.0355334 -0.0473271 -0.0566191 -0.0301552 0.0106451 0.0170911 -0.0414233 -0.00567114 -0.0288758 0.0740978 0.0390444 0.06426 0.0491729 0.0741999 0.0548023 0.0749362 -0.0684402 -0.0100087 -0.0465237 -0.0258346 0.0222295 0.023556 -0.0613671 0.00421213 0.00869461 0.0678632 0.0577541 -0.0575807 0.0378356 0.0360027 0.00861498 0.0670886 0.0668249 0.0263942 0.0456525 0.0486799 0.0506912 -0.00349144 -0.0495692 -0.0686508 0.00972751 0.0711373 0.0205341 -0.0573664 0.0482408 0.0423537 -0.0496382 0.0126821 0.0419278 0.0095002 -0.0482946 -0.0166477 -0.0027511 -0.0282509 -0.0266857 -0.0350973 0.0231673 -0.0430434 -0.0236445 0.0558574 0.0138004 0.00118045 0.0408614 -0.0316642 -0.0358704 -0.0402673 -0.0368063 0.0222725 0.0758478 0.0596351 0.0387841 0.0179519 -0.0113203 -0.013355 0.0340775 0.0170842 0.0688386 0.0253906 0.0317083 0.0333627 0.0747813 -0.000259574 0.0653005 -0.019776 0.0725451 -0.0203111 0.0544698 -0.030694 0.0461422 -0.0417251 0.0652991 -0.068427 -0.00435278 -0.00301196 -0.0758068 0.0237779 0.0329071 -0.0162255 0.0591251 -0.0657162 0.0591119 -0.0564639 0.0243144 -0.0186841 -0.0106384 -0.0196151 0.0445772 -0.0220002 -0.0489156 0.0226318 -0.0700496 0.0128262 0.0185072 -0.0217402 0.0608113 -0.0645904 0.0303093 0.0550332 -0.00394544 -0.0236231 -0.0196881 -0.0408488 0.0484007 0.071154 -0.0106292 -0.0218264 0.0480018 0.042735 0.0132618 0.0068117 0.037364 -0.0296717 0.0630192 0.00416299 0.0470445 -0.0639951 -0.0228761 0.00486099 -0.0369105 -0.00146664 0.0390419 -0.0262914 -0.0170573 -0.0665288 -0.0228368 -0.0615508 -0.0172855 0.0489132 0.0566918 0.0304506 0.0709133 -0.00288826 0.0626734 0.0542668 -0.0010209 0.00732889 -0.0198758 -0.0615194 0.0173127 0.0344946 0.0341323 0.00608499 0.0181978 -0.00469199 0.0281627 -0.0536496 0.0273816 -0.0452482 -0.0306205 0.0514876 -0.041753 -0.0397571 -0.0472044 0.0573299 0.0461701 0.0547013 -0.0573701 0.0359829 0.008003 0.0548963 -0.0677138 -0.000108875 0.0649546 0.0292907 -0.0556524 0.0604262 
-0.0291193 -0.0533422 0.00582729 0.0633994 0.0527714 -0.0130853 0.0493356 0.0369114 -0.0723263 -0.0432993 -0.0395571 0.000373235 -0.0281412 -0.035901 -0.0225663 -0.0725292 -0.0132551 0.0293833 0.0612402 -0.0669288 0.0528434 0.0644258 0.0735624 0.0643232 -0.0714993 0.0349361 0.0240993 0.0728371 0.0480261 -0.0220902 -0.0117771 -0.0654807 0.0297158 0.0644034 -0.0382746 0.0752131 0.0277006 0.0528215 -0.0585037 0.00194166 -0.0731326 -0.0207309 0.0654607 0.0581032 -0.0650479 -0.0570192 0.0228847 -0.0617659 0.0171743 -0.0217529 0.0401525 0.0299193 -0.0454588 0.0740725 0.051359 -0.0225828 0.0240684 -0.0550943 -0.0102539 -0.012139 0.0113807 -0.0727211 0.0207587 -0.0223309 -0.0404703 -0.0308338 -0.045114 0.0697061 0.0525991 0.0171072 -0.000868517 0.0749903 -0.0193721 -0.0258007 -0.0105383 0.00481904 0.039184 -0.0303911 -0.0135193 -0.00143602 -0.0690922 -0.0336574 -0.0551338 -0.0332822 0.031895 -0.037526 0.0213958 0.0437507 -0.0215867 -0.0397456 -0.012801 -0.0598929 0.0364121 0.00588836 -0.0445494 -0.0360234 0.0692958 0.0640799 -0.0527442 -0.0572244 -0.00110726 -0.0295412 0.0497247 0.0512445 -0.0575787 0.0356519 -0.0695529 0.0449927 -0.0634317 0.0278062 -0.0345021 0.0234606 0.0390083 0.0749779 -0.0244893 -0.0370772 -0.0268503 0.0703511 -0.0751825 0.0319516 -0.0161744 -0.0697253 0.0287828 0.0523092 0.0601451 -0.0184543 -0.0720149 0.00898628 -0.0438049 -0.0533802 0.0100177 0.0575544 0.00222433 0.0740739 -0.0332813 0.0428441 0.0681592 -0.0234857 0.00207277 -0.0738702 -0.0682858 0.0698589 0.045716 0.0249909 -0.0447022 0.00650077 0.055041 0.0225575 -0.0645318 -0.0556773 0.048516 0.0239111 -0.0667478 -0.0535052 -0.0684915 0.0349136 -0.0714681 0.0726168 0.0598636 0.00588676 -0.07489 -0.00636189 0.0134242 -0.0711568 -0.0186311 -0.0756468 0.0153887 -0.0494905 -0.057918 -0.00137862 -0.0610324 0.00621848 0.0159729 0.0748008 -0.0546046 0.00394001 -0.0429716 0.07255 -0.0709551 0.0447971 0.0214123 -0.0512887 0.0321442 -0.075285 0.0120155 -0.0430224 -0.0605539 -0.0221898 -0.0554375 -0.0183179 -0.00932741 -0.0690903 0.0429264 -0.0284835 -0.0180203 0.0706915 -0.0129945 0.0693745 -0.0648325 -0.0371505 0.0522274 -0.0684061 0.0637599 0.00147226 0.0324919 0.0258202 -0.0613594 -0.050851 0.0016115 -0.0418146 -0.0321164 0.0657217 -0.017353 -0.029665 0.0524102 -0.0561772 -0.0620572 0.040476 0.0672004 0.0518739 -0.035358 -0.064279 -0.0134778 8.54566e-05 -0.0574336 -0.0652649 0.0598693 -0.0531186 0.0316128 0.0547083 -0.0687942 0.0642812 0.0666714 0.0263125 -0.0555785 -0.0289007 -0.0459121 -0.0395895 0.00621181 -0.019838 -0.0424388 -0.015397 0.0371762 0.0640373 0.0150213 0.020069 0.068788 0.0232938 -0.029861 0.0570487 0.023964 0.0177216 -0.0698328 0.0742572 -0.00927912 -0.0280884 
-0.0128817 -0.0504472 0.0141446 -0.0437508 0.0571336 -0.0161358 -0.0285701 -0.065813 0.0224941 -0.00152164 -0.016986 0.0155187 0.0715575 0.056103 0.0607974 0.0740766 -0.0412325 -0.0469764 0.0489485 0.0422238 -0.067075 -0.0463525 -0.0154467 -0.0437232 -0.0227725 -0.0192518 0.0629144 0.0343789 0.028249 -0.00407843 0.0665579 0.0140674 -0.0443592 -0.0479007 0.052564 0.0339859 0.0657476 0.0597341 -0.00599594 -0.0494331 -0.0336813 0.0299651 0.0379538 -0.0326318 -0.0274828 -0.0233251 -0.000751575 -0.0496244 -0.0759001 -0.0420088 0.0638502 -0.0428006 0.033765 0.0274797 0.0547823 -0.0469937 -0.0210172 -0.00468192 -0.0206743 -0.0674079 0.0541054 0.0740227 -0.0723959 0.0587694 0.0691802 -0.0138153 -0.0495114 0.0588721 -0.0179504 -0.0516561 -0.0476089 0.00139564 0.0382404 -0.0160246 -0.00689265 -0.04467 -0.0344894 0.0530945 -0.0515184 0.0725891 0.054659 -0.0455648 0.0235799 -0.02923 0.0246379 0.066952 0.0394434 -0.0571616 0.0236727 0.0284973 0.00579389 0.0629803 -0.0284868 -0.0404117 -0.0150563 -0.0385962 -0.0660018 -0.069586 0.073487 -0.0228962 0.0419285 -0.0571024 0.0312502 0.00264909 0.0178836 0.0754477 -0.0378216 0.026884 -0.0220634 -0.00196972 0.038756 0.0102589 0.0112468 0.0116809 0.0394102 -0.00103579 -0.0113653 -0.0208854 0.0567139 -0.0490608 0.0559878 -0.0560987 -0.0286347 0.0298058 -0.0736654 0.0259568 -0.0505899 0.051292 -0.0725117 -0.0576169 0.0771397 0.0474784 0.00984764 -0.0216289 0.0284331 0.022848 0.0254942 0.0320325 -0.0532188 -0.038994 -0.0341743 -0.027858 0.0401772 0.0115405 -0.0354921 -0.0668707 0.0518979 0.0464495 0.0160219 -0.0381496 -0.0109743 0.00729613 0.0241784 0.0267081 -0.0481592 -0.0314261 0.00726754 0.0744401 0.0151597 -0.0352838 0.0337112 -0.0730082 0.0341289 -0.0392259 -0.0659481 0.0508593 -0.00118344 -0.0655179 -0.0535782 0.0496941 0.0588873 -0.0259288 -0.0587868 0.0158709 0.0158316 0.0512703 0.0261935 0.0412206 -0.0558618 0.0342633 -0.0615872 -0.0242275 -0.00916439 -0.054982 0.0528182 0.0536502 -0.00902173 0.0137189 0.000702911 -0.0647461 -0.0232157 0.00975522 -0.0645128 -0.0243751 0.00156755 0.0505287 0.0465451 0.0555311 -0.0535823 -0.0385154 0.020075 0.00189732 -0.0668679 0.0436518 -0.0121739 0.00722219 0.0360465 0.0186291 -0.065792 0.0680734 0.0730252 -0.052397 0.0705419 -0.0446707 0.0638999 -0.0521473 -0.00829928 -0.0116057 -0.0519056 -0.0194703 -0.0500813 -0.0620489 0.0698917 0.0490573 0.063659 -0.0482269 0.0267793 -0.0661241 0.0199519 -0.0354169 -0.0329309 0.0477716 0.0664806 -0.0641201 -0.0664353 -0.0446662 0.0464225 0.00183604 -0.00234052 -0.00248816 -0.0312149 -0.0125775 0.0612303 0.00969837 -0.0641425 -0.0614094 -0.0599451 0.0373346 -0.0341724 0.0454554 0.0538561 -0.00607826 0.017066 0.0428563 -0.0548827 -0.0292496 
0.021667 -0.0452276 0.00332425 0.076469 0.0304743 0.0456092 0.0493987 0.0654718 -0.029104 -0.0637403 -0.0468231 -0.0418315 -0.00643082 -0.0250404 0.0527121 -0.0297138 0.0343449 0.0383827 0.0428761 0.0487272 0.0387561 0.0632357 -0.0423406 -0.00629995 0.0352121 -0.0570845 -0.0448339 -0.0474479 0.0614984 0.0480781 0.0634476 -0.0298669 0.0253923 -0.0407494 -0.0438293 -0.0490132 0.0101201 0.0123967 -0.0190998 -0.0375585 0.0138486 0.0522137 -0.064828 -0.0152469 0.0215222 -0.0319518 -0.00517067 -0.0338577 0.0699817 -0.0544089 -0.0102478 0.0663587 -0.0160579 0.0208032 -0.00154871 0.0492124 0.0229046 0.0312617 0.0672622 -0.0157741 0.00901679 -0.0697614 -0.0330804 0.0706258 0.0590593 -0.0227819 0.0685892 0.0108248 -0.0643262 -0.0599174 0.0505158 -0.00949113 0.0163335 0.000977189 -0.0469858 -0.014891 -0.0193705 0.0740586 -0.0290736 -0.0459676 0.0538211 -0.0454557 0.00328176 0.0178385 0.0166338 0.0558824 -0.00720372 0.00340098 -0.0645001 -0.0737533 -0.0183561 -0.00291979 0.0503026 -0.0247766 0.0363673 -0.0199888 0.0425479 -0.0770963 -0.0772427 0.0576951 0.0289857 0.000474149 0.0350973 0.0557363 0.0518426 -0.0140681 0.00683494 -0.0663232 -0.0117419 -0.0370293 -0.0237592 -0.0355616 0.0517649 0.0524299 0.0315559 0.0119667 0.00114798 0.0136146 0.063567 -0.0622689 -0.0628329 -0.0480034 -0.0412346 -0.0597632 -0.0613898 -0.0312841 -0.00303148 -0.0306636 0.0744679 0.0743506 -0.0458297 0.01879 -0.0453714 -0.00786929 0.056021 0.000535827 -0.0320388 -0.0619296 -0.0499558 0.0205965 -0.0558818 0.050913 -0.0625554 -0.0194077 -0.0725168 0.0617759 -0.0112446 -0.0205767 0.0631757 0.0275535 0.0266739 -0.0214683 -0.0540585 -0.0294013 -0.0486332 -0.0152312 0.0460148 0.0560845 -0.0725106 0.00618925 -0.0354448 -0.0705214 -0.0504585 -0.0663065 0.0737986 0.0111922 -0.0738797 -0.031896 -0.026881 -0.0267819 0.0662893 -0.0631685 0.0710514 0.0308777 -0.0231729 0.0684919 -0.0580765 0.000429827 0.0683277 -0.0267441 0.00700888 0.0031641 -0.0105186 0.031693 0.00899617 0.0413948 -0.0324281 0.0362248 -0.00977378 0.046141 -0.0200641 0.0626 -0.00836414 0.069735 0.0465626 0.0198387 0.0220139 -0.0717755 -0.0548374 0.0700314 0.00961678 -0.0695921 0.0549588 -0.0748925 -0.000344501 -0.0143661 -0.0362023 -0.0187925 0.020569 -0.00686366 0.0324719 0.0593801 -0.0039736 -0.0652609 0.020213 -0.0274149 0.0134866 -0.0169546 -0.056878 -0.0596428 -0.00806118 0.0751922 -0.0366991 0.049662 -0.0641741 0.0421324 -0.0595541 -0.0271064 -0.0611075 -0.0167363 0.024333 0.0354791 -0.00405769 -0.0737834 -0.0612092 -0.00132243 0.0240821 0.0353118 0.0013164 -0.0697501 0.073534 -0.000137844 -0.00517613 -0.0634086 0.0125059 -0.0273864 0.021672 -0.0219328 0.0578811 0.0226009 -0.0372145 -0.00391548 -0.00287269 -0.000769989 0.063491 -0.0380304 
-0.0313015 -0.0639038 -0.0351665 0.0599873 0.0233476 -0.0704346 -0.0738261 -0.0370766 0.00744747 0.0568554 -0.0139805 -0.0553038 -0.0120061 0.0379628 0.0685675 -0.037757 -0.0282086 0.000474564 -0.0656002 -0.0513981 0.0530941 0.0593422 0.0741284 0.0159961 -0.012742 -0.0644253 0.0423853 -0.0721862 0.0127512 -0.0440587 0.0143805 0.0350656 -0.0691229 -0.0362705 0.0469336 -0.00778204 -0.00102967 0.0274334 -0.012914 -0.0738304 -0.0647759 0.0687439 0.058177 0.0592156 -0.0315697 0.0344777 0.0427462 0.031545 0.0433859 -0.000415428 0.0620733 -0.0491996 -0.00617542 -0.0348413 0.0448133 0.0413763 -0.0616432 -0.0650903 0.0151379 -0.0753583 0.0519271 0.000366566 -0.0738081 -0.0603599 0.0393109 0.0161498 0.0421843 0.0063558 -0.0523547 0.0641237 0.0297232 0.00704126 0.0287381 -0.0566668 -0.0259862 0.0770914 -0.0239405 0.0483848 -0.0450928 0.0642001 -0.0194083 0.0710737 0.0258035 0.0209053 0.0724695 0.0594026 -0.0458192 -0.0532231 0.0531191 0.0736256 -0.058546 0.000253377 -0.0346149 -0.0441669 -0.0620854 0.0466309 0.0567897 -0.00085121 0.0391512 -0.0748362 0.0301058 -0.0750531 0.0551316 0.00490629 -0.0629422 -0.000157138 0.0662217 -0.0342333 0.0571467 0.0416171 0.0521051 0.0602234 -0.0637144 -0.0594662 -0.00651112 -0.0670671 -0.0338508 -0.0038639 -0.0322494 -0.013824 0.0314386 0.00791438 -0.0238406 -0.00966758 -0.0737437 0.0536676 0.022427 0.0433345 0.0406707 0.0338324 -0.00961202 0.0383266 0.0471512 0.0479205 -0.0230595 0.0123161 0.0129515 0.0493984 0.0419049 -0.0715206 0.0294457 0.047386 0.0560733 -0.0327041 -0.0335914 -0.0105994 0.0661217 -0.0577177 -0.0744914 0.0452909 -0.0545942 0.0349459 -0.0625881 -0.0251315 0.0464755 0.0215859 -0.0318903 -0.0654683 -0.0198419 -0.0477168 0.0204746 0.031747 -0.0747203 0.0156211 0.0650317 0.0649426 -0.0203426 0.0456869 0.0455649 0.0491206 -0.0142879 -0.013518 0.0309322 0.0691745 -0.0675225 -0.0709434 -0.0164229 -0.0430639 0.0572222 0.0686196 0.0406221 0.0739146 0.0633432 -0.00566381 -0.0324544 -0.0179536 0.00507532 0.0291483 -0.0305008 -0.0661664 0.0726189 0.00813248 0.00569439 0.0558084 0.0227568 0.0610007 -0.00136022 -0.00331965 -0.00769833 0.033602 0.0259448 0.00766478 -0.0253317 -0.0346112 -0.0432827 0.0472575 0.0439391 0.0623674 -0.0671621 0.00990526 0.014407 -0.0746317 -0.0468704 -0.0244103 0.0767809 0.0645089 0.0103511 -0.0691915 0.0240013 -0.0297628 -0.012532 0.0505923 -0.000433755 0.068331 0.0255562 0.0298578 -0.0454472 -0.0119608 -0.0600324 0.0318556 -0.0453101 -0.075658 0.0523848 -0.0694584 -0.0413305 -0.011727 0.0746613 0.0384731 -0.0524672 0.018134 -0.0489711 0.0288845 0.0124855 0.042284 0.0479386 -0.0215631 0.00565347 0.0767054 0.0275421 -0.0339368 0.0339118 -0.0295011 -0.0382134 0.0492485 -0.0296555 -0.0709182 
0.051317 0.0524477 -0.0669449 0.0566846 -0.0714967 -0.0452285 -0.0413779 0.0250862 -0.0239956 0.0589173 0.0290797 0.0290249 -0.0231431 -0.0221276 0.050487 -0.036888 0.0381084 -0.00607492 -0.00124857 0.0436528 -0.0264025 0.0642013 -0.0330132 -0.0598088 -0.0660253 0.0618332 0.00884882 0.0458804 0.0565362 -0.0485813 0.0159285 0.00969501 -0.00307345 -0.011756 -0.0634206 0.0489804 0.0305134 -0.0136362 -0.0683288 -0.0691939 -0.0199613 -0.027281 0.0502817 -0.0195066 0.0585722 -0.0712644 -0.0019244 0.0587987 0.0537767 0.0100197 0.00449108 0.071747 0.0267709 0.021667 -0.0408593 0.00484962 -0.00462872 -0.0466142 -0.059814 -0.0167478 0.059812 0.0607323 -0.00895818 0.0152319 -0.0516272 0.0297807 0.0777228 -0.043498 -0.0335111 -0.0124986 0.0229858 0.0432164 -0.0163809 -0.0578748 -0.0570659 0.0315919 -0.021143 -0.0118596 -0.0581248 -0.0312561 -0.075303 0.000959121 -0.0687457 0.016377 -0.0475835 0.0559393 0.0442052 0.0548237 0.0669572 -0.0699054 -0.00466954 -0.00930691 -0.0745379 0.0464198 0.0664215 0.054131 0.0460641 0.0686478 0.0195267 0.0284946 0.0531224 -0.0699713 -0.0158866 0.034644 0.00722017 -0.0369193 0.069059 -0.0644003 0.0478607 -0.0311263 0.00378327 -0.000641854 -0.0630983 0.018431 -0.0304609 0.0489927 -0.0141027 0.0270624 0.0111916 0.0260576 -0.029984 -0.0195622 -0.0148816 0.0339364 -0.0396099 -0.0637756 0.0479728 0.0526808 -0.0596685 0.0462806 0.0597054 -0.046649 0.0513248 -0.00790857 0.0723179 0.00474334 0.0756269 0.0330681 0.0335971 -0.0305551 0.000413238 -0.0403336 -0.0386764 0.0372229 0.021583 -0.0386121 0.0355019 -0.0693891 -0.0286124 0.0601021 -0.00491086 -0.0384678 -0.030836 0.018363 -0.048808 -0.00565467 -0.00153651 -0.0121407 0.0316988 -0.0238414 0.0502813 0.0279924 -0.0568015 0.00616406 0.067411 0.0382761 -0.017865 0.0733283 -0.0237988 -0.0686046 0.044287 0.0029747 -0.0431562 -0.0502709 0.0280783 -0.018669 0.0588082 0.0167577 0.0229338 -0.0640851 0.0244899 0.075942 0.0203248 0.021791 0.00505421 0.0309607 -0.0564989 0.0254171 -0.013489 -0.034168 -0.069296 -0.0159461 0.0599806 0.0772666 0.0520913 0.0384181 -0.00480258 -0.0128989 -0.0210956 0.0618302 -0.00785267 -0.0349423 -0.0618741 -0.0423102 0.0672893 0.0649949 0.057572 0.0367681 -0.00442425 -0.0510621 -0.052928 -0.00517432 -0.0208099 -0.0487484 0.0093763 -0.00638737 0.0739475 -0.0427756 -0.0227654 0.0631459 -0.0693891 -0.00144467 -0.00252285 0.0513283 0.00558627 -0.0774133 -0.0632454 0.0588371 -0.0568457 -0.0504187 0.00642802 -0.0716018 -0.0170424 0.0330267 -0.00900212 -0.0524386 -0.00569701 0.0502787 0.0663566 -0.00317072 0.0194917 -0.0228477 0.0400744 -0.0136908 0.0126637 -0.0650088 -0.0449444 -0.0306004 0.0264898 -0.0225765 0.0772295 -0.0333275 -0.0560189 0.0493404 0.0446802 -0.0419638 
0.0501886 0.0417963 -0.0286202 -0.0578737 -0.0688671 0.00918183 -0.023082 0.0340304 0.0701588 0.0510347 0.0192857 0.0722664 0.0271478 0.0521185 -0.0150647 0.049816 -0.0377384 0.0683005 -0.0111206 -0.0639034 0.0394955 -0.00636156 0.0643178 0.0704324 0.0741716 -0.0745078 0.0210945 -0.0553237 0.0326753 0.0476173 -0.0378087 -0.0327887 -0.0430844 0.0383676 0.0296976 -0.0614683 0.0590563 -0.0338934 0.0457016 0.0302174 0.021776 -0.00314178 -0.0415128 0.0739136 0.00070522 0.0739268 -0.0552423 -0.00637111 0.0749341 0.0192566 0.0698464 0.0168096 -0.0623598 0.014379 0.0744362 -0.0182404 -0.0120899 0.065463 0.0505424 0.0631652 -0.0497449 -0.0618294 -0.0026838 -0.0628376 -0.0520813 0.0630916 -0.0713837 -0.0541837 -0.0383892 -0.057248 -0.0163537 -0.0457114 0.00667606 -0.00277669 -0.0333897 0.0247985 -0.0759513 -0.018401 -0.0243542 -0.0195678 0.0271719 0.000596565 -0.0270016 0.0349284 0.0261548 0.0501487 0.0431371 0.0367072 0.0487708 -0.0664786 0.0454549 -0.00679467 -0.0408259 -0.00443569 0.0660289 0.0193482 0.0211449 -0.0617063 0.0695039 -0.00800144 -0.0523333 -0.0372889 0.0175779 0.0422621 -0.0549301 -0.0259361 0.0239537 0.0512003 0.0659553 0.0351234 0.0156018 0.0652265 0.0572835 0.0436651 0.0481381 0.0316127 0.0168063 -0.0385866 -0.0339574 0.0199435 0.0121113 -0.00758412 0.0352844 0.0165225 0.0741555 0.0630043 -0.0350941 -0.0284405 -0.0026899 -0.0692638 0.0208109 -0.0689715 -0.00865296 0.0388259 -0.0602992 -0.0282838 0.0558613 -0.0403584 0.0221592 0.0254915 -0.0078958 -0.0651068 0.00319808 -0.0369006 0.0496 -0.0210955 0.0648987 -0.0291928 -0.0647578 -0.0176813 -0.00123545 -0.00460025 0.0529301 0.0676481 -0.00894001 0.0586286 -0.0614326 -0.00407754 -0.0726561 -0.0551604 -0.0101565 0.00652696 -0.0473195 -0.0459947 0.0131761 -0.0141019 -0.0187733 -0.0116589 0.0275387 0.0607376 -0.0672828 -0.0696117 -0.0448668 0.0383554 -0.0755564 -0.0290379 -0.0462786 0.01067 0.0590789 0.0181841 -0.0183066 0.0693329 0.0749875 -0.0137588 -0.0532677 0.0667468 -0.0412067 0.0380232 0.0621129 0.0186767 -0.0148536 -0.0435268 -0.0200924 -0.0570749 0.0754782 0.0363772 0.0308781 -0.0581893 0.0636286 -0.0107505 0.0391985 -0.0246232 -0.0467468 0.0677667 -0.0166378 -0.0512143 0.00960078 0.041406 -0.0138189 -0.0266347 -0.0633127 -0.0235714 0.0462631 -0.00226315 -0.0486131 -0.069012 0.0456991 -0.0237362 -0.0309043 0.0444926 0.00685908 0.0172112 0.0393209 0.00168227 -0.0332077 0.0387685 0.0160624 -0.00771296 -0.00830024 -0.0159156 -0.0216698 0.0544547 0.00930809 0.0385058 0.0673652 0.0196879 0.0674858 -0.0172079 -0.0210109 -0.0429549 0.0581271 -0.0537025 0.0296181 0.0629905 -0.0346537 0.0296963 -0.0256769 -0.0646008 -0.0486214 -0.0422469 -0.05315 -0.0515977 -0.00289873 0.0474836 0.068165 -0.0681079 
-0.0305221 -0.0497968 0.0242705 0.0515486 0.0601324 0.0130678 -0.0641347 0.0637951 0.00788475 -0.0155763 -0.00869546 -0.0711073 -0.0500396 0.0651893 -0.0631947 0.0283518 0.00580593 -0.0541776 0.055714 -0.0626124 0.0231522 0.0694116 0.00459242 0.066051 0.0525172 0.0124403 -0.048329 0.045827 -0.0293247 -0.0346379 -0.00303997 0.0681731 -0.0176302 0.0429844 -0.0555131 -0.0459209 0.0148492 -0.0637296 -0.0550478 -0.0757378 0.0111522 -0.030279 0.0199405 0.0146034 -0.00355124 -0.0501371 -0.0706925 -0.0369898 0.0414712 -0.0338636 0.0550243 -0.0592445 0.0197896 0.0697 -0.0298134 -0.0105776 -0.0430221 -0.0418622 -0.0201315 0.0171415 -0.00432928 -0.0140184 -0.0162473 0.0542434 -0.0679458 -0.0172326 -0.0511346 -0.0683081 0.0575879 0.0211332 -0.0634207 0.0230915 -0.00998526 -0.0138611 -0.075827 -0.0342477 -0.000451652 0.0428961 -0.0734227 -0.0047892 -0.0182278 0.0196886 -0.0159065 -0.0676606 -0.0264885 -0.0347681 -0.061143 -0.0117807 -0.014217 -0.0469201 0.0649245 0.0629171 -0.0178332 0.0450617 -0.0106869 -0.0372812 -0.0728665 -0.00382265 0.0437147 -0.021815 -0.0461843 -0.025966 0.0629588 -0.0128033 0.0651024 -0.0167722 -0.0572158 -0.0344364 0.0172847 0.0720214 -0.00684409 -0.0422704 -0.0510168 0.0195057 0.0614244 0.0576819 -0.0207013 0.0300349 0.0718069 0.0730027 -0.0546436 -0.0513928 -0.0258095 -0.0711519 0.04393 -0.0423703 -0.0632041 -0.0597274 0.0498434 0.0503882 0.0757868 0.0524079 0.048654 0.00682833 0.0727618 -0.0739618 -0.0737282 -0.0231951 -0.0151504 -0.0204253 -0.037818 -0.0697426 -0.0143408 -0.0385384 -0.0139938 -0.0579697 0.0451459 -0.00110726 0.0421075 -0.00752 -0.0490031 -0.0729893 0.0293625 0.0591982 -0.0679256 -0.0388688 0.0550626 -0.0369362 -0.0542595 -0.0461084 0.0445144 0.0591762 0.0400333 -0.0288432 0.0198635 0.0656032 -0.0159276 0.0390934 -0.00300375 0.00853474 0.029172 -0.0457565 -0.0155311 -0.0159105 0.0307705 -0.023701 -0.00215517 -0.00339603 -0.022784 0.0452051 -0.00244985 0.0454011 -0.011751 -0.0222035 0.0502983 -0.0564729 -0.0263646 -0.000177008 -0.000871728 -0.0744824 0.0731606 -0.0222156 -0.0194981 0.0253563 -0.0647853 -0.0383041 -0.055508 0.0219649 -0.0354893 -0.0143559 0.0687338 -0.0477814 -0.0268404 -0.0616924 -0.0153334 0.01915 0.0147029 -0.0299243 0.046807 -0.0510618 0.0229837 0.0120137 -0.015596 0.0728701 -0.043928 -0.0266327 -0.0274148 -0.00766138 0.035478 0.0219544 0.072324 0.0275486 0.0426932 -0.0576519 0.0586226 0.00963906 -0.0577779 -0.0293689 -0.0743085 0.0404587 -0.0101147 0.02997 -0.0247153 -0.015026 -0.0655686 -0.0166621 0.0553155 -0.0600423 0.0133767 -0.0070382 -0.0254687 0.0104741 -0.0693512 -0.00534778 -0.0130629 -0.0705327 -0.0437453 0.0749155 0.0364997 0.0713887 -0.0471341 0.0111896 0.0277419 0.0607911 -0.0585582 -0.0598491 
-0.0200024 0.0388788 -0.0592152 -0.0576927 0.0431262 0.0417177 0.0738786 -0.015558 0.0690197 -0.0394738 0.0508085 -0.0540103 0.0617048 0.0589625 0.0478563 0.0467311 -0.0510392 -0.00911085 0.0202453 0.0709083 -0.0308738 0.0396014 -0.0280216 0.0393947 -0.0501363 -0.054558 0.000402253 0.0273498 0.0592482 -0.0185039 -0.0184725 -0.0692711 -0.0240868 0.0418337 0.0333492 0.0611187 -0.0181718 0.0425413 -0.0725714 0.0362889 0.0288627 0.0518867 -0.0226071 0.048514 -0.0745109 0.0703074 -0.00232961 -0.0634729 0.0264633 -0.0471631 -0.00247394 -0.0752919 0.0378743 -0.047242 0.0140404 -0.0364172 -0.0421425 0.021246 0.0346183 -0.0213679 -0.0250865 -0.0319746 -0.0554743 0.0300084 -0.0578788 0.0575115 0.0210301 0.0646842 0.00259068 -0.0745704 0.0540535 -0.0324226 0.0695061 -0.00855311 -0.0187839 -0.0673947 -0.0281834 -0.0460331 -0.0137361 0.0637571 0.0311191 0.038929 0.0620519 -0.0620284 -0.0316457 -0.0374711 0.0593816 0.0116354 -0.0209568 -0.020409 0.036641 0.0463284 0.0276726 0.024464 0.0618956 0.000208585 0.00282077 0.0108796 -0.0138163 -0.0607224 -0.0724173 -0.0294533 -0.072307 -0.03648 0.0434108 -0.0541838 0.0421449 0.0496317 0.0559356 -0.0165847 -0.0233288 -0.0405997 -0.0107068 -0.0133668 0.0589128 0.0669021 0.0353073 0.0138738 -0.043444 0.0374903 -0.0274751 0.0093459 0.0291148 -0.0349941 0.0572132 0.0103867 0.00266906 0.0392449 -0.0077624 -0.0380102 -0.0226986 0.0125739 -0.0109238 -0.00299272 0.0342356 0.0223589 -0.0704715 0.0560441 -0.0220414 0.056086 -0.0230951 0.059571 -0.0135693 0.0207185 0.0289246 0.0474398 -0.0554225 0.0547794 -0.0239105 0.0407463 0.0237866 -0.0380284 -0.0595143 -0.0346464 -0.0637807 0.0398796 0.0142052 0.0363987 -0.0747138 -0.0505713 -0.0216482 -0.035467 0.00560987 -0.0203197 0.00566599 -0.0296351 -0.0299069 0.0335082 0.0285846 -0.0304697 0.0718291 0.0214184 0.014101 -0.0105775 -0.0703466 0.0495533 -0.0573628 0.0545623 -0.0555819 0.03206 0.0276943 -0.061291 -0.0719112 0.0557578 0.069391 -0.0179228 0.0313576 0.0558682 0.0453501 0.0427473 -0.0269123 0.0611904 0.0492981 0.0356908 -0.0458981 0.0240752 -0.0728861 0.0111772 -0.0544228 -0.0133277 -0.0489534 0.065383 0.0121843 -0.0452128 -0.0331218 0.0564444 -0.0163889 -0.0148734 0.0573563 -0.0462079 -0.0107802 -0.0351081 0.0591291 -0.0508154 0.00105543 -0.0240146 0.0553074 0.0477495 0.0679196 0.0658984 -0.026544 0.00326858 0.0443178 -0.0573925 -0.0731466 0.0315285 0.0124092 -0.00468695 0.061631 0.0508368 -0.0724213 -0.0740375 -0.0445299 -0.0107801 0.0436743 -0.0649393 -0.0160435 -0.00651341 -0.00369347 -0.0746843 0.0344535 -0.00662478 -0.0192091 -0.0393807 -0.0646688 0.0153849 -0.0440133 0.00562129 0.00797961 -0.0448151 0.00530642 -0.0713061 -0.0519089 -0.0310181 0.0418065 -0.0127477 
-0.0742369 -0.0561178 0.0291772 0.0207043 0.0125503 -0.0703195 0.0133016 0.0160638 0.0214135 -0.0247551 0.0346724 0.0681934 0.0231765 -0.0329984 0.00625768 0.0322103 0.0226578 0.0239881 0.0457965 0.0716111 -0.0589863 -0.0308773 0.0342137 0.0291428 0.0593191 0.00213975 0.0438614 -0.0595827 -0.0236412 0.020031 -0.064213 0.0749051 -0.062587 0.0244616 -0.0136625 0.0200604 0.0616332 0.0036092 0.0113348 -0.0589042 0.0535243 -0.0575734 -0.03735 0.0678065 -0.0627738 0.0331328 -0.0475374 -0.037039 -0.0471914 -0.00678072 -0.0498317 0.0242749 0.0102182 -0.0567285 -0.0215998 -0.0502994 -0.007034 0.067849 -0.028219 0.0430846 0.0388024 0.0657279 -0.0176359 -0.0190741 0.0344381 0.0581011 -0.0219352 0.0477252 0.0618219 -0.053039 0.0740395 0.0596908 -0.0649471 -0.0197424 -0.005481 -0.0128671 -0.0440177 0.0155654 0.0545321 0.00885219 -0.0359953 0.00795302 -0.0642795 0.0633324 -0.0395995 0.014004 0.0073325 -0.0501454 -0.0111887 -0.00745211 -0.0556875 -0.00395808 -0.0519206 -0.0118861 0.0394829 0.0499385 -0.0405135 0.009732 -0.0337668 0.0576338 -0.0636542 0.0654446 0.00370842 -0.0250572 -0.0578721 0.0224563 -0.00996835 -0.000268229 -0.0497058 -0.0068495 -0.0579196 0.0612453 -0.042279 -0.00162599 -0.0505325 -0.028589 0.046538 -0.0402134 -0.045728 -0.0296828 -0.0274517 0.000420889 0.0608539 -0.0413879 -0.0156492 -0.0275856 -0.066941 -0.0758155 -0.00439541 0.0749864 -0.00622427 0.00201051 0.0679717 -0.0750938 0.0457495 -0.032394 -0.0193638 0.00767237 0.0234633 0.0253505 -0.00656203 -0.0214349 -0.0321087 0.0754718 0.024085 -0.00975951 0.0151143 0.045028 0.0435555 0.0330957 -0.0125917 -0.0662762 0.0714388 -0.011285 0.0459012 0.0471241 -0.0176652 0.023089 0.0513991 -0.0093841 0.0389316 -0.0356893 -0.0433516 -0.0575763 -0.0167333 0.0737367 -0.00371801 0.0171975 -0.0371617 -0.0577174 -0.0737136 0.06748 0.000144762 0.0255687 -0.0636454 0.00496939 -0.0598719 0.022425 0.00355211 -0.0595623 -0.0598228 -0.0223748 0.0556765 0.018739 -0.0261385 -0.00796613 0.00365396 -0.0100303 0.0516524 -0.0535402 0.00754945 0.019539 0.0184774 0.0553352 0.0354261 -0.0557319 -0.0282436 0.0529281 -0.0703112 0.0479537 -0.0104458 -0.0417813 0.0121564 0.0399936 -0.0275713 0.00313522 -0.0357657 0.0343228 -0.0117449 0.0427749 0.0555598 0.0548667 0.0118593 -0.00150963 -0.0479926 -0.0421 0.0194685 0.03616 0.0629024 0.015282 -0.0381398 -0.0437671 -0.0744931 0.00366862 0.0479846 0.0606963 0.0468007 -0.0171369 -0.00607291 0.0155853 -0.0061913 -0.0140026 0.0310605 -0.0533461 -0.0193498 -0.0179868 0.0383926 0.0142587 0.0231651 -0.024428 -0.0669555 0.00199726 -0.0456101 -0.024169 0.0203558 0.0340943 0.0192413 0.0511788 -0.0394792 -0.0559402 0.0465875 -0.0162288 0.0172318 -0.0756256 -0.0215371 -0.0204298 
0.0167463 -0.0326849 -0.0602456 -0.0531589 -0.0487453 -0.0247744 -0.00805959 -0.0718544 -0.0617609 -0.0208778 0.0333965 0.0135908 -0.0555693 0.0259314 0.0176907 0.0402864 -0.0135295 0.0616374 -0.0327342 -0.0111853 0.0253412 -0.0438344 0.0626588 0.0616581 -0.0411064 0.0625529 0.0143365 -0.0629062 -0.0338967 -0.0173382 -0.0614197 0.0550021 0.0579574 0.0122898 -0.00350043 -0.0668375 0.0410263 0.0070734 -0.0478419 -0.0492392 -0.00329133 0.0330666 0.0477306 -0.0360171 0.0669372 0.0567656 -0.0411234 -0.0553362 0.0729519 0.052685 -0.0123624 0.0727635 0.0676756 0.0532465 0.0712908 -0.0457174 -0.0241631 0.034383 0.00681924 0.00178383 -0.0527458 -0.0184813 0.0543707 -0.0706897 -0.0631569 -0.0652283 -0.0530072 0.037989 -0.045417 -0.0750443 -0.0587951 0.0203987 0.0189038 0.00204891 -0.0498505 -0.0516587 0.00249863 -0.011074 0.00649375 -0.0199169 -0.0632054 0.00525139 0.0350064 0.0701225 -0.0649092 -0.0625855 -0.015451 -0.0463419 -0.0726956 0.0709431 -0.0679406 0.065476 0.0639879 -0.0300985 -0.0282717 0.0456159 -0.0318052 -0.0304366 -0.0558221 0.0404345 -0.0403853 0.0143526 0.0410811 0.00158689 -0.0370411 0.0658677 -0.0500276 0.0226585 0.0592724 -0.0749834 0.0736781 0.0459407 0.0264128 0.0738098 -0.0112207 -0.0708353 0.0213449 -0.0375795 -0.0644434 -0.0364937 0.0510559 0.011419 0.0513002 0.0646401 -0.05039 -0.0681126 0.0207249 0.0701615 0.0540917 -0.0415811 -0.0392056 0.0649889 -0.0265474 0.0480363 0.0373485 0.0665506 -0.0120272 -0.055653 -0.0136765 0.00582555 0.0110009 0.0465579 0.0565789 -0.0104027 -0.0107058 0.0399163 -0.0554609 0.0738184 0.0204267 0.0571609 -0.00658106 0.00323733 0.0726933 0.0267892 -0.0404336 0.00552367 -0.0699754 0.0499923 0.00697793 0.00785708 0.0134274 0.0225509 0.0288091 0.0361126 0.0704392 0.0292309 0.00388969 -0.0160414 -0.00410685 0.0428646 -0.0749591 0.0406243 0.0263651 -0.0191584 0.062858 0.0685045 -0.0650973 -0.00906984 -0.037261 0.00640035 -0.0642099 0.0388822 0.0435072 -0.0465897 0.00261972 0.0692072 0.00461968 -0.0373957 -0.0330966 -0.0442718 0.0349335 -0.0445425 -0.055845 -0.00755645 -0.0594405 0.006869 0.0339909 0.0247887 0.00277602 -0.00420212 0.0574765 0.0706531 0.0388686 -0.0663404 -0.0744046 0.0182868 0.0599854 -0.0154764 -0.0300198 0.0242186 -0.0291487 0.0295008 0.000206557 0.00837036 -0.0464558 -0.0744244 -0.00297079 0.0550298 -0.0758386 0.0557387 0.0116813 -0.0662274 0.00168973 0.0296646 0.00160852 0.0143462 -0.0742311 -0.0200335 -0.0463846 -0.0132407 -0.0184146 0.00309438 -0.0265327 -0.0372228 0.016819 0.0322927 -0.00495963 -0.0510863 0.06568 0.0358129 0.0295149 -0.0442807 -0.0212198 -0.0343365 0.0148187 -0.0276005 0.037545 0.0247519 0.0590385 -0.0396804 0.027971 0.0516627 -0.0741637 0.0144041 -0.0616814 0.0280986 
-0.0381569 -0.0621057 0.0112046 0.0414449 0.0613808 -0.0659152 -0.0351711 0.00575405 0.0227214 0.00409358 -0.0657154 0.0605216 -0.0678547 -0.0125742 0.0733477 0.0407932 -0.0395712 0.016502 0.00952743 0.0758994 -0.00227405 -0.0745369 0.0450269 -0.00606678 0.0249208 -0.00116816 -0.0468789 0.0481679 -0.0620811 0.0397238 0.0435491 -0.0513988 0.0204733 -0.0393065 -0.0251304 -0.023439 0.0114042 -0.0594072 -0.061853 0.00514267 -0.0223887 0.017366 -0.0591331 -0.0725654 -0.0525729 0.0617534 -0.004956 0.0316565 0.029708 0.0209003 -0.00242964 -0.0456553 -0.0508447 -0.0456349 -0.0142285 -0.05721 0.00862825 -0.0494988 -0.00676626 -0.0604698 0.0129777 0.070451 -0.00689952 0.0643288 0.0436055 0.0196542 0.0571637 -0.0612477 0.0112492 -0.0078378 -0.00941628 0.0497151 -0.0143613 -0.0268491 -0.0673905 0.0750411 -0.0208316 0.0317472 0.0594936 0.0209048 -0.0664134 0.02322 -0.0194846 0.0556695 -0.0266515 -0.074938 -0.0233675 0.0690881 -0.0426505 0.045411 -0.0618356 -0.0485408 -0.0712874 -0.0151841 0.057305 -0.0690144 0.0291778 0.0518793 -0.0504776 -0.0205018 0.0716969 -0.00969562 -0.00748145 -0.0113881 0.0016275 -0.022945 0.0227027 -0.046276 0.0632374 0.0595004 -0.0230566 -0.0612562 0.0261137 0.0237647 -0.0726735 -0.0728386 0.0340452 -0.0731444 -0.0323023 -0.0352158 0.048562 0.0230009 0.0641706 0.0726932 0.0376768 0.0708802 -0.040843 -0.0319014 0.0256203 0.0294443 -0.0231326 -0.00336872 -0.0144765 -0.0235462 -0.0727983 -0.0503118 0.0328873 -0.0227698 -0.0175627 0.0319805 -0.0706483 0.0420999 -0.0329285 -0.0740769 -0.0479943 0.0556112 0.0553569 -0.067154 0.0381315 -0.0538077 0.0103594 -0.0709534 0.0689669 -0.0693664 -0.00488598 -0.0390023 -0.0398994 -0.0741223 -0.028562 0.0564082 -0.0325457 0.00228078 0.0512497 -0.0273229 -0.0377531 0.0288399 -0.0670099 -0.0392519 -0.0205019 -0.0156322 0.0353269 -0.0511023 -0.0143226 0.0527539 -0.0576433 0.0755348 0.0490346 0.0484813 -0.0394121 -0.0255096 0.0225423 0.0300011 0.0660713 -0.0664474 -0.0095818 0.0374596 0.0420064 0.0415296 -0.0515532 -0.0411468 0.0492963 -0.0592143 -0.0162312 0.0602634 -0.0299099 -0.0238885 -0.00467177 -0.0662891 0.0585618 -0.0640169 -0.0523835 0.062461 0.0301654 0.0168169 -0.0332666 -0.0409478 0.00637534 -0.0580608 0.0124558 -0.0641469 0.0110567 -0.0226793 -0.00976637 -0.0187438 -0.0357441 0.0261612 0.0757834 0.0532275 0.032796 0.0306044 -0.0584297 0.0243572 0.00140502 -0.0467251 0.0653024 0.0126305 0.0131905 -0.0619761 -0.0472439 -0.0379592 -0.0594727 0.0626435 -0.0197262 0.040134 -0.0286913 -0.0428465 -0.0586651 -0.0719747 0.0297372 0.0592135 -0.0188931 -0.0294904 -0.0468648 -0.0293087 -0.0644105 0.0173605 -0.0445325 0.0703941 -0.015491 0.0577613 0.0291984 -0.0137543 0.0269884 0.031247 0.0642187 0.0225813 
-0.00837399 -0.0251673 0.0188537 0.00617521 0.0252201 -0.0289955 0.0386852 -0.0373425 0.0434489 0.0422115 -0.0363175 -0.042433 0.011045 -0.0298847 -0.0308242 0.0401249 0.0140858 -0.0391529 -0.0258066 -0.0306888 0.0684743 -0.0314881 0.0407924 0.0375121 -0.0578536 0.0438118 0.0194971 0.041765 0.0171329 0.0413776 0.0158983 -0.0420346 -0.0378446 -0.0718644 0.0311166 0.0581199 -0.0741524 -0.0242674 -0.0734603 0.0426779 -0.0265435 -0.0369549 0.0102027 0.0347696 0.00885159 -0.0161468 -0.012037 0.0175863 -0.0445918 -0.0524324 0.0635952 0.0681884 -0.0351595 0.0606679 -0.0518951 0.00727627 -0.0721838 -0.0686702 -0.0554013 -0.0752396 -0.0715572 0.0591962 -0.0484257 0.0690114 -0.00093422 0.0758755 -0.0464492 -0.014396 0.0123603 0.0304098 -0.00197931 -0.0700917 -0.00969905 -0.0716006 -0.0108467 -0.0135958 -0.0374393 -0.00601045 0.0251722 0.0208641 0.0319265 0.0174356 -0.0233188 0.0243851 -0.0124838 -0.0714906 -0.0715895 0.0117545 -0.036972 0.0495563 0.0648118 -0.0296502 -0.0252736 -0.00503914 -0.0240205 -0.0582432 -0.0246549 -0.0373673 0.0100953 -0.0271752 0.00987452 -0.0648496 -0.0543361 0.0641265 -0.0539452 -0.036026 0.0458994 -0.0637133 0.0543939 0.0358747 0.0618348 -0.0125787 -0.0669468 0.0476557 0.0169723 -0.0436728 0.0663268 -0.00339843 -0.00106556 0.0177326 0.0441928 0.0273457 0.0726072 -0.00913981 -0.0636678 0.00813006 -0.055841 -0.0720615 0.0387758 0.0256506 0.028626 -0.000678612 0.0669874 0.0471199 0.0694755 0.0568098 -0.0544152 -0.00083806 0.0318354 0.0560396 -0.0218298 -0.0395218 0.0710725 0.0358887 -0.00311931 0.0722602 -0.0354212 -0.067388 -0.0569315 0.0424545 -0.0149936 0.0496365 0.0662719 0.025249 -0.00975551 -0.00255775 -0.0474671 -0.0575647 0.0660399 0.0734573 -0.00542876 0.0496462 -0.000938795 0.0164258 0.026025 0.0076367 -0.0471216 0.060726 -0.0155077 -0.00454271 0.047455 0.046839 -0.0565217 -0.0283937 0.0747636 0.0669964 0.000267839 0.0728159 0.0610916 0.069706 0.0696841 -0.0717503 -0.0699733 -0.0150762 0.0655843 0.0364196 -0.0138949 -0.014668 0.0436375 -0.00305549 -0.0210278 0.0386802 0.00618807 -0.0747879 0.0730333 0.0722944 -0.0154071 0.00670226 0.0694312 -0.0300515 -0.0602704 0.0580769 -0.0098494 0.0247426 -0.0460126 0.0455037 -0.0328337 0.0230414 0.00946232 0.00998425 -0.069517 0.0127642 0.0722912 0.01004 -0.0368245 0.0366625 -0.0146493 -0.0546975 0.0141422 0.0663195 -0.0457656 -0.0508697 -0.0286468 -0.0139696 0.0544346 0.0592441 -0.0636388 -0.0652185 0.0644752 0.03373 0.0403149 0.0618054 -0.00851231 -0.0170319 0.0365969 -0.037289 0.0258663 -0.0192897 0.0617864 -0.0410078 0.0499868 0.0614303 0.041501 0.0404719 0.0022433 0.048366 -0.00591855 -0.0191071 -0.0555092 -0.0187613 -0.0298233 -0.0730174 0.0414733 -0.0538379 0.00889385 0.0233048 
0.0396545 0.0468382 -0.0718622 -0.045795 -0.0517521 -0.039674 0.062123 -0.0754431 -0.0404028 0.0233193 0.0667606 -0.050941 -0.0184106 -0.0560272 0.0427365 -0.0317389 -0.0424358 0.0661568 -0.0245834 0.0732067 -0.0561745 -0.0361183 0.0151042 -0.0192488 -0.0696038 -0.0139092 0.0191026 0.0438166 0.0414859 0.0703961 -0.0196058 -0.0650971 0.052959 -0.00424135 -0.0427436 -0.0653487 -0.0204185 0.0681071 0.0633205 0.0479818 -0.045485 0.0673284 -0.0159365 -0.0670207 0.0375096 -0.0464135 0.0609215 0.0749114 0.0456565 0.0136137 -0.00266503 -0.0677048 0.0296837 0.026054 -0.0365607 0.0533892 -0.0561244 0.0108897 -0.0298395 -0.0241447 -0.0736282 -0.0401783 0.0244076 -0.0116629 0.0109749 0.0523991 0.00423837 -0.0333982 -0.0456871 -0.0636739 0.0338039 -0.0331242 -0.0262287 -0.01196 -0.0313629 0.0396651 0.0655866 -0.0258559 0.0514035 0.00575008 0.0240904 -0.0363569 -0.0601917 -0.0552905 -0.00756421 0.0200732 -0.0591608 0.0575746 -0.0483415 -0.00923249 0.012576 -0.0358405 0.0572658 -0.0421446 -0.0594496 -0.00103735 0.058265 0.00374939 -0.0148185 -0.00884656 0.0601809 -0.066644 -0.0339872 -0.0103189 -0.0678122 -0.0263835 -0.0438446 -0.0314149 0.00814765 -0.0402588 -0.0484625 -0.0505448 -0.0186888 0.0502075 -0.00546236 -0.0203941 -0.0139831 -0.020215 -0.0750094 0.0146725 0.0704115 -0.00223038 -0.0423966 0.016948 -0.0353999 -0.041908 0.0185426 -0.0575936 -0.051071 0.0155069 0.00597482 0.0482472 0.0557816 0.0438398 -0.0183674 -0.0647363 0.0659497 0.000730652 -0.0625254 0.0664276 -0.010494 -0.0268108 0.0386825 0.0241449 -0.0727774 -0.0357739 -0.0252614 -0.0110598 0.0539832 0.0270687 0.0383108 0.011846 0.0434604 -0.00947544 0.0189561 -0.0587266 -0.031026 -0.0218231 -0.0156506 0.0669992 -0.0449933 -0.0361499 0.0164015 0.0192441 -0.0733124 -0.0321452 -0.041741 -0.0548599 0.00835351 0.0250657 -0.0170168 0.0168707 -0.030846 0.0676348 0.0705218 0.0251803 -0.0433974 0.0384965 -0.0410157 0.0209854 -0.0680909 0.0485923 0.00559217 -0.0397003 0.0472315 -0.063763 -0.0638216 -0.0258813 -0.00471821 0.0446875 0.00971412 0.0180024 0.00670738 -0.0688594 -0.0550872 -0.0102482 -0.0062509 -0.00917419 0.0225257 -0.0397752 0.0189565 -0.0412891 -0.00255621 0.0658665 -0.0287501 0.0339444 0.0269142 -0.00221621 0.00261629 -0.0637981 0.0439209 -0.0684022 -0.0580728 -0.00312911 0.0160134 0.0282754 -0.0132754 -0.0552819 0.0331106 -0.0367827 0.00118885 -0.0472012 -0.0162604 0.00748101 -0.0715682 0.0162513 0.0652798 -0.0475858 -0.0387198 -0.010264 -0.00497725 0.0224986 -0.0655194 0.0130257 -0.0637131 0.033852 0.0680465 0.0254271 -0.0651632 0.0690192 0.00365277 0.0256873 -0.0269649 0.0519293 -0.0117343 -0.0484503 -0.00706834 0.0175929 -0.0128266 0.0125633 -0.043418 -0.0456457 -0.0361962 -0.0590991 0.0176528 -0.0666036 
0.0507019 -0.0746896 0.0181078 -0.00518551 0.0726424 -0.0743721 0.0576832 0.0495319 -0.0293274 0.0450417 0.00208831 -0.0643581 0.0100172 0.0611141 0.0757362 -0.0643629 0.0353177 -0.0080358 -0.0295222 -0.0617393 0.0357707 0.0118677 -0.0668213 0.0442089 0.0624856 0.0194976 0.0403137 -0.0414282 0.0530187 0.00187921 0.0356571 0.0629651 0.0372617 0.0720427 -0.0287653 -0.0681236 -0.0635128 0.00887787 -0.0575076 0.0356745 0.0267552 0.0714963 -0.012317 0.0466238 -0.0124625 0.0605051 -0.0704879 0.0568292 0.0499969 0.0686039 0.0753073 -0.0347985 -0.049372 -0.061087 0.0457269 -0.0303331 0.0605304 0.0363749 -0.0494998 -0.0482735 0.0738853 -0.0262275 -0.0694595 -0.0287571 -0.0529508 0.00527238 0.0120783 -0.0144528 0.00974447 -0.028926 -0.0448929 -0.0177662 0.00701807 0.0493375 0.0340825 -0.0021745 0.0235569 0.0326587 -0.00165893 0.0627118 -0.0112203 0.043365 0.0148369 -0.0662084 -0.0581764 0.0463572 -0.0603512 -0.0105778 0.0297298 -0.0564667 -0.0732895 -0.0752136 0.0110783 -0.025407 -0.0332373 0.008941 0.0712735 -0.0505866 -0.0247315 -0.0517867 0.000614791 0.0564177 -0.0720436 0.00660371 0.0356724 0.041368 0.0323247 -0.0756765 -0.0129413 -0.0158061 0.0519438 0.0594084 0.0540787 0.0707961 0.066065 0.0553949 0.0306028 -0.0152174 0.025956 -0.0252788 -0.0664702 0.00747458 0.0351804 0.0586564 0.0217807 -0.040789 0.00382371 0.0741961 -0.0676751 0.0443433 -0.000232549 0.0502115 0.0590483 -0.0398419 0.0387259 0.0689575 0.0755111 -0.0393259 -0.0250357 0.0312005 -0.0417229 0.0384309 0.0111394 0.00702708 0.0371755 0.0346586 -0.0433106 0.0146629 0.00672719 0.0251915 0.0433864 -0.0722346 0.0667191 -0.022044 -0.0138395 -0.0407164 -0.0666743 0.0591749 -0.0759067 0.0210959 -0.0295812 -0.00868393 -0.0544303 -0.0687504 0.0608043 -0.00666606 -0.0320304 0.00534951 -0.0398233 0.0489025 -0.0463906 0.0522709 -0.0706671 -0.0159448 -0.0362112 0.00724903 -0.00992803 0.0381241 0.0173198 -0.0219458 0.0103263 -0.00419689 0.0413095 0.0342299 -0.0674395 -0.02768 -0.0607153 -0.0686854 0.0235402 -0.0292151 -0.0412124 -0.0611416 -0.0757296 -0.0301078 0.0386408 -0.00460601 -0.0410272 0.0195819 -0.0674292 -0.0467334 0.069193 0.0596488 0.0405757 0.0707734 -0.0110155 0.0573872 0.0488643 -0.0461621 -0.040407 -0.0340497 0.0494996 -0.026964 -0.0221733 0.0316582 0.0368942 0.0234564 -0.0626105 -0.0382449 -0.0243422 -0.00990416 0.0647007 -0.0366211 0.0660999 -0.0426853 0.0324803 0.0444889 -0.00420849 -0.000912339 -0.0569857 -0.0241503 0.0548707 0.0224672 0.0473899 0.0359684 0.0534497 -0.07215 0.07589 0.023373 -0.0148665 -0.0540058 -0.0175449 0.0621465 0.0175174 -0.0139993 0.0272846 0.000256732 0.0646985 -0.0591935 -0.0331583 -0.0481521 0.0305564 0.0145057 0.0347536 -0.0202851 -0.0372054 -0.0545354 
-0.0436829 -0.0491515 0.0403336 0.0327785 0.0567576 -0.039939 -0.00583768 0.00219685 -0.0725539 -0.0569515 -0.0463621 0.0293463 -0.0323026 0.0427501 0.0224258 -0.0184639 0.0174148 -0.000345069 0.00516365 0.0174941 -0.0118236 0.00770176 0.0758783 -0.0158589 -0.0690329 -0.00277835 0.0625949 0.0053313 0.0472088 0.0550423 -0.00363159 -0.0159198 -0.0319962 0.0623736 0.0726368 0.0238094 -0.0173271 -0.0113711 0.0734795 0.0528332 0.0120457 -0.0708414 0.0651731 -0.0130085 -0.0711429 -0.0587776 -0.0393974 -0.0540081 0.0667825 -0.0498533 0.0438107 0.0330044 0.0211191 -0.069163 -0.00464542 0.0607356 0.0668756 0.0156968 -0.0453002 -0.00903387 0.0334594 0.0421014 0.0553265 0.0718821 0.0404913 0.0444364 0.0373318 -0.0292156 0.0668434 0.00213809 0.0384399 -0.0512052 0.0577354 0.0148455 -0.0696481 -0.0704481 0.000975593 -0.00678348 -0.0305929 0.000703889 -0.0338642 0.070907 0.0580659 0.0651722 0.0526486 0.0692907 -0.0667701 0.0240578 -0.0426217 -0.0255685 0.0569579 -0.0168587 -0.0222483 -0.0145454 0.0455772 0.0540173 0.0363573 -0.00477936 0.0173939 0.0360493 0.0536879 0.073055 -0.0723768 0.0439492 0.0406484 -0.0187762 0.0704395 -0.0104611 0.0195376 0.0529808 -0.0441476 0.0612974 0.00411123 -0.0085459 -0.00359869 0.0136824 -0.0485109 -0.0276088 0.0672857 -0.0537953 0.0652509 0.0100794 0.0302055 0.0737518 0.0632204 0.0524023 0.0640743 0.0386555 0.0530979 -0.062885 -0.0315406 0.0296218 0.0299941 -0.0718432 -0.0612592 -0.00198253 0.0233804 -0.0233099 0.0011783 -0.0639666 0.0601964 0.0260233 0.0468599 0.0663413 0.0696194 -0.0216123 0.0736418 0.0697596 -0.0392195 -0.0163393 0.0362523 -0.014969 0.0302553 -0.0331591 -0.0263274 0.0213315 -0.037616 0.0490928 0.0607744 0.00884193 0.0153168 0.0710391 0.0363783 -0.0587957 0.00811215 -0.00124961 0.0148699 0.0478431 -0.0538769 0.0709788 -0.0279191 0.0175384 -0.00527348 -0.0315593 -0.0100476 -0.00235144 0.0698241 -0.00680223 -0.0213458 0.0220671 -0.0524032 -0.0620127 0.0122677 -0.014535 -0.0175638 0.047488 0.0281067 -0.0434649 0.071038 -0.0200007 0.0623326 0.07452 -0.00226419 0.0042201 -0.0539027 0.0439498 -0.0675892 0.0703869 0.0720316 -0.0303179 0.0170204 -0.0143371 -0.0571154 -0.0473917 -0.0373137 -0.00293393 -0.0399273 -0.00954145 0.0451538 0.0348661 0.0427452 0.0229226 -0.00762049 0.0489377 0.0524255 -0.0520183 -0.0759188 0.0492964 -0.0129663 0.0434344 0.0133229 -0.0142018 -0.0708557 0.000515494 -0.0534657 -0.00307821 -0.0449919 -0.0507441 -0.0309778 -0.00616725 -0.0497956 0.0599869 0.0149186 -0.0518765 -0.0044529 0.0315552 -0.0657598 0.0109635 0.0110958 -0.0695798 -0.0311482 0.0072378 0.0552238 0.00636213 0.0611854 0.0174537 -0.0724369 -0.0704203 0.0545066 -0.0675207 -0.025965 0.0648281 0.00684545 0.0530212 0.0462273 0.0707572 
-0.0675181 0.0634194 -0.0148153 -0.0074851 0.0180364 -0.0549083 0.0670814 -0.0223738 -0.0407744 0.0535947 -0.0287608 -0.0146843 -0.0298237 0.00913379 -0.0648656 0.0288702 0.0724605 -0.0721675 -0.0316012 0.0484286 0.0169797 -0.0678394 0.0268386 0.00985551 -0.0272563 -0.010145 -0.0280934 -0.0114176 -0.00310791 0.0169187 0.011713 0.0630173 0.0527327 -0.0133142 0.070531 -0.0568147 -0.0503074 -0.018655 0.0481098 -0.0177793 0.0537244 -0.0446222 0.0364013 0.0496629 0.0585082 0.0158451 -0.0700666 -0.00615213 -0.0661486 -0.00583953 0.0577382 0.0271205 0.0637578 0.0679603 -0.0175211 -0.0240436 0.0336574 0.0750182 0.0490218 -0.0430637 0.0239599 -0.0602177 0.0226222 -0.00979048 -0.05611 -0.0210133 -0.028392 -0.0192469 0.0629824 0.027492 0.055972 -0.0622357 0.00423192 -0.0209793 0.0406146 -0.0318678 -0.0398271 -0.0181902 0.0463629 -0.0506219 -0.0269875 -0.0491693 -0.0255917 -0.0157485 -0.0263814 0.0368159 -0.0418517 0.0596958 -0.0167842 -0.00694072 -0.0208321 -0.0693103 -0.0628048 -0.0204037 0.0248779 0.0268532 0.0327871 -0.0471479 -0.0654232 -0.0465681 -0.0715288 0.0263639 0.0186226 0.0104066 -0.0242878 0.043725 0.0203947 -0.000804244 -0.0439902 0.000892949 0.00688431 -0.0736247 0.0123856 0.0614071 0.0397541 0.0423332 -0.00838987 -0.0451681 0.0223178 0.0734067 0.0331066 0.0194342 0.0582613 0.00164365 0.00397912 0.00733296 -0.0509024 -0.00107512 0.0622758 0.0218033 0.0597365 -0.00792219 -0.0671205 -0.00174487 0.0682453 -0.0233117 0.07288 0.0448411 -0.0392705 0.0313749 0.00153766 -0.0461227 -0.00357993 -0.034046 0.0076584 -0.00741546 -0.0441447 -0.0459857 0.0155307 0.0755245 0.0147193 0.0395911 0.0208724 0.0594674 -0.0138488 0.0203427 0.0310051 0.0216639 -0.0696198 0.0379925 0.00684918 0.0160753 0.012178 -0.0746077 -0.0297432 0.0369583 0.0147774 -0.0495384 -0.032597 0.0713893 -0.072685 0.00835214 0.0685913 0.0145494 0.0474503 0.061659 0.0239904 -0.0428109 0.0472464 0.00699782 -0.0597806 0.00281618 -0.0423983 -0.0392248 -0.0479232 0.0259039 -0.0166038 -0.0227568 0.0427996 0.0140561 0.0459371 0.0272368 0.0371716 0.0232462 -0.0703435 0.0714153 0.00346248 0.0443204 -0.0200702 -0.00508121 -0.063686 0.0600968 -0.00916832 0.0471186 -0.0587 -0.0755897 0.01345 0.039862 0.0367611 0.05136 -0.0244843 0.0259715 0.0426226 0.0729708 0.0225641 0.0607131 -0.0449413 0.0438226 0.0459633 0.050989 0.0406402 -0.0305679 -0.0698817 -0.0441502 0.0532316 0.0385775 -0.0216464 0.0219685 0.0145903 -0.0506341 -0.0249496 0.0576513 -0.0166693 -0.00267015 0.0029199 0.0657461 -0.00569768 -1.09722e-05 0.0651045 0.00195559 -0.0171726 -0.06106 0.0408525 -0.0207915 0.0250512 0.0209964 0.00145257 -0.00670997 0.0466443 0.02839 -0.0280616 0.00364376 0.00435567 0.0442776 0.0230091 0.0454235 
-0.0150454 -0.0750097 -0.0294603 -0.052895 0.0132447 0.0296418 -0.0677201 0.0163156 0.0278071 0.0660793 0.00584876 -0.0115919 0.0562206 0.0116961 -0.0403527 0.0374473 0.0745861 0.00695308 -0.011728 0.00784297 -0.0518482 0.0293362 -0.0212899 -0.006469 0.0290744 -0.018098 -0.0646617 -0.00639608 -0.0275383 -0.0228281 0.0100414 0.0706923 -0.0159117 0.0728407 -0.0568318 0.067946 -0.0241136 -0.0162194 -0.0133018 0.028997 -0.00638591 0.0657895 0.0579165 0.0296187 0.0376964 -0.039446 0.0414405 0.00918894 0.065708 -0.0442919 0.0319683 0.0611446 0.0143329 -0.0659608 0.0729676 -0.0668575 0.0510518 0.0676908 0.0201024 0.0566457 0.048525 0.0294539 0.0327274 -0.0412862 -0.0134263 -0.0534656 -0.0730718 -0.0218505 -0.0225466 -0.00980045 0.000415642 0.0289823 -0.0390475 -0.0377728 0.0739014 0.0159933 -0.0562107 -0.069569 -0.0678743 -0.00330606 -0.00262306 0.0158384 0.031154 0.0499765 -0.00443528 -0.00539608 -0.0538881 0.027746 0.0392996 0.0177858 0.0266326 -0.0213298 -0.0384294 -0.0486665 -0.0239791 -0.0119292 -0.0159102 -0.00150753 0.0525706 0.0742204 0.0695345 0.0380999 -0.053172 0.00160693 0.0160161 -0.0466021 0.058036 0.0252626 -0.0260029 -0.0367967 -0.0253714 0.028897 0.0526186 0.0631527 0.0649035 0.0159703 0.042783 0.0478443 0.0569753 -0.039585 0.0145292 0.0390787 0.0336095 -0.0328332 0.00665403 -0.0629186 0.0759387 0.0545308 0.0694324 -0.068065 0.0413984 0.0573766 -0.020209 -0.000529978 -0.0297262 0.0488189 0.0347725 0.0312169 0.0250065 -0.00222762 0.0319789 -0.0553712 0.0547544 -0.060881 0.0146677 -0.0614554 0.0259308 0.0729834 0.0354774 0.0630918 0.0432204 0.073038 -0.024284 0.0437065 0.0473887 0.014864 0.0568242 0.0565998 0.0689079 -0.0107644 -0.0594318 0.0340919 -0.0322292 -0.0468873 -0.0236763 -0.0286983 0.0104568 0.0290312 0.0439933 -0.0168016 0.0382261 -0.0232098 -0.0555817 0.0472664 0.0372578 -0.0692089 -0.0283723 -0.0590404 -0.0545659 -0.0300929 -0.0755914 0.00713184 0.0237628 0.022922 -0.022457 -0.0365878 0.0363123 0.0236904 0.0253367 0.0591807 0.0297609 0.0632844 -0.0703628 0.0229372 -0.0127972 0.062594 0.0320907 -0.00445302 0.0137191 0.0304218 0.0486789 -0.0292216 -0.0316862 -0.0509852 0.0573825 -0.0306173 0.0342252 -0.02533 0.0274269 -0.0707562 0.00196519 0.0696791 0.0580365 -0.0630419 0.0606529 0.0152444 0.0463715 -0.0540998 0.0443899 -0.020324 0.0350551 -0.012861 -0.0688758 -0.0265707 0.0085491 -0.0457643 0.0542866 -0.0235954 0.0373526 -0.014274 -0.00599885 0.0154165 0.030864 -0.0595095 0.000256447 -0.0472046 0.0556424 0.0601648 0.0692163 -0.0268262 -0.0152231 0.0456292 0.0459506 -0.0555362 -0.0481177 -0.0524316 0.00474316 0.0420255 -0.00656457 0.0452272 0.0489721 -0.0457498 -0.063448 -0.0534501 0.0565741 -0.0652138 
-0.0414283 0.0477643 0.0558776 0.0532512 0.0302192 -0.00639948 0.0488326 0.0257782 0.0558485 -0.0682566 -0.0503117 0.0345231 -0.0178061 0.0188899 -0.0101323 0.0710027 0.00601822 0.0616231 -0.0673355 -0.0138679 -0.000621972 -0.0474572 0.0303344 -0.0219995 0.0683385 0.0602679 -0.039131 0.0442924 -0.0495969 -0.0198192 -0.002774 0.0430629 -0.0647574 -0.0353572 -0.0199415 -0.0306137 0.036345 0.0389468 -0.00407105 -0.062635 -0.0091394 0.0685991 -0.00145435 -0.0756912 -0.0451934 -0.0575443 0.0388507 -0.0606732 0.0180879 0.0469349 0.063491 0.0487729 -0.0311913 -0.055984 -0.0393746 0.0176734 -0.024282 -0.0578707 0.00726769 -0.036325 0.0651268 -0.0270412 0.0141292 -0.0746776 0.0524153 0.0402671 0.062543 -0.0485284 0.0754656 0.010994 0.0673876 -0.0485343 0.0564989 -0.024782 -0.0338174 0.0427759 0.0449544 -0.0683958 0.0133698 0.0569915 0.0729191 0.073264 -0.0029718 0.00938997 0.0291903 0.0210581 0.0577433 0.00855131 -0.0518783 -0.0671959 -0.0589588 0.0738788 0.0427105 0.0756636 0.0151189 -0.0547347 -0.050242 0.0160173 -0.045511 0.00400974 -0.0739254 -0.0547087 -0.0262222 0.0518413 -0.0435259 -0.0556361 0.065915 0.0753092 -0.00389631 -0.044237 -0.0273274 0.0302954 -0.0585279 0.0622738 0.012246 -0.0585876 0.0674726 -0.0244713 -0.00129953 -0.0547982 0.0105216 0.0731476 -0.0496437 0.045426 -0.0623675 -0.0568096 0.00522183 -0.0281267 0.0106376 -0.0488272 -0.0547696 0.0328008 -0.00309807 -0.0448537 -0.00980275 -0.0721574 -0.0134459 0.0138138 -0.0616 -0.0245583 0.0428261 -0.0576976 -0.0302487 -0.036793 -0.0179047 0.0246139 0.0107713 0.0126393 -0.0244422 -0.0640252 -0.0131411 0.0449165 -0.0637708 -0.0184215 -0.0273709 -0.0307433 -0.0307187 0.0197066 -0.0060669 0.0433426 -0.0162743 0.0747008 0.0652068 0.0229912 -0.0262753 0.0465892 -0.065719 0.060284 -0.0498878 -0.0456576 -0.0609867 0.047057 -0.0727924 -0.0297221 -0.0464904 -0.021712 0.000512983 0.0418513 0.0481897 -0.0143296 0.0534405 0.0730534 -0.0372617 -0.00293596 -0.0425626 -0.0570179 0.0214254 -0.0232922 0.0236058 0.0528949 -0.0153228 0.000347255 -0.0750068 0.0400943 0.0758076 -0.0105725 0.0391396 0.0569299 -0.0640421 -0.0134875 0.0604379 0.0241385 0.0608729 0.0692301 0.0221244 0.0291621 0.039695 0.0342136 0.0311957 -0.0273822 0.031044 0.0535398 -0.0294427 0.0175913 0.0292887 -0.011346 -0.0403945 0.00900411 -0.0731147 0.0354331 -0.0707188 -0.00129655 0.011249 0.0248408 0.0104973 -0.038195 -0.0156001 -0.0571686 0.0541761 -0.000119732 -0.0103271 -0.0190197 0.00507719 -0.0484707 0.0470218 -0.0649316 0.0542767 -0.0564617 -0.0420416 0.0736363 -0.031571 -0.00561476 -0.0192116 0.0620652 -0.0590518 0.00450057 -0.073834 0.00437646 0.0517777 0.015252 -0.0744034 -0.0201952 0.0621083 0.000204919 0.0619797 -0.0531069 
0.0255591 0.0335675 0.0412398 -0.0589175 0.0151426 0.00519547 0.0116476 0.0437802 0.0681585 0.0309893 0.0469092 -0.0130356 -0.0183621 0.0166173 -0.0350023 -0.0724077 0.0307143 0.0597564 -0.0658256 0.0226311 0.0373436 0.000579831 0.0547155 -0.0737453 -0.0184837 -0.00298491 -0.00997742 0.0211798 0.0734314 0.0446244 0.0168779 -0.0286408 -0.0523275 0.0626256 0.066421 -0.0305938 -0.0476744 0.0058211 0.005242 0.0542693 -0.0463904 -0.0461689 -0.0620429 -0.0597395 0.000278077 -0.0344419 -0.023695 -0.00137048 0.0128151 0.0617124 -0.0117506 0.0403518 0.034528 -0.0219221 0.0158621 0.0690055 0.04208 -0.0375277 -0.0560968 0.0553969 -0.0631994 -0.00205593 -0.0278638 0.0183831 -0.0379131 -0.0489983 0.023903 -0.00953309 0.0160032 -0.0150565 -0.0517813 0.00342244 0.0276496 0.0457503 -0.0741705 -0.0464203 0.0751672 0.0649834 -0.0400106 -0.0495265 0.0235762 -0.0134834 -0.0271001 -0.0512573 -0.0118522 -0.0270088 0.00760473 0.0207659 0.0734693 0.0130303 -0.0743828 0.0123267 -0.00697724 -0.0731104 0.0702233 -0.0315397 -0.0653849 -0.0601548 0.0205813 -0.0106302 -0.00192765 -0.0225038 -0.0500373 -0.0583228 -0.0643542 0.0324401 0.0384714 0.0410575 0.0601417 0.0429637 0.00716061 0.0164898 -0.0238264 0.0226434 -0.0243597 0.0722324 0.0355188 0.040917 -0.00226563 0.0612438 0.0523063 -0.0250776 -0.0368546 0.0160127 0.0341738 -0.0568733 -0.030383 0.0643978 -0.0114999 0.0416989 -0.0125805 0.0277588 0.015609 -0.0618005 -0.00439027 -0.0636449 0.000148869 0.023759 0.0530351 0.0365531 -0.0620135 0.0452202 0.0733898 0.046642 -0.0254932 0.0499343 -0.0343625 -0.0494084 -0.0286558 0.0194143 0.0394733 -0.0295581 -0.00789546 -0.00766892 -0.0239377 -0.0154629 -0.0207255 0.0525193 0.0715097 0.0370862 -0.0380771 -0.0527342 0.0296133 -0.0250455 -0.0219915 0.019793 -0.0473604 0.0736766 -0.0343123 -0.0372767 0.0136658 -0.00104133 0.000664574 0.0759411 -0.0740232 0.0565779 -0.0545414 0.011512 -0.000630395 -0.0309373 -0.0133151 -0.0205564 -0.0450384 0.0623325 -0.0178221 0.0127619 -0.0195368 -0.0140181 0.0444366 0.0528723 -0.00541208 0.0176168 -0.0699649 0.0235016 0.0183238 0.0216143 -0.0205506 0.0341532 -0.00876908 0.0523653 -0.00492037 0.0295215 0.0550431 0.0279924 0.0385538 0.0326456 -0.031097 -0.0205738 -0.00130554 0.00342582 -0.0257862 -0.0752101 -0.0595355 0.0508906 0.064185 0.0313309 -0.00326429 -0.0287773 0.0743566 0.0398486 -0.0192668 0.035862 -0.0116898 0.0183808 0.0535078 0.0399562 0.0387173 0.0635889 0.0574895 -0.0266617 -0.0360074 -0.0452988 -0.0517726 -0.0140248 0.0492797 0.0732046 0.00736747 -0.0442249 -0.073166 -0.025902 -0.0500139 0.0654699 -0.0450536 -0.0338386 0.00777178 0.0204928 -0.0381171 0.0485381 -0.00619777 0.023643 0.0656937 0.0595085 0.0592866 -0.0372362 0.0365866 0.0670614 
-0.072432 -0.01883 -0.00451242 -0.011229 -0.0699646 0.0668628 0.0664848 0.00253962 -0.0581316 0.0201473 0.0163162 0.0545993 -0.032861 -0.0393544 -0.020318 -0.0484755 -0.064614 0.00391613 -0.0590673 -0.0148206 0.0602196 0.0517216 -0.017163 0.032363 0.0670639 0.0578901 0.0176723 -0.0319161 0.0475246 -0.00177514 0.0336239 -0.0483782 0.0248999 0.0429034 0.0686916 0.0340349 0.0481699 -0.0696064 -0.00706118 0.00765527 0.0445073 -0.00386367 -0.00366201 0.0716001 -0.0282514 0.0525704 0.00592948 -0.0485108 0.0381296 0.0212327 -0.0739106 -0.0189186 -0.00735164 0.0223161 -0.0219745 0.0199437 -0.0199989 -0.0533722 0.00727164 0.0604462 0.0092183 -0.0126537 0.0609976 -0.0316571 -0.00899204 0.00881464 0.00365159 0.0673554 0.00930237 -0.0361859 0.0510439 0.0150253 0.0654898 -0.0535391 -0.0164119 0.0262979 0.0319505 -0.00571787 0.0587399 -0.0305525 0.0675288 -0.0210891 0.0332326 -0.00299023 0.0716148 0.042204 0.0366018 -0.0591454 -0.0385751 0.0368423 -0.0273943 -0.0416447 0.0186 -0.0568776 -0.00188638 0.0640122 -0.0426077 0.0638787 0.00912855 0.0732557 0.0230904 -0.00399667 0.0298562 0.00269011 0.0551117 0.0281595 0.0745667 -0.0321261 -0.0402124 0.0579039 -0.0301608 0.0582127 0.000312003 -0.0581878 0.0558521 0.0260991 0.0604932 -0.0536394 -0.0686299 0.0751409 0.0453544 -0.0699182 0.0490428 -0.0494151 0.0630293 -0.0244288 5.98447e-05 0.0160125 -0.0427367 -0.0154457 -0.00551957 -0.0522033 -0.0197327 -0.0673576 0.0495386 0.00453004 -0.0511984 0.0411251 0.00181759 -0.0185363 0.0696415 -0.0605357 -0.0690292 -0.0094742 0.00922824 -0.0139278 0.0407734 -0.00921313 0.0254695 0.0225553 -0.00781759 -0.0327358 -0.0642935 -0.0472215 0.00417211 -0.0752824 -0.0400041 -0.0467985 0.0518112 -0.0230627 -0.0580696 0.0352432 0.0658631 -0.0561991 -0.00174582 0.0533744 0.069523 -0.0614108 -0.0291713 -0.0601907 -0.0324176 0.0351344 0.0632871 -0.0689458 0.0318204 0.0263211 0.0258237 0.0549146 0.0741719 -0.0278807 0.0676748 -0.0570375 -0.0157893 0.0110498 0.0149707 0.0616645 -0.0510133 -0.0614294 0.0124421 0.0181022 0.00376227 0.01115 0.0311773 0.0156256 -0.00608923 0.0104527 0.0641824 0.0368611 -0.0492131 -0.0462629 -0.0409431 -0.00610523 0.0135554 0.0265506 0.052778 -0.0108287 -0.0352024 -0.0682404 -0.0192321 0.0393576 0.0641927 0.0384483 -0.00636528 0.0676837 0.057947 -0.0355237 -0.00504239 -0.0057072 0.0651976 -0.0517886 -0.0107615 0.0101096 0.02948 0.0328866 0.0292202 -0.0349999 0.0137609 0.00596143 0.0127289 -0.0284712 -0.0199702 0.0314642 0.0114156 -0.055717 -0.00578057 0.0519955 -0.00580762 0.0627834 -0.0520281 -0.0166619 0.027042 0.0411923 0.0247248 0.00621728 0.015389 -0.00595823 -0.00728836 -0.0525456 0.0116264 -0.0727024 -0.0659235 0.0479939 -0.063222 0.0693874 -0.0209877 -0.00118606 
-0.0694376 0.0314307 0.00078778 0.0425617 0.0117933 0.0179975 0.0732147 -0.0587928 0.0753224 0.0255799 0.0560415 0.0203088 0.00104344 -0.0314519 0.00840296 0.0745158 -0.0504372 -0.0284722 -0.0413595 0.00322282 -0.0250908 -0.0630012 -0.0634142 0.0307302 0.0669446 -0.0456542 -0.0576398 0.0505328 0.000622231 0.0550814 -0.0204516 0.0414233 0.0277304 -0.0431252 -0.0423114 0.0151469 -0.0743163 0.0714815 -0.00768799 -0.0445988 -0.0604765 0.0357349 -0.0065578 0.041011 0.0316979 -0.0144568 0.0279097 0.073514 0.0677085 -0.0738649 -0.0219184 0.0337741 -0.0351661 0.047685 -0.0160342 -0.0268538 0.0482843 -0.0492888 0.0229288 0.0336628 0.0120309 -0.0270316 -0.0177988 -0.0746874 -0.0505381 0.0540454 0.0291431 -0.00204354 -0.0457615 -0.0279075 -0.0357049 -0.0710171 -0.0610336 0.0613898 0.029831 0.0335059 0.0217636 0.0224251 -0.0105609 0.000823983 -0.0709703 -0.0139523 -0.0220738 -0.065412 0.0280243 -0.0414232 -0.0289122 -0.00873311 0.0645217 -0.0275868 0.0741342 -0.0450649 -0.0755184 -0.0237041 -0.0110894 -0.0113231 0.0403663 0.0116361 -0.00677716 0.0720814 0.00595156 0.0157768 0.0457272 -0.00910869 -0.053466 0.0535682 0.069826 0.0479571 0.0735498 -0.0189184 0.00905486 -0.00479375 0.0363631 -0.0217908 -0.0249673 -0.03228 -0.0234373 0.0471416 -0.0488638 -0.00937278 -0.0217763 -0.0223156 0.0616789 0.00583379 0.0458648 0.0445546 0.0758669 0.0272607 -0.0188119 0.0374999 0.0433178 0.0159578 -0.036675 0.024079 0.0505461 -0.00487258 0.032899 -0.0633391 0.0259147 -0.0612883 -0.0416163 0.0602771 0.00467797 0.0677704 -0.0715575 -0.0709073 0.0201189 -0.065424 0.00252205 0.0489754 -0.0210612 -0.0244135 -0.0443212 -0.0417661 -0.0302172 -0.0650085 0.0723033 -0.00954367 -0.0599868 0.0547038 0.0742316 0.00934895 0.0263204 -0.063375 0.0539669 -0.0544504 -0.0436058 -0.0427955 0.0386032 -0.0388369 0.019085 0.05059 -0.0717306 0.0470099 0.0132123 0.0220599 -0.0540702 0.00914008 0.014112 -0.00306114 0.0619468 -0.0469167 0.00910724 -0.0733587 0.0112702 0.0168564 0.0379739 -0.0383364 -0.0421737 0.0749154 0.0521765 0.0575809 0.0266065 0.0671219 0.0598926 0.0384427 0.0227632 0.0501316 0.0462663 0.037539 -0.0536593 0.0665351 0.0401614 -0.0264767 -0.0147422 0.00526376 0.02073 0.0595593 0.00436777 -0.0518047 0.0120115 0.0254937 0.0530354 0.0682478 -0.056127 -0.0641236 0.029648 -0.027693 -0.0374922 0.0146735 0.042634 0.0475731 -0.0318044 -0.0459943 0.0336788 0.0500798 -0.045262 -0.00222084 -0.0172707 0.0515733 0.0633851 0.0298676 0.0592737 0.0666586 0.00288521 -0.00552253 0.0585978 -0.0316648 0.0197232 0.0424203 0.0104208 -0.0323937 -0.0444982 -0.0391574 -0.0462097 -0.00848123 -0.057911 -0.0549984 -0.0371641 0.0401447 0.0544009 -0.0597514 0.0388689 0.0394246 0.0428719 0.0155632 
-0.0642238 -0.0352272 -0.00694783 -0.052918 0.0346155 -0.00373393 -0.00836567 0.012782 -0.0639551 -0.0268493 -0.0148144 -0.00261933 0.0611147 0.0704572 0.0214084 -0.0431552 0.0514842 0.0225303 -0.0114429 0.0470201 0.0578803 0.0578154 0.0724227 -0.0554835 0.0697531 0.0339623 -0.0463765 0.0707166 -0.045522 -0.00796891 0.0246869 -0.0381983 0.0638059 0.0153446 0.0405935 -0.0220165 -0.057156 -0.0352623 -0.047319 0.073907 0.0133505 -0.0275663 0.00535993 -0.0631767 -0.0640764 -0.0320727 0.0146991 0.0723797 -0.0139639 -0.0257266 -0.0398504 0.00494481 0.0364198 -0.0739434 -0.0238351 0.0302838 0.0612685 -0.00883814 0.0266628 0.0453475 -0.0303903 0.015005 -0.012699 0.045858 0.0329626 -0.0490325 0.0342491 -0.0554742 -0.0458975 0.0181302 -0.0754797 0.0313593 0.0676701 -0.0640443 -0.0617975 -0.0301866 0.0598635 0.0192699 0.0192945 0.0115418 0.0740183 -0.0361995 -0.000250269 0.0664914 0.0612773 0.0436234 0.0688631 -0.0469417 -0.038743 -0.0669983 0.0123916 0.0686548 0.0086747 -0.0299411 0.0365662 -0.0255635 0.05335 -0.051626 -0.00773351 -0.0735821 -0.0700009 -0.0411785 0.0520808 0.0229832 0.0126224 -0.00476419 0.0521076 -0.0325513 0.0150527 -0.061292 0.0606135 0.0180255 -0.000672465 0.0370097 0.0399234 -0.0689003 -0.0431374 0.0213161 -0.026772 -0.0381474 0.0327364 0.032443 0.0735216 -0.0140432 0.0694323 -0.0322843 0.0478069 -0.022918 -0.024148 0.0282236 -0.0231653 -0.0633476 0.0564274 0.018874 0.0447394 0.0526672 -0.0484595 -0.0251247 0.0652364 -0.0327563 -0.0398409 0.0182786 -0.0602139 -0.00190443 -0.0309077 0.0707227 0.0461218 -0.0197661 -0.0486962 -0.0680515 0.0353809 0.0539484 0.0346669 -0.011831 -0.0506344 0.075639 -0.0124917 0.0716878 0.00104941 0.0348221 0.0132653 -0.0152542 0.054533 -0.0070985 0.0089247 0.0632414 0.0677032 -0.0712334 0.0682765 0.0194294 0.0442172 0.0423057 -0.0349424 0.0467349 0.0673122 -0.0302777 0.0683039 0.0689997 0.0499758 -0.0544804 -0.0289058 0.00533667 -0.0196657 0.0403383 -0.0637618 -0.0484297 -0.00593875 -0.0322618 -0.0345285 -0.0148314 0.0696567 0.0490496 0.00550777 0.0647337 -0.0412609 -0.0528275 -0.0452 0.0674314 0.0230038 0.0334028 -0.0123816 -0.0486714 0.0694654 0.067071 0.0459094 0.0439964 0.0720224 0.011696 0.0385564 0.05942 0.0480888 -0.00657331 0.00659714 0.0679265 0.0225089 -0.070156 0.0686523 -0.0190277 0.0578856 0.0361049 0.0564509 0.0649352 -0.0586542 -0.0746785 0.0534445 -0.0402317 -0.0320118 0.0312719 -0.0609407 -0.019699 0.0312949 -0.0247539 0.0709887 0.00908685 -0.0696349 -0.0231575 -0.0212636 0.0335103 0.0678756 -0.0121056 -0.0543902 -0.030403 0.0461815 0.0500031 0.0413734 0.0426426 -0.0337147 0.0483906 -0.0623603 -0.0635159 0.000463973 0.0570453 0.00481686 -0.0271323 0.0722762 -0.01931 
0.0742327 0.0303238 -0.028753 0.0297988 0.0491474 -0.0120145 0.0315243 -0.0445106 0.0245384 -0.0276458 -0.0134214 0.0613395 -0.0236045 -0.0369507 -0.0443666 -0.0680002 0.00922789 -0.037443 0.0209829 0.0493756 -0.00493432 0.0449776 0.00204924 0.0253318 0.0150143 0.00655338 -0.00425233 -0.0182448 -0.0484038 -0.057359 0.0647232 0.00884969 0.0345612 -0.0396245 0.0751701 -0.0224217 -0.0609462 -0.0366557 -0.0114801 -0.0739943 0.0286472 -0.0532214 -0.059427 -0.0470251 -0.0560759 -0.0040967 -0.0488838 -0.0411314 -0.0294826 -0.0184755 -0.00501319 0.0324533 0.00625776 -0.0455056 0.0376956 0.0476723 -0.0598467 0.0588926 -0.0215809 0.0286253 0.0486829 -0.0569041 -0.000329882 -0.027573 0.0478161 0.0358113 0.0291651 -0.0318892 0.0499047 0.0647502 0.0659987 0.0597902 0.00854118 0.06906 -0.0649262 -0.0378334 0.00906728 0.00165797 -0.0635803 0.0210678 0.0505666 0.0615182 0.00101288 -0.0354602 0.0458889 0.0417282 0.0643412 -0.0711451 0.0695961 0.0283045 -0.0669247 0.0511424 0.0335609 0.0502474 -0.0503832 -0.00556143 -0.0736449 -0.0172646 0.0437554 -0.0722403 0.0112415 -0.0486949 -0.0117723 0.00509852 -0.0406045 -0.0588233 0.0187958 -0.029106 -0.00534073 0.0608609 -0.0173221 0.0155499 -0.0285931 -0.0441457 -0.0104948 0.0592779 -0.044156 -0.0183556 0.0519609 -0.0467324 0.0582535 0.0742982 0.0205766 0.025872 0.049434 -0.0293816 0.0220949 -0.0438565 0.06296 -0.00524159 0.0658024 0.0245535 0.0292056 0.0260646 -0.0765129 -0.0173802 0.0621408 -0.0311746 -0.0490058 -0.0361287 0.0448501 0.0288678 0.0643168 -0.048768 0.0319007 -0.0617065 -0.0715177 -0.0200398 -0.0747124 0.0420658 0.0560019 0.0101631 0.0672036 -0.0280495 -0.0681934 -0.0663203 0.0163463 -0.0587793 0.0359694 -0.0649286 -0.0681334 -0.0129793 -0.0725954 0.0566123 0.0605452 -0.0359196 -0.0345337 -0.0632053 -0.0419221 -0.00130451 -0.00298756 -0.0134346 0.0238192 -0.0403397 -0.00515737 0.0379308 0.0470426 0.0476135 0.0538253 0.0280082 -0.0277253 -0.0746649 -0.0337195 0.0365773 0.0130243 -0.0411134 -0.0683053 -0.00917635 0.0467239 -0.0632162 -0.0346358 -0.034203 0.0602091 -0.050799 0.0617165 -0.0581578 -0.0357381 -0.0153367 0.0604877 0.0191481 -0.00739431 0.0383021 0.0408087 -0.0563175 0.0460368 -0.00466907 0.0200934 -0.0196374 -0.0452524 0.022237 -0.0318044 -0.00440211 -0.0422635 0.0470414 0.0747897 -0.036942 -0.0303643 -0.0688864 -0.0132865 -0.0152345 0.023559 0.0473978 0.0395613 0.0280007 -0.0270237 0.0675971 -0.0295969 0.0204433 0.0306204 0.0319274 0.0627663 -0.00753702 0.0184044 0.0597224 0.0654894 0.0759086 -0.00135945 0.0191513 0.0143918 0.0734648 0.0304451 -0.0444414 0.0634552 -0.0379575 0.0320851 -0.0353014 -0.0476958 -0.00148859 -0.0327084 -0.0382029 0.0118073 0.0514045 0.041461 -0.0354687 -0.00396817 0.0415518 
-0.00394649 -0.0405677 0.0302462 0.00363551 -0.0218079 0.0257324 -0.0328339 0.0509179 0.0253963 0.028662 0.0548433 -0.0386985 0.00902498 0.0497713 0.0579951 0.0276424 -0.0380894 0.0759486 0.0656586 -0.0103056 0.0662477 -0.0533353 0.0165651 0.0485626 0.040698 -0.0363735 0.00810842 -0.0707985 0.000743546 0.0317902 -0.0692436 -0.0562679 0.0206698 -0.0402372 0.046421 -0.0111508 -0.0271968 0.0587856 -0.0503775 -0.0374927 -0.0546408 0.0758002 -0.0418323 -0.0619891 -0.0131268 0.0331336 0.064345 0.0750085 -0.0527838 0.0409589 -0.0504052 0.0554907 -0.0568116 0.00224357 -0.0452455 -0.0684958 -0.0640045 0.0421008 -0.0607632 0.00803458 -0.0612257 0.0514044 -0.0723031 0.0686758 -0.0371222 0.0407516 0.0657139 -0.0691744 -0.0706537 0.0425644 0.014611 -0.0339677 -0.0477056 -0.063072 0.0437831 0.0636386 -0.0646002 0.00282435 0.0573187 0.00510087 0.0360999 -0.0585641 0.0600863 -0.0393349 0.00995627 -0.00864474 -0.041392 -0.000802804 -0.0645997 0.0669542 -0.0173038 0.0325125 -0.0427966 0.0216371 -0.0213133 0.0699061 -0.0691594 0.00341517 0.0126928 -0.0415692 -0.0726728 0.0640564 0.0174454 -0.00927971 0.00490743 0.0340407 -0.0190105 0.0737478 0.0455052 0.0732361 -0.0249127 -0.00140197 0.0202475 0.0151472 -0.0335425 0.0738553 0.032484 0.0543289 0.0105689 0.0142982 0.0378264 -0.0695665 -0.0624455 -0.0674397 0.0651593 0.0401103 0.0645734 0.0728498 -0.0416648 -0.0374863 -0.0567967 -0.0564221 -0.0101774 -0.0553046 0.0603436 -0.000844033 0.0710491 0.0256016 0.000526898 0.0513476 -0.0465853 0.069036 -0.00920157 -0.0381012 0.061773 0.0464567 -0.049293 0.0487749 0.0173927 -0.0665489 -0.0110241 0.0417447 0.0499185 0.0594686 0.0186911 -0.0552491 -0.0134437 0.0427319 0.059805 -0.0507559 0.00190277 -0.0101737 0.0492722 -0.0548307 0.0632338 -0.065492 0.0397665 -0.040804 -0.00905081 0.00244399 0.0395337 -0.0134344 0.0580978 -0.022919 -0.0164026 -0.0139959 -0.0751434 0.0215569 -0.0741137 -0.0644082 0.065071 -0.00198992 -0.0395121 -0.0327699 0.0740965 0.0356064 -0.0665518 -0.00323124 0.0551178 0.0430055 0.0695543 -0.0457542 -0.0771674 -0.0197609 0.0229249 -0.030396 -0.0541842 0.010192 -0.000137429 0.065645 0.030372 0.0652399 0.033574 -0.0508634 -0.0326241 0.0726503 -0.0671171 0.0652978 0.0756341 0.0477782 0.0667682 0.0344893 -0.0478263 -0.0628506 0.00653609 0.00283811 0.0267389 -0.0448478 -0.00743043 -0.0710791 0.0466528 0.00387378 0.0355134 0.0105103 -0.00704064 -0.0112774 -0.0545878 0.0349404 -0.0756316 0.0308389 -0.0174152 0.0166843 0.0597843 -0.0291665 -0.0570784 -0.0339595 -0.0497585 -0.0578061 0.0535446 -0.0673426 -0.0359283 0.0237881 0.0661167 -0.066873 0.0595205 -0.0555103 0.0495608 -0.0270831 0.0284121 -0.0327778 0.0708977 -0.0390192 0.0366757 -0.0275411 -0.00607819 0.0678289 
0.0477785 -0.0267039 -0.0676381 -0.0332953 0.0104458 0.0286462 0.0484289 -0.0736597 0.0255346 -0.06517 0.0617917 -0.0254762 0.0712245 -0.0541647 0.0361599 0.0468282 -0.0539942 0.00900957 -0.0324962 0.00634419 -0.000924961 0.0531003 0.0245839 0.024598 0.0496272 0.0653084 0.0167457 0.00282563 -0.0585067 -0.0524783 -0.039019 -0.0280895 -0.0132871 -0.0554897 0.0191719 0.0482801 0.0486153 0.0599292 -0.0326562 -0.0572632 0.0167764 0.0269404 0.0186187 0.0220883 0.0462696 0.0490837 -0.0152428 -0.0139466 0.0445818 0.0664306 0.0250514 0.0119095 0.0453327 -0.0466659 -0.0393493 -0.0128143 -0.0263001 0.0499306 0.0579396 -0.0150954 0.0571942 0.0727702 0.025826 0.0163095 0.0545151 0.0590091 0.00530977 0.0537097 -0.0388184 0.0339794 0.0571557 0.0065541 -0.0705559 -0.0576527 -0.0442566 -0.0219066 -0.070982 0.0403199 -0.0320781 0.0082271 -0.00569893 0.0411266 0.0450841 0.00275886 -0.0331777 -0.0131235 0.0667918 0.0294792 0.0571214 -0.0101526 0.0017602 0.0212762 0.00634187 0.00252698 -0.0176105 -0.00791454 -0.0421196 -0.0188349 -0.00722546 -0.0265631 0.040882 0.0339164 0.013483 -0.0700682 -0.00978939 0.0195998 0.0658693 0.0336511 0.0621507 0.0639778 0.0522781 0.0435883 -0.0605916 0.0125717 -0.0366131 -0.0514503 -0.045832 0.00293941 0.0105381 -0.0132446 -0.067783 -0.0455207 -0.0613048 0.0372085 0.0134555 0.00531716 -0.0185901 0.0532237 -0.0255141 -0.0757752 0.0420275 -0.0029009 -0.0747345 -0.0661317 -0.0592908 0.0740585 -0.0543977 0.00301774 -0.00513239 -0.0698091 -0.0147376 -0.00468498 0.0716346 -0.0547499 0.0502262 -0.00663103 0.00886883 -0.0360206 -0.00555848 -0.0696612 -0.0576773 -0.0658286 -0.0349654 0.028517 -0.0128424 -0.00468084 -0.0683407 0.0401123 -0.0205368 -0.0614533 0.00299469 0.0267404 -0.0632535 0.0337111 0.0350801 0.0339771 -0.0373942 0.000209748 -0.00621253 0.0515015 -0.0282178 -0.00887822 0.0342115 -0.0412063 -0.0740769 -0.0201773 0.0477165 0.000995326 0.00773933 -0.026474 -0.049786 -0.0405564 0.0299054 -0.0589762 0.0485762 -0.0594254 -0.013461 -0.0306823 -0.0520419 0.063687 0.0701318 0.0518593 0.022218 0.0185705 -0.0329423 -0.0702141 0.0519098 0.00824357 -0.0605078 -0.0375615 0.0333195 0.0374183 0.0367552 -0.0399061 -0.00554752 -0.032154 0.0217206 -0.0051942 -0.00463616 -0.0115568 -0.0492869 0.0729181 -0.0451458 -0.0640102 -0.0709287 -0.0345655 0.0294915 -0.0612011 -0.0288447 2.09077e-06 -0.0568877 -0.037575 0.0154768 0.018492 0.00540966 0.0721286 0.0528939 -0.0604842 -0.040934 -0.00489509 0.0740114 -0.0119704 0.0175482 0.0232127 0.0205459 0.00305311 -0.00113403 -0.0569512 -0.035165 -0.0521966 0.0400611 0.0211958 -0.006318 0.004738 -0.0306377 0.032064 -0.0353749 0.00804156 -0.0471007 0.0699268 0.046549 0.00252738 -0.0278313 0.00131076 0.037935 0.000987458 
-0.0634865 -0.0130934 -0.0604392 -0.0154399 0.00360816 -0.0589269 0.0200877 -0.0463393 0.0620732 -0.0634654 -0.0728451 -0.0732746 0.0343361 0.0435129 -0.0607004 -0.0197456 -0.0449217 -0.0382708 -0.00363971 -0.0127425 0.0753471 0.0159576 -0.0542709 0.00328045 -0.0119864 -0.00178557 0.0503027 0.0416539 0.0689484 0.0196223 -0.0499379 -0.046195 0.0214773 0.0646274 0.0673455 0.0534031 0.0599403 0.0614897 0.0677413 -0.00544896 -0.0551777 -0.0206371 0.0299731 0.0464398 0.00430583 0.0135498 -0.0636142 -0.0409287 -0.044617 0.0395418 -0.00222326 0.0306963 -0.0464028 0.0567913 -0.0335213 -0.0591685 0.0400673 -0.0589634 0.0221727 -0.0106356 0.0329827 -0.022133 -0.0394392 0.00430508 -0.0316433 0.0137147 -0.0731712 0.043378 -0.0573408 -0.0727324 0.0313893 0.0674368 0.00163186 -0.045464 -0.0431459 -0.0635397 -0.0116033 -0.0107255 0.0243562 0.0641727 -0.00760197 0.00150308 -0.0487503 -0.0681735 0.0204405 0.0327924 0.0462916 0.0170492 0.0465155 0.00364426 0.0254353 0.0337421 0.013164 -0.0461176 -0.0601723 0.0467993 -0.0404543 0.00954498 0.0683438 0.00361815 0.00763171 -0.0204795 -0.0651908 -0.0288597 0.0323536 0.0544651 -0.0650528 0.013253 0.00598171 0.0675658 -0.0307292 -0.0184661 0.0492555 0.026113 0.0700196 -0.00360593 0.0202728 0.052961 -0.052408 0.0717272 0.0329764 -0.0162867 0.0360313 -0.0734321 0.0302204 -0.0577404 0.0655269 0.04164 0.0489246 0.0572882 -0.0206553 0.0298831 -0.0459786 -0.00327217 -0.0690489 0.0678427 0.0234328 0.0647478 0.00988577 0.0604745 -0.0747045 0.060565 0.0526584 0.0474097 -0.0656679 0.0683659 0.0194315 0.0375169 0.0230957 0.0311381 -0.01725 -0.0127064 0.0717005 0.0326325 0.00175349 0.0183448 -0.0665857 -0.0368232 -0.0105948 0.000322287 -0.0718936 -0.0726089 -0.0238292 -0.0636525 -0.058581 -0.0458085 0.017884 0.011233 -0.00291742 -0.00911684 0.0141252 -0.0532688 -0.0331303 -0.0241266 -0.0500588 -0.0257897 0.0272829 0.0177471 -0.0125541 0.0338659 0.0240866 0.00708241 0.0132724 0.0560574 0.000191796 0.0209955 -0.0552885 -0.0579082 0.0113657 -0.0321713 0.0426101 0.0392865 0.0345069 0.0105317 -0.051469 0.0328512 0.0364337 -0.0183503 0.0366832 -0.00290388 -0.0478517 -0.0114118 0.0492015 0.0475745 0.0298601 -0.0434026 0.0148672 0.0237633 0.0512299 -0.0322623 0.0352719 0.00995243 -0.0605196 0.06026 -0.0689569 0.0530484 0.01022 0.0487579 -0.035028 -0.00144307 -0.0151205 -0.0160248 -0.0622905 -0.00703973 0.0635732 -0.070625 -0.071478 -0.000224546 0.00388219 -0.0474463 -0.0413653 -0.0301911 -0.0523805 0.0722168 0.0135471 -0.0423891 0.014764 -0.0108519 0.0498488 0.0413022 -0.0657438 -0.0398914 -0.0712609 -0.0209432 0.0254753 -0.0482984 -0.0646128 -0.0235955 0.0324728 -0.028983 0.0137494 -0.049384 -0.071323 -0.0310525 0.0659717 -0.0654855 
